{"learner":{"attributes":{},"feature_names":["BX_GSM_mean_5","BX_GSM_mean_10","BX_GSM_mean_30","BX_GSM_mean_60","BX_GSM_mean_120","BY_GSM_mean_5","BY_GSM_mean_10","BY_GSM_mean_30","BY_GSM_mean_60","BY_GSM_mean_120","BZ_GSM_mean_5","BZ_GSM_mean_10","BZ_GSM_mean_30","BZ_GSM_mean_60","BZ_GSM_mean_120","Vx_mean_5","Vx_mean_10","Vx_mean_30","Vx_mean_60","Vx_mean_120","Vy_mean_5","Vy_mean_10","Vy_mean_30","Vy_mean_60","Vy_mean_120","Vz_mean_5","Vz_mean_10","Vz_mean_30","Vz_mean_60","Vz_mean_120","n_mean_5","n_mean_10","n_mean_30","n_mean_60","n_mean_120","Bmag_mean_5","Bmag_mean_10","Bmag_mean_30","Bmag_mean_60","Bmag_mean_120","AE_INDEX_mean_5","AE_INDEX_mean_10","AE_INDEX_mean_30","AE_INDEX_mean_60","AE_INDEX_mean_120","Bx_rms_5","Bx_rms_15","Bx_rms_30","Bx_rms_45","Bx_rms_60","By_rms_5","By_rms_15","By_rms_30","By_rms_45","By_rms_60","Bz_rms_5","Bz_rms_15","Bz_rms_30","Bz_rms_45","Bz_rms_60","Vx_rms_5","Vx_rms_15","Vx_rms_30","Vx_rms_45","Vx_rms_60","Vy_rms_5","Vy_rms_15","Vy_rms_30","Vy_rms_45","Vy_rms_60","Vz_rms_5","Vz_rms_15","Vz_rms_30","Vz_rms_45","Vz_rms_60","B_rms_5","B_rms_15","B_rms_30","B_rms_45","B_rms_60","Bx_skew_5","Bx_skew_15","Bx_skew_30","Bx_skew_45","Bx_skew_60","By_skew_5","By_skew_15","By_skew_30","By_skew_45","By_skew_60","Bz_skew_5","Bz_skew_15","Bz_skew_30","Bz_skew_45","Bz_skew_60","Bx_kurt_5","Bx_kurt_15","Bx_kurt_30","Bx_kurt_45","Bx_kurt_60","By_kurt_5","By_kurt_15","By_kurt_30","By_kurt_45","By_kurt_60","Bz_kurt_5","Bz_kurt_15","Bz_kurt_30","Bz_kurt_45","Bz_kurt_60","sigma_c_5","sigma_c_15","sigma_c_30","sigma_c_45","sigma_c_60","sigma_r_5","sigma_r_15","sigma_r_30","sigma_r_45","sigma_r_60","compressibility_5","compressibility_15","compressibility_30","compressibility_45","compressibility_60"],"feature_types":[],"gradient_booster":{"model":{"cats":{"enc":[],"feature_segments":[],"sorted_idx":[]},"gbtree_model_param":{"num_parallel_tree":"1","num_trees":"1027"},"iteration_indptr":[0,1,2,3,4,5,6,7,8,9,10,11,12,13,14,15,16,17,18,19,20,21,22,23,24,25,26,27,28,29,30,31,32,33,34,35,36,37,38,39,40,41,42,43,44,45,46,47,48,49,50,51,52,53,54,55,56,57,58,59,60,61,62,63,64,65,66,67,68,69,70,71,72,73,74,75,76,77,78,79,80,81,82,83,84,85,86,87,88,89,90,91,92,93,94,95,96,97,98,99,100,101,102,103,104,105,106,107,108,109,110,111,112,113,114,115,116,117,118,119,120,121,122,123,124,125,126,127,128,129,130,131,132,133,134,135,136,137,138,139,140,141,142,143,144,145,146,147,148,149,150,151,152,153,154,155,156,157,158,159,160,161,162,163,164,165,166,167,168,169,170,171,172,173,174,175,176,177,178,179,180,181,182,183,184,185,186,187,188,189,190,191,192,193,194,195,196,197,198,199,200,201,202,203,204,205,206,207,208,209,210,211,212,213,214,215,216,217,218,219,220,221,222,223,224,225,226,227,228,229,230,231,232,233,234,235,236,237,238,239,240,241,242,243,244,245,246,247,248,249,250,251,252,253,254,255,256,257,258,259,260,261,262,263,264,265,266,267,268,269,270,271,272,273,274,275,276,277,278,279,280,281,282,283,284,285,286,287,288,289,290,291,292,293,294,295,296,297,298,299,300,301,302,303,304,305,306,307,308,309,310,311,312,313,314,315,316,317,318,319,320,321,322,323,324,325,326,327,328,329,330,331,332,333,334,335,336,337,338,339,340,341,342,343,344,345,346,347,348,349,350,351,352,353,354,355,356,357,358,359,360,361,362,363,364,365,366,367,368,369,370,371,372,373,374,375,376,377,378,379,380,381,382,383,384,385,386,387,388,389,390,391,392,393,394,395,396,397,398,399,400,401,402,403,404,405,406,407,408,409,410,411,412,413,414,415,416,417,418,419,420,421,422,423,424,425,426,427,428,429,430,431,432,433,434,435,436,437,438,439,440,441,442,443,444,445,446,447,448,449,450,451,452,453,454,455,456,457,458,459,460,461,462,463,464,465,466,467,468,469,470,471,472,473,474,475,476,477,478,479,480,481,482,483,484,485,486,487,488,489,490,491,492,493,494,495,496,497,498,499,500,501,502,503,504,505,506,507,508,509,510,511,512,513,514,515,516,517,518,519,520,521,522,523,524,525,526,527,528,529,530,531,532,533,534,535,536,537,538,539,540,541,542,543,544,545,546,547,548,549,550,551,552,553,554,555,556,557,558,559,560,561,562,563,564,565,566,567,568,569,570,571,572,573,574,575,576,577,578,579,580,581,582,583,584,585,586,587,588,589,590,591,592,593,594,595,596,597,598,599,600,601,602,603,604,605,606,607,608,609,610,611,612,613,614,615,616,617,618,619,620,621,622,623,624,625,626,627,628,629,630,631,632,633,634,635,636,637,638,639,640,641,642,643,644,645,646,647,648,649,650,651,652,653,654,655,656,657,658,659,660,661,662,663,664,665,666,667,668,669,670,671,672,673,674,675,676,677,678,679,680,681,682,683,684,685,686,687,688,689,690,691,692,693,694,695,696,697,698,699,700,701,702,703,704,705,706,707,708,709,710,711,712,713,714,715,716,717,718,719,720,721,722,723,724,725,726,727,728,729,730,731,732,733,734,735,736,737,738,739,740,741,742,743,744,745,746,747,748,749,750,751,752,753,754,755,756,757,758,759,760,761,762,763,764,765,766,767,768,769,770,771,772,773,774,775,776,777,778,779,780,781,782,783,784,785,786,787,788,789,790,791,792,793,794,795,796,797,798,799,800,801,802,803,804,805,806,807,808,809,810,811,812,813,814,815,816,817,818,819,820,821,822,823,824,825,826,827,828,829,830,831,832,833,834,835,836,837,838,839,840,841,842,843,844,845,846,847,848,849,850,851,852,853,854,855,856,857,858,859,860,861,862,863,864,865,866,867,868,869,870,871,872,873,874,875,876,877,878,879,880,881,882,883,884,885,886,887,888,889,890,891,892,893,894,895,896,897,898,899,900,901,902,903,904,905,906,907,908,909,910,911,912,913,914,915,916,917,918,919,920,921,922,923,924,925,926,927,928,929,930,931,932,933,934,935,936,937,938,939,940,941,942,943,944,945,946,947,948,949,950,951,952,953,954,955,956,957,958,959,960,961,962,963,964,965,966,967,968,969,970,971,972,973,974,975,976,977,978,979,980,981,982,983,984,985,986,987,988,989,990,991,992,993,994,995,996,997,998,999,1000,1001,1002,1003,1004,1005,1006,1007,1008,1009,1010,1011,1012,1013,1014,1015,1016,1017,1018,1019,1020,1021,1022,1023,1024,1025,1026,1027],"tree_info":[0,0,0,0,0,0,0,0,0,0,0,0,0,0,0,0,0,0,0,0,0,0,0,0,0,0,0,0,0,0,0,0,0,0,0,0,0,0,0,0,0,0,0,0,0,0,0,0,0,0,0,0,0,0,0,0,0,0,0,0,0,0,0,0,0,0,0,0,0,0,0,0,0,0,0,0,0,0,0,0,0,0,0,0,0,0,0,0,0,0,0,0,0,0,0,0,0,0,0,0,0,0,0,0,0,0,0,0,0,0,0,0,0,0,0,0,0,0,0,0,0,0,0,0,0,0,0,0,0,0,0,0,0,0,0,0,0,0,0,0,0,0,0,0,0,0,0,0,0,0,0,0,0,0,0,0,0,0,0,0,0,0,0,0,0,0,0,0,0,0,0,0,0,0,0,0,0,0,0,0,0,0,0,0,0,0,0,0,0,0,0,0,0,0,0,0,0,0,0,0,0,0,0,0,0,0,0,0,0,0,0,0,0,0,0,0,0,0,0,0,0,0,0,0,0,0,0,0,0,0,0,0,0,0,0,0,0,0,0,0,0,0,0,0,0,0,0,0,0,0,0,0,0,0,0,0,0,0,0,0,0,0,0,0,0,0,0,0,0,0,0,0,0,0,0,0,0,0,0,0,0,0,0,0,0,0,0,0,0,0,0,0,0,0,0,0,0,0,0,0,0,0,0,0,0,0,0,0,0,0,0,0,0,0,0,0,0,0,0,0,0,0,0,0,0,0,0,0,0,0,0,0,0,0,0,0,0,0,0,0,0,0,0,0,0,0,0,0,0,0,0,0,0,0,0,0,0,0,0,0,0,0,0,0,0,0,0,0,0,0,0,0,0,0,0,0,0,0,0,0,0,0,0,0,0,0,0,0,0,0,0,0,0,0,0,0,0,0,0,0,0,0,0,0,0,0,0,0,0,0,0,0,0,0,0,0,0,0,0,0,0,0,0,0,0,0,0,0,0,0,0,0,0,0,0,0,0,0,0,0,0,0,0,0,0,0,0,0,0,0,0,0,0,0,0,0,0,0,0,0,0,0,0,0,0,0,0,0,0,0,0,0,0,0,0,0,0,0,0,0,0,0,0,0,0,0,0,0,0,0,0,0,0,0,0,0,0,0,0,0,0,0,0,0,0,0,0,0,0,0,0,0,0,0,0,0,0,0,0,0,0,0,0,0,0,0,0,0,0,0,0,0,0,0,0,0,0,0,0,0,0,0,0,0,0,0,0,0,0,0,0,0,0,0,0,0,0,0,0,0,0,0,0,0,0,0,0,0,0,0,0,0,0,0,0,0,0,0,0,0,0,0,0,0,0,0,0,0,0,0,0,0,0,0,0,0,0,0,0,0,0,0,0,0,0,0,0,0,0,0,0,0,0,0,0,0,0,0,0,0,0,0,0,0,0,0,0,0,0,0,0,0,0,0,0,0,0,0,0,0,0,0,0,0,0,0,0,0,0,0,0,0,0,0,0,0,0,0,0,0,0,0,0,0,0,0,0,0,0,0,0,0,0,0,0,0,0,0,0,0,0,0,0,0,0,0,0,0,0,0,0,0,0,0,0,0,0,0,0,0,0,0,0,0,0,0,0,0,0,0,0,0,0,0,0,0,0,0,0,0,0,0,0,0,0,0,0,0,0,0,0,0,0,0,0,0,0,0,0,0,0,0,0,0,0,0,0,0,0,0,0,0,0,0,0,0,0,0,0,0,0,0,0,0,0,0,0,0,0,0,0,0,0,0,0,0,0,0,0,0,0,0,0,0,0,0,0,0,0,0,0,0,0,0,0,0,0,0,0,0,0,0,0,0,0,0,0,0,0,0,0,0,0,0,0,0,0,0,0,0,0,0,0,0,0,0,0,0,0,0,0,0,0,0,0,0,0,0,0,0,0,0,0,0,0,0,0,0,0,0,0,0,0,0,0,0,0,0,0,0,0,0,0,0,0,0,0,0,0,0,0,0,0,0,0,0,0,0,0,0,0,0,0,0,0,0,0,0,0,0,0,0,0,0,0,0,0,0,0,0,0,0,0,0,0,0,0,0,0,0,0,0,0,0,0,0,0,0,0,0,0,0,0,0,0,0,0,0,0,0,0,0,0,0,0,0,0,0,0,0,0,0,0,0,0,0,0,0,0,0,0,0,0,0,0,0,0,0,0,0,0,0,0,0,0,0,0,0,0,0,0,0,0,0,0,0,0,0,0,0,0,0,0,0,0,0,0,0,0,0,0,0,0,0,0,0,0,0,0,0,0,0,0,0,0,0,0,0,0,0,0,0,0,0,0,0,0,0,0,0,0,0,0,0,0,0,0],"trees":[{"base_weights":[-3.0710699E-2,-4.0408108E1,1.7036076E2,-7.601163E1,7.751122E0,1.18789375E2,2.8733145E2,-9.678786E1,-5.6450844E1,6.720423E1,-1.1809564E1,9.371302E1,1.9430745E2,2.2078542E2,3.8727744E2,-7.6938644E1,-1.05788895E2,-1.3159665E1,-6.703508E1,3.076553E1,9.949606E1,-3.7270863E1,3.4299732E1,1.649561E2,7.15183E1,2.7973083E2,1.807364E2,1.6452518E2,2.4810951E2,3.4468097E2,4.8384448E2,-1.4510149E0,-1.008203E0,-1.8917E0,-1.5650587E0,-5.910719E-1,1.8704422E-1,-1.2515956E0,-6.5779185E-1,1.2665243E0,2.2586118E-1,2.3064501E0,1.2453036E0,-8.4963816E-1,-3.3658466E-1,2.3992606E-1,1.0990982E0,1.7620156E0,3.1621048E0,5.5118376E-1,1.5717224E0,3.9248955E0,5.8034577E0,2.4940007E0,3.518355E0,3.3338244E0,1.8832365E0,5.073649E0,3.5091996E0,7.9512463E0,5.3442044E0,9.588298E0,7.103096E0],"categories":[],"categories_nodes":[],"categories_segments":[],"categories_sizes":[],"default_left":[0,0,0,0,0,0,0,0,0,0,0,0,0,0,0,0,0,0,0,0,0,0,0,0,0,0,0,0,0,0,0,0,0,0,0,0,0,0,0,0,0,0,0,0,0,0,0,0,0,0,0,0,0,0,0,0,0,0,0,0,0,0,0],"id":0,"left_children":[1,3,5,7,9,11,13,15,17,19,21,23,25,27,29,31,33,35,37,39,41,43,45,47,49,51,53,55,57,59,61,-1,-1,-1,-1,-1,-1,-1,-1,-1,-1,-1,-1,-1,-1,-1,-1,-1,-1,-1,-1,-1,-1,-1,-1,-1,-1,-1,-1,-1,-1,-1,-1],"loss_changes":[3.980413E10,8.0196593E9,6.685829E9,1.0928497E9,2.3119836E9,1.4566287E9,2.2554235E9,2.3297126E8,6.346491E8,5.7910605E8,1.7561741E9,9.130721E8,2.221911E8,3.1288934E8,5.572403E8,7.564928E7,9.043968E7,1.56967E8,3.0160128E8,1.845227E8,2.5309952E8,2.4147968E8,3.481285E8,2.3349018E8,4.215708E8,7.704166E7,1.6148429E8,1.3271373E8,2.8043264E8,2.011945E8,2.0246426E8,0E0,0E0,0E0,0E0,0E0,0E0,0E0,0E0,0E0,0E0,0E0,0E0,0E0,0E0,0E0,0E0,0E0,0E0,0E0,0E0,0E0,0E0,0E0,0E0,0E0,0E0,0E0,0E0,0E0,0E0,0E0,0E0],"parents":[2147483647,0,0,1,1,2,2,3,3,4,4,5,5,6,6,7,7,8,8,9,9,10,10,11,11,12,12,13,13,14,14,15,15,16,16,17,17,18,18,19,19,20,20,21,21,22,22,23,23,24,24,25,25,26,26,27,27,28,28,29,29,30,30],"right_children":[2,4,6,8,10,12,14,16,18,20,22,24,26,28,30,32,34,36,38,40,42,44,46,48,50,52,54,56,58,60,62,-1,-1,-1,-1,-1,-1,-1,-1,-1,-1,-1,-1,-1,-1,-1,-1,-1,-1,-1,-1,-1,-1,-1,-1,-1,-1,-1,-1,-1,-1,-1,-1],"split_conditions":[2.638E2,7.24E1,5.274E2,3.82E1,-4.798E2,7.3768153E0,8.296271E0,-3.8788E2,-4.445E2,4.5567703E0,5.4621243E0,-5.603E2,-5.4038E2,5.241894E0,8.602E2,4.4869366E0,2.44E1,4.5924363E0,5.3380375E0,-5.8925E2,-5.6398E2,4.036823E0,7.503138E0,4.268661E0,4.8143306E0,1.016896E1,3.986E2,-5.5314E2,-5.603E2,2.8446667E0,5.0755E0,-1.4510149E0,-1.008203E0,-1.8917E0,-1.5650587E0,-5.910719E-1,1.8704422E-1,-1.2515956E0,-6.5779185E-1,1.2665243E0,2.2586118E-1,2.3064501E0,1.2453036E0,-8.4963816E-1,-3.3658466E-1,2.3992606E-1,1.0990982E0,1.7620156E0,3.1621048E0,5.5118376E-1,1.5717224E0,3.9248955E0,5.8034577E0,2.4940007E0,3.518355E0,3.3338244E0,1.8832365E0,5.073649E0,3.5091996E0,7.9512463E0,5.3442044E0,9.588298E0,7.103096E0],"split_indices":[40,40,40,40,15,37,37,15,15,37,37,15,15,37,40,37,40,37,37,15,15,37,37,37,37,37,40,15,15,32,32,0,0,0,0,0,0,0,0,0,0,0,0,0,0,0,0,0,0,0,0,0,0,0,0,0,0,0,0,0,0,0,0],"split_type":[0,0,0,0,0,0,0,0,0,0,0,0,0,0,0,0,0,0,0,0,0,0,0,0,0,0,0,0,0,0,0,0,0,0,0,0,0,0,0,0,0,0,0,0,0,0,0,0,0,0,0,0,0,0,0,0,0,0,0,0,0,0,0],"sum_hessian":[5.78551E6,4.67717E6,1.10834E6,2.689129E6,1.988041E6,7.69207E5,3.39133E5,1.304046E6,1.385083E6,4.92159E5,1.495882E6,5.77461E5,1.91746E5,2.03587E5,1.35546E5,4.06857E5,8.97189E5,2.72111E5,1.112972E6,2.31234E5,2.60925E5,9.63721E5,5.32161E5,1.37164E5,4.40297E5,2.6281E4,1.65465E5,6.6558E4,1.37029E5,9.4063E4,4.1483E4,2.18316E5,1.88541E5,4.06263E5,4.90926E5,1.39927E5,1.32184E5,8.01572E5,3.114E5,6.0504E4,1.7073E5,8.9936E4,1.70989E5,5.01378E5,4.62343E5,3.36766E5,1.95395E5,4.8113E4,8.9051E4,1.78475E5,2.61822E5,1.7828E4,8.453E3,9.5601E4,6.9864E4,3.5823E4,3.0735E4,4.4514E4,9.2515E4,8.545E3,8.5518E4,1.2203E4,2.928E4],"tree_param":{"num_deleted":"0","num_feature":"125","num_nodes":"63","size_leaf_vector":"1"}},{"base_weights":[8.953882E-4,-4.3404224E1,1.5854689E2,-7.789911E1,-5.6095344E-1,1.0967093E2,2.8885266E2,-9.55233E1,-5.796364E1,4.1218353E1,-1.9834667E1,8.038915E1,1.6273799E2,4.7585562E2,2.4608238E2,-1.0867159E2,-8.3871346E1,-2.0867498E1,-6.817269E1,2.9201908E1,9.558754E1,7.241292E1,-2.6557114E1,1.3594743E2,6.2078064E1,2.5199055E2,1.4592664E2,4.3914673E2,6.1116144E2,2.1611647E2,2.9847058E2,-1.5773158E0,-1.8807356E0,-1.1035464E0,-1.4834307E0,3.6398283E-1,-5.003589E-1,-1.1502585E0,-3.4123972E-1,1.2372235E0,1.7040303E-1,3.5405471E0,1.4171714E0,2.1869056E0,8.078426E-1,-4.9908125E-1,1.0425401E0,2.175637E0,1.3749952E1,2.3485692E0,8.977816E-1,5.0439906E0,3.5754395E0,3.0974848E0,1.9733255E0,9.72209E0,6.7121983E0,1.0627702E1,7.9911447E0,4.145633E0,3.1428423E0,5.620954E0,4.2460985E0],"categories":[],"categories_nodes":[],"categories_segments":[],"categories_sizes":[],"default_left":[0,0,0,0,0,0,0,0,0,0,0,0,0,0,0,0,0,0,0,0,0,0,0,0,0,0,0,0,0,0,0,0,0,0,0,0,0,0,0,0,0,0,0,0,0,0,0,0,0,0,0,0,0,0,0,0,0,0,0,0,0,0,0],"id":1,"left_children":[1,3,5,7,9,11,13,15,17,19,21,23,25,27,29,31,33,35,37,39,41,43,45,47,49,51,53,55,57,59,61,-1,-1,-1,-1,-1,-1,-1,-1,-1,-1,-1,-1,-1,-1,-1,-1,-1,-1,-1,-1,-1,-1,-1,-1,-1,-1,-1,-1,-1,-1,-1,-1],"loss_changes":[3.980458E10,6.710936E9,7.917488E9,8.838226E8,1.6309258E9,1.4048092E9,2.711974E9,2.045358E8,4.470295E8,4.1772352E8,8.595003E8,5.9268506E8,4.8227994E8,3.1298355E8,4.3313152E8,5.28E7,8.613069E7,1.1079275E8,1.2487629E8,4.6171942E8,1.1485638E8,1.3281542E8,5.0106106E8,1.6307866E8,2.4112947E8,9.441306E7,2.952192E8,1.9664998E8,7.093658E7,1.5420467E8,1.7693184E8,0E0,0E0,0E0,0E0,0E0,0E0,0E0,0E0,0E0,0E0,0E0,0E0,0E0,0E0,0E0,0E0,0E0,0E0,0E0,0E0,0E0,0E0,0E0,0E0,0E0,0E0,0E0,0E0,0E0,0E0,0E0,0E0],"parents":[2147483647,0,0,1,1,2,2,3,3,4,4,5,5,6,6,7,7,8,8,9,9,10,10,11,11,12,12,13,13,14,14,15,15,16,16,17,17,18,18,19,19,20,20,21,21,22,22,23,23,24,24,25,25,26,26,27,27,28,28,29,29,30,30],"right_children":[2,4,6,8,10,12,14,16,18,20,22,24,26,28,30,32,34,36,38,40,42,44,46,48,50,52,54,56,58,60,62,-1,-1,-1,-1,-1,-1,-1,-1,-1,-1,-1,-1,-1,-1,-1,-1,-1,-1,-1,-1,-1,-1,-1,-1,-1,-1,-1,-1,-1,-1,-1,-1],"split_conditions":[2.4116667E2,6.68E1,4.956E2,4.4083332E1,-4.4712E2,3.748E2,-6.6126666E0,2.76E1,-4.4197998E2,5.254E0,-3.5068333E0,-5.4032E2,-4.8616667E0,9.5749164E2,6.348E2,-3.6044E2,-3.86225E2,-5.432833E2,1.4616E1,-5.56655E2,-5.676667E2,-4.8616667E0,1.7710001E1,1.7710001E1,-4.028333E0,-6.6126666E0,-5.4032E2,2.514E0,9.486E0,-5.52959E2,-5.56655E2,-1.5773158E0,-1.8807356E0,-1.1035464E0,-1.4834307E0,3.6398283E-1,-5.003589E-1,-1.1502585E0,-3.4123972E-1,1.2372235E0,1.7040303E-1,3.5405471E0,1.4171714E0,2.1869056E0,8.078426E-1,-4.9908125E-1,1.0425401E0,2.175637E0,1.3749952E1,2.3485692E0,8.977816E-1,5.0439906E0,3.5754395E0,3.0974848E0,1.9733255E0,9.72209E0,6.7121983E0,1.0627702E1,7.9911447E0,4.145633E0,3.1428423E0,5.620954E0,4.2460985E0],"split_indices":[44,41,44,44,16,41,13,41,16,30,13,16,13,44,41,16,16,17,30,16,17,13,30,30,13,13,16,30,30,17,16,0,0,0,0,0,0,0,0,0,0,0,0,0,0,0,0,0,0,0,0,0,0,0,0,0,0,0,0,0,0,0,0],"split_type":[0,0,0,0,0,0,0,0,0,0,0,0,0,0,0,0,0,0,0,0,0,0,0,0,0,0,0,0,0,0,0,0,0,0,0,0,0,0,0,0,0,0,0,0,0,0,0,0,0,0,0,0,0,0,0,0,0,0,0,0,0,0,0],"sum_hessian":[5.78411E6,4.540939E6,1.243171E6,2.515558E6,2.025381E6,9.0407E5,3.39101E5,1.335174E6,1.180384E6,6.39388E5,1.385993E6,5.82602E5,3.21468E5,6.3117E4,2.75984E5,6.273E5,7.07874E5,2.54743E5,9.25641E5,5.23655E5,1.15733E5,9.4141E4,1.291852E6,1.44415E5,4.38187E5,5.0949E4,2.70519E5,4.9654E4,1.3463E4,1.75569E5,1.00415E5,2.50349E5,3.76951E5,2.33594E5,4.7428E5,4.7882E4,2.06861E5,8.72572E5,5.3069E4,1.48455E5,3.752E5,7.116E3,1.08617E5,2.4893E4,6.9248E4,1.233983E6,5.7869E4,1.44097E5,3.18E2,3.2438E4,4.05749E5,1.751E4,3.3439E4,9.3742E4,1.76777E5,6.57E3,4.3084E4,9.721E3,3.742E3,6.2425E4,1.13144E5,4.2854E4,5.7561E4],"tree_param":{"num_deleted":"0","num_feature":"125","num_nodes":"63","size_leaf_vector":"1"}},{"base_weights":[-6.897067E-3,-3.942484E1,1.664701E2,-7.576794E1,4.295886E0,3.711967E2,1.361351E2,-9.707337E1,-5.8890293E1,-2.0126337E1,4.589949E1,3.0085077E2,4.899953E2,1.0188304E2,2.2490872E2,-1.0798218E2,-8.614181E1,-7.121687E1,-3.4062454E1,4.3109028E1,-3.6731537E1,1.1773704E2,3.4919857E1,3.7162552E2,2.6795905E2,5.724236E2,4.2092255E2,1.5551527E2,8.058108E1,2.745958E2,1.9502264E2,-1.4366717E0,-1.8100713E0,-1.5486107E0,-1.1440727E0,-4.556157E-1,-1.241759E0,-2.3982113E-3,-7.508947E-1,1.8413999E0,5.1905555E-1,-2.4262045E-2,-7.506731E-1,1.4290912E0,2.7886486E0,1.5265602E0,2.8302512E-1,8.206601E0,5.7106543E0,3.8966196E0,5.0503793E0,1.1129379E1,8.299451E0,1.1841612E1,6.6693983E0,1.8376766E0,3.2863584E0,7.101826E-1,1.7804171E0,3.7889593E0,5.9352045E0,4.030297E0,2.7878594E0],"categories":[],"categories_nodes":[],"categories_segments":[],"categories_sizes":[],"default_left":[0,0,0,0,0,0,0,0,0,0,0,0,0,0,0,0,0,0,0,0,0,0,0,0,0,0,0,0,0,0,0,0,0,0,0,0,0,0,0,0,0,0,0,0,0,0,0,0,0,0,0,0,0,0,0,0,0,0,0,0,0,0,0],"id":2,"left_children":[1,3,5,7,9,11,13,15,17,19,21,23,25,27,29,31,33,35,37,39,41,43,45,47,49,51,53,55,57,59,61,-1,-1,-1,-1,-1,-1,-1,-1,-1,-1,-1,-1,-1,-1,-1,-1,-1,-1,-1,-1,-1,-1,-1,-1,-1,-1,-1,-1,-1,-1,-1,-1],"loss_changes":[3.796625E10,7.433056E9,6.878759E9,9.185567E8,2.1575488E9,1.1942687E9,2.933295E9,1.3463347E8,4.3622195E8,1.404969E9,6.195118E8,2.0881357E8,3.0219264E8,7.952696E8,3.987292E8,4.137267E7,8.293376E7,2.2448691E8,1.974425E8,2.1719043E8,3.5949632E8,1.672206E8,7.053198E8,7.261824E7,7.342746E7,1.6599706E8,8.055859E7,3.944919E8,5.3740186E8,3.7637888E8,2.0640768E8,0E0,0E0,0E0,0E0,0E0,0E0,0E0,0E0,0E0,0E0,0E0,0E0,0E0,0E0,0E0,0E0,0E0,0E0,0E0,0E0,0E0,0E0,0E0,0E0,0E0,0E0,0E0,0E0,0E0,0E0,0E0,0E0],"parents":[2147483647,0,0,1,1,2,2,3,3,4,4,5,5,6,6,7,7,8,8,9,9,10,10,11,11,12,12,13,13,14,14,15,15,16,16,17,17,18,18,19,19,20,20,21,21,22,22,23,23,24,24,25,25,26,26,27,27,28,28,29,29,30,30],"right_children":[2,4,6,8,10,12,14,16,18,20,22,24,26,28,30,32,34,36,38,40,42,44,46,48,50,52,54,56,58,60,62,-1,-1,-1,-1,-1,-1,-1,-1,-1,-1,-1,-1,-1,-1,-1,-1,-1,-1,-1,-1,-1,-1,-1,-1,-1,-1,-1,-1,-1,-1,-1,-1],"split_conditions":[2.65E2,6.8933334E1,-5.633E0,3.62E1,5.3095026E0,6.931E2,5.0141666E2,2.5766666E1,5.0191417E0,-4.9639038E2,-3.845E0,-7.942E0,-8.99E0,-5.370251E2,-5.5592975E2,-4.0780362E2,4.576086E0,-4.715784E2,-4.2917813E2,-6.2486273E2,-2.111E0,7.9350214E0,-4.830307E2,4.349234E0,5.141667E2,5.016681E0,1.2179185E0,4.956317E0,5.4857388E0,4.295351E0,-3.756E0,-1.4366717E0,-1.8100713E0,-1.5486107E0,-1.1440727E0,-4.556157E-1,-1.241759E0,-2.3982113E-3,-7.508947E-1,1.8413999E0,5.1905555E-1,-2.4262045E-2,-7.506731E-1,1.4290912E0,2.7886486E0,1.5265602E0,2.8302512E-1,8.206601E0,5.7106543E0,3.8966196E0,5.0503793E0,1.1129379E1,8.299451E0,1.1841612E1,6.6693983E0,1.8376766E0,3.2863584E0,7.101826E-1,1.7804171E0,3.7889593E0,5.9352045E0,4.030297E0,2.7878594E0],"split_indices":[43,42,11,42,38,43,43,42,38,19,11,11,11,19,19,19,38,19,19,19,11,38,19,34,43,34,34,38,38,34,11,0,0,0,0,0,0,0,0,0,0,0,0,0,0,0,0,0,0,0,0,0,0,0,0,0,0,0,0,0,0,0,0],"split_type":[0,0,0,0,0,0,0,0,0,0,0,0,0,0,0,0,0,0,0,0,0,0,0,0,0,0,0,0,0,0,0,0,0,0,0,0,0,0,0,0,0,0,0,0,0,0,0,0,0,0,0,0,0,0,0,0,0,0,0,0,0,0,0],"sum_hessian":[5.785611E6,4.677975E6,1.107636E6,2.554517E6,2.123458E6,1.42939E5,9.64697E5,1.129141E6,1.425376E6,1.338015E6,7.85443E5,8.9782E4,5.3157E4,6.96115E5,2.68582E5,5.6515E5,5.63991E5,9.52482E5,4.72894E5,2.78279E5,1.059736E6,1.04129E5,6.81314E5,2.848E4,6.1302E4,2.4229E4,2.8928E4,1.97885E5,4.9823E5,1.00868E5,1.67714E5,9.3219E4,4.71931E5,3.49602E5,2.14389E5,1.07336E5,8.45146E5,1.25944E5,3.4695E5,3.7663E4,2.40616E5,2.27442E5,8.32294E5,6.7572E4,3.6557E4,1.54726E5,5.26588E5,3.495E3,2.4985E4,3.7811E4,2.3491E4,8.293E3,1.5936E4,8.14E2,2.8114E4,1.04937E5,9.2948E4,2.21419E5,2.76811E5,6.9977E4,3.0891E4,4.9942E4,1.17772E5],"tree_param":{"num_deleted":"0","num_feature":"125","num_nodes":"63","size_leaf_vector":"1"}},{"base_weights":[-7.77938E-3,-3.909608E1,1.6097594E2,-7.42339E1,4.4795814E0,3.7289703E2,1.3299904E2,-9.481684E1,-5.6997696E1,5.8037956E1,-1.3974324E1,3.019321E2,4.8636984E2,1.01967514E2,2.240103E2,-7.805653E1,-1.0211931E2,-3.220983E1,-7.0061104E1,9.8255974E1,3.9819756E1,5.7680763E1,-2.4370295E1,3.6336884E2,2.6699243E2,5.600172E2,4.1900525E2,1.5910318E2,8.117925E1,2.74209E2,1.9264488E2,-1.3512994E0,-8.104211E-1,-1.8385543E0,-1.5268975E0,3.239982E-1,-6.1810845E-1,-1.1965641E0,-3.8153288E-1,1.1916842E0,2.577361E0,3.4696755E-1,1.4404818E0,2.1479714E0,6.0903394E-1,-1.1277585E-1,-6.7484874E-1,9.097855E0,5.5912867E0,3.9026434E0,4.9798326E0,1.10026455E1,8.0360155E0,1.1708001E1,6.6231728E0,2.0662444E0,3.4710093E0,2.4545581E0,1.0523471E0,3.8218043E0,5.9679294E0,3.9559536E0,2.7030993E0],"categories":[],"categories_nodes":[],"categories_segments":[],"categories_sizes":[],"default_left":[0,0,0,0,0,0,0,0,0,0,0,0,0,0,0,0,0,0,0,0,0,0,0,0,0,0,0,0,0,0,0,0,0,0,0,0,0,0,0,0,0,0,0,0,0,0,0,0,0,0,0,0,0,0,0,0,0,0,0,0,0,0,0],"id":3,"left_children":[1,3,5,7,9,11,13,15,17,19,21,23,25,27,29,31,33,35,37,39,41,43,45,47,49,51,53,55,57,59,61,-1,-1,-1,-1,-1,-1,-1,-1,-1,-1,-1,-1,-1,-1,-1,-1,-1,-1,-1,-1,-1,-1,-1,-1,-1,-1,-1,-1,-1,-1,-1,-1],"loss_changes":[3.640273E10,7.1272125E9,6.7009024E9,9.1419546E8,2.0537283E9,1.0610913E9,2.8197192E9,1.4372454E8,4.541348E8,3.9014554E8,1.1512279E9,1.738921E8,2.5113088E8,8.843264E8,3.9960883E8,5.385933E7,7.308237E7,1.5072074E8,1.6380672E8,2.4935526E8,3.3121933E8,2.9459808E8,4.0654867E8,1.0502272E8,5.4313216E7,1.837696E8,7.97696E7,3.456517E8,6.222518E8,3.5153664E8,2.0745114E8,0E0,0E0,0E0,0E0,0E0,0E0,0E0,0E0,0E0,0E0,0E0,0E0,0E0,0E0,0E0,0E0,0E0,0E0,0E0,0E0,0E0,0E0,0E0,0E0,0E0,0E0,0E0,0E0,0E0,0E0,0E0,0E0],"parents":[2147483647,0,0,1,1,2,2,3,3,4,4,5,5,6,6,7,7,8,8,9,9,10,10,11,11,12,12,13,13,14,14,15,15,16,16,17,17,18,18,19,19,20,20,21,21,22,22,23,23,24,24,25,25,26,26,27,27,28,28,29,29,30,30],"right_children":[2,4,6,8,10,12,14,16,18,20,22,24,26,28,30,32,34,36,38,40,42,44,46,48,50,52,54,56,58,60,62,-1,-1,-1,-1,-1,-1,-1,-1,-1,-1,-1,-1,-1,-1,-1,-1,-1,-1,-1,-1,-1,-1,-1,-1,-1,-1,-1,-1,-1,-1,-1,-1],"split_conditions":[2.6003333E2,6.973333E1,-5.932E0,3.7E1,-4.74755E2,7.0913336E2,5.22E2,-3.8624E2,-4.0315433E2,-5.676667E2,-3.056E0,-7.942E0,-8.99E0,-5.402684E2,-5.52959E2,5.7285833E0,2.3066668E1,-5.432833E2,1.3909E1,3.1958332E0,4.4933333E0,-4.978E0,-3.829933E2,3.1234167E0,5.22E2,5.088401E0,1.3105927E0,3.3880172E0,-3.756E0,4.4651666E0,-3.845E0,-1.3512994E0,-8.104211E-1,-1.8385543E0,-1.5268975E0,3.239982E-1,-6.1810845E-1,-1.1965641E0,-3.8153288E-1,1.1916842E0,2.577361E0,3.4696755E-1,1.4404818E0,2.1479714E0,6.0903394E-1,-1.1277585E-1,-6.7484874E-1,9.097855E0,5.5912867E0,3.9026434E0,4.9798326E0,1.10026455E1,8.0360155E0,1.1708001E1,6.6231728E0,2.0662444E0,3.4710093E0,2.4545581E0,1.0523471E0,3.8218043E0,5.9679294E0,3.9559536E0,2.7030993E0],"split_indices":[42,42,11,42,17,42,42,17,17,17,11,11,11,17,17,33,42,17,33,33,33,11,17,33,42,33,33,33,11,33,11,0,0,0,0,0,0,0,0,0,0,0,0,0,0,0,0,0,0,0,0,0,0,0,0,0,0,0,0,0,0,0,0],"split_type":[0,0,0,0,0,0,0,0,0,0,0,0,0,0,0,0,0,0,0,0,0,0,0,0,0,0,0,0,0,0,0,0,0,0,0,0,0,0,0,0,0,0,0,0,0,0,0,0,0,0,0,0,0,0,0,0,0,0,0,0,0,0,0],"sum_hessian":[5.785021E6,4.654796E6,1.130225E6,2.576887E6,2.077909E6,1.31804E5,9.98421E5,1.174421E6,1.402466E6,5.32485E5,1.545424E6,8.1095E4,5.0709E4,7.44558E5,2.53863E5,3.56415E5,8.18006E5,4.84028E5,9.18438E5,1.66006E5,3.66479E5,1.95806E5,1.349618E6,2.9393E4,5.1702E4,2.4218E4,2.6491E4,1.98627E5,5.45931E5,9.7617E4,1.56246E5,2.98832E5,5.7583E4,3.3242E5,4.85586E5,4.9607E4,4.34421E5,8.48447E5,6.9991E4,1.18171E5,4.7835E4,2.66674E5,9.9805E4,4.1343E4,1.54463E5,6.72889E5,6.76729E5,2.447E3,2.6946E4,3.1523E4,2.0179E4,8.418E3,1.58E4,8.37E2,2.5654E4,1.26518E5,7.2109E4,1.02056E5,4.43875E5,6.9499E4,2.8118E4,5.1909E4,1.04337E5],"tree_param":{"num_deleted":"0","num_feature":"125","num_nodes":"63","size_leaf_vector":"1"}},{"base_weights":[2.8115672E-3,-3.8415466E1,1.5814725E2,-6.973637E1,8.939965E0,3.676175E2,1.3214507E2,-8.9574455E1,-5.0099377E1,6.456204E1,-9.337095E0,2.781081E2,4.447851E2,9.968762E1,2.1132677E2,-6.534849E1,-9.6386406E1,-5.759189E0,-5.9670486E1,2.4575937E1,9.79579E1,-3.4386547E1,3.3423233E1,3.3247592E2,2.428523E2,5.7114124E2,4.0254865E2,6.387048E1,1.3202666E2,2.6221393E2,1.8110883E2,-1.2733294E0,-8.238565E-1,-1.7380588E0,-1.4098045E0,-5.268043E-1,3.0044284E-1,-1.1344786E0,-5.344977E-1,1.571089E0,2.5252706E-1,2.4277806E0,1.3022655E0,-7.999942E-1,-3.0139366E-1,2.634752E-1,1.1255065E0,5.17433E0,8.482683E0,3.6889284E0,5.3106036E0,1.1210701E1,7.9508862E0,1.1452445E1,6.397062E0,2.0477428E0,6.131363E-1,3.4568546E0,1.8274257E0,3.2772229E0,5.239836E0,1.5593675E0,3.222111E0],"categories":[],"categories_nodes":[],"categories_segments":[],"categories_sizes":[],"default_left":[0,0,0,0,0,0,0,0,0,0,0,0,0,0,0,0,0,0,0,0,0,0,0,0,0,0,0,0,0,0,0,0,0,0,0,0,0,0,0,0,0,0,0,0,0,0,0,0,0,0,0,0,0,0,0,0,0,0,0,0,0,0,0],"id":4,"left_children":[1,3,5,7,9,11,13,15,17,19,21,23,25,27,29,31,33,35,37,39,41,43,45,47,49,51,53,55,57,59,61,-1,-1,-1,-1,-1,-1,-1,-1,-1,-1,-1,-1,-1,-1,-1,-1,-1,-1,-1,-1,-1,-1,-1,-1,-1,-1,-1,-1,-1,-1,-1,-1],"loss_changes":[3.5149234E10,6.9036867E9,6.1586596E9,1.0913741E9,1.8837412E9,8.6220186E8,2.5850962E9,2.2997606E8,5.975027E8,6.119739E8,1.4938802E9,1.1065702E8,3.573852E8,8.263511E8,4.495964E8,5.880627E7,1.1101594E8,1.6272398E8,3.2083123E8,1.3569888E8,2.2754688E8,2.0834643E8,3.188713E8,5.590605E7,4.473933E7,1.6239872E8,1.1404134E8,5.510008E8,5.854044E8,3.9996006E8,2.782085E8,0E0,0E0,0E0,0E0,0E0,0E0,0E0,0E0,0E0,0E0,0E0,0E0,0E0,0E0,0E0,0E0,0E0,0E0,0E0,0E0,0E0,0E0,0E0,0E0,0E0,0E0,0E0,0E0,0E0,0E0,0E0,0E0],"parents":[2147483647,0,0,1,1,2,2,3,3,4,4,5,5,6,6,7,7,8,8,9,9,10,10,11,11,12,12,13,13,14,14,15,15,16,16,17,17,18,18,19,19,20,20,21,21,22,22,23,23,24,24,25,25,26,26,27,27,28,28,29,29,30,30],"right_children":[2,4,6,8,10,12,14,16,18,20,22,24,26,28,30,32,34,36,38,40,42,44,46,48,50,52,54,56,58,60,62,-1,-1,-1,-1,-1,-1,-1,-1,-1,-1,-1,-1,-1,-1,-1,-1,-1,-1,-1,-1,-1,-1,-1,-1,-1,-1,-1,-1,-1,-1,-1,-1],"split_conditions":[2.594E2,7.7E1,-6.001E0,3.98E1,-4.81465E2,6.364E2,5.002E2,-4.0957104E2,-4.5380103E2,4.5427322E0,5.383165E0,-7.602667E0,-1.0809667E1,5.3581834E0,-5.52959E2,4.491012E0,2.56E1,4.456668E0,5.3581834E0,-6.3254694E2,-5.8460583E2,4.008873E0,7.702379E0,8.846167E0,4.7635E0,5.326667E0,1.1833333E0,-5.52959E2,-5.402684E2,5.7542987E0,5.127249E0,-1.2733294E0,-8.238565E-1,-1.7380588E0,-1.4098045E0,-5.268043E-1,3.0044284E-1,-1.1344786E0,-5.344977E-1,1.571089E0,2.5252706E-1,2.4277806E0,1.3022655E0,-7.999942E-1,-3.0139366E-1,2.634752E-1,1.1255065E0,5.17433E0,8.482683E0,3.6889284E0,5.3106036E0,1.1210701E1,7.9508862E0,1.1452445E1,6.397062E0,2.0477428E0,6.131363E-1,3.4568546E0,1.8274257E0,3.2772229E0,5.239836E0,1.5593675E0,3.222111E0],"split_indices":[40,40,12,40,17,40,40,17,17,39,38,12,12,38,17,39,40,39,38,19,19,38,38,9,8,32,32,17,17,38,38,0,0,0,0,0,0,0,0,0,0,0,0,0,0,0,0,0,0,0,0,0,0,0,0,0,0,0,0,0,0,0,0],"split_type":[0,0,0,0,0,0,0,0,0,0,0,0,0,0,0,0,0,0,0,0,0,0,0,0,0,0,0,0,0,0,0,0,0,0,0,0,0,0,0,0,0,0,0,0,0,0,0,0,0,0,0,0,0,0,0,0,0,0,0,0,0,0,0],"sum_hessian":[5.785272E6,4.654539E6,1.130733E6,2.801575E6,1.852964E6,1.24859E5,1.005874E6,1.393648E6,1.407927E6,4.58282E5,1.394682E6,5.7811E4,6.7048E4,7.13434E5,2.9244E5,3.05871E5,1.087777E6,2.49956E5,1.157971E6,2.08564E5,2.49718E5,8.79476E5,5.15206E5,2.2735E4,3.5076E4,1.6791E4,5.0257E4,3.38516E5,3.74918E5,1.08951E5,1.83489E5,1.59432E5,1.46439E5,5.00108E5,5.87669E5,1.18957E5,1.30999E5,8.332E5,3.24771E5,2.2999E4,1.85565E5,6.2986E4,1.86732E5,4.50505E5,4.28971E5,3.49221E5,1.65985E5,2.1302E4,1.433E3,2.9817E4,5.259E3,6.676E3,1.0115E4,1.2E3,4.9057E4,9.9357E4,2.39159E5,7.1416E4,3.03502E5,5.5183E4,5.3768E4,3.1953E4,1.51536E5],"tree_param":{"num_deleted":"0","num_feature":"125","num_nodes":"63","size_leaf_vector":"1"}},{"base_weights":[4.008014E-2,-3.7404293E1,1.5806593E2,-7.2217705E1,4.459722E0,3.5255423E2,1.2877855E2,-9.177677E1,-5.557141E1,-2.061384E1,4.278259E1,2.869237E2,4.6550027E2,9.882679E1,2.1516829E2,-1.0297609E2,-8.138928E1,-6.656056E1,-2.90957E1,-3.359316E1,3.28614E0,1.08650826E2,3.271904E1,3.707627E2,2.6026968E2,5.452657E2,4.0171005E2,6.543581E1,1.2819208E2,1.6272083E2,2.3987791E2,-1.7692118E0,-1.4942997E0,-1.4699023E0,-1.0706393E0,-1.2113763E0,-8.989677E-1,3.1970182E-1,-6.3476974E-1,-7.562569E-1,-2.5565657E-1,-1.4226115E-1,3.7821636E-1,1.2139478E0,2.6078095E0,1.6556957E-1,8.453712E-1,8.287625E0,5.595804E0,3.645629E0,4.9891973E0,1.062364E1,7.7890024E0,1.2011387E1,6.3711257E0,7.419125E-1,1.4576349E0,1.7434753E0,2.5050313E0,2.1168454E0,2.886865E0,3.4686246E0,4.5643516E0],"categories":[],"categories_nodes":[],"categories_segments":[],"categories_sizes":[],"default_left":[0,0,0,0,0,0,0,0,0,0,0,0,0,0,0,0,0,0,0,0,0,0,0,0,0,0,0,0,0,0,0,0,0,0,0,0,0,0,0,0,0,0,0,0,0,0,0,0,0,0,0,0,0,0,0,0,0,0,0,0,0,0,0],"id":5,"left_children":[1,3,5,7,9,11,13,15,17,19,21,23,25,27,29,31,33,35,37,39,41,43,45,47,49,51,53,55,57,59,61,-1,-1,-1,-1,-1,-1,-1,-1,-1,-1,-1,-1,-1,-1,-1,-1,-1,-1,-1,-1,-1,-1,-1,-1,-1,-1,-1,-1,-1,-1,-1,-1],"loss_changes":[3.422938E10,6.815842E9,6.3118766E9,8.3131494E8,2.040261E9,1.0747965E9,2.4920095E9,1.3655245E8,4.0131942E8,3.9815744E8,5.566532E8,2.0480154E8,2.7076506E8,7.012214E8,3.2125133E8,3.794688E7,8.729779E7,8.88064E7,1.9970371E8,1.9417536E8,1.0945418E8,1.96405E8,3.193518E8,7.823565E7,1.1686298E8,1.679447E8,8.248986E7,1.6138112E8,2.0697395E8,3.949427E7,1.8156954E8,0E0,0E0,0E0,0E0,0E0,0E0,0E0,0E0,0E0,0E0,0E0,0E0,0E0,0E0,0E0,0E0,0E0,0E0,0E0,0E0,0E0,0E0,0E0,0E0,0E0,0E0,0E0,0E0,0E0,0E0,0E0,0E0],"parents":[2147483647,0,0,1,1,2,2,3,3,4,4,5,5,6,6,7,7,8,8,9,9,10,10,11,11,12,12,13,13,14,14,15,15,16,16,17,17,18,18,19,19,20,20,21,21,22,22,23,23,24,24,25,25,26,26,27,27,28,28,29,29,30,30],"right_children":[2,4,6,8,10,12,14,16,18,20,22,24,26,28,30,32,34,36,38,40,42,44,46,48,50,52,54,56,58,60,62,-1,-1,-1,-1,-1,-1,-1,-1,-1,-1,-1,-1,-1,-1,-1,-1,-1,-1,-1,-1,-1,-1,-1,-1,-1,-1,-1,-1,-1,-1,-1,-1],"split_conditions":[2.6436667E2,6.8933334E1,-5.733E0,3.7E1,5.199079E0,7.0913336E2,5.22E2,2.5766666E1,5.296391E0,1.5096666E2,-3.832E0,-6.890333E0,-9.116E0,5.2936077E0,5.467766E0,4.336431E0,4.576086E0,3.8640862E0,-9.94E-1,4.008873E0,4.336431E0,7.6689696E0,1.266E2,3.2581112E0,9.344399E0,5.326667E0,1.0213333E0,3.593E2,3.8106668E2,4.3001804E0,7.0913336E2,-1.7692118E0,-1.4942997E0,-1.4699023E0,-1.0706393E0,-1.2113763E0,-8.989677E-1,3.1970182E-1,-6.3476974E-1,-7.562569E-1,-2.5565657E-1,-1.4226115E-1,3.7821636E-1,1.2139478E0,2.6078095E0,1.6556957E-1,8.453712E-1,8.287625E0,5.595804E0,3.645629E0,4.9891973E0,1.062364E1,7.7890024E0,1.2011387E1,6.3711257E0,7.419125E-1,1.4576349E0,1.7434753E0,2.5050313E0,2.1168454E0,2.886865E0,3.4686246E0,4.5643516E0],"split_indices":[42,42,10,42,36,42,42,42,35,42,10,14,10,36,36,38,38,38,10,38,38,35,42,32,36,32,32,42,42,36,42,0,0,0,0,0,0,0,0,0,0,0,0,0,0,0,0,0,0,0,0,0,0,0,0,0,0,0,0,0,0,0,0],"split_type":[0,0,0,0,0,0,0,0,0,0,0,0,0,0,0,0,0,0,0,0,0,0,0,0,0,0,0,0,0,0,0,0,0,0,0,0,0,0,0,0,0,0,0,0,0,0,0,0,0,0,0,0,0,0,0,0,0,0,0,0,0,0,0],"sum_hessian":[5.784743E6,4.676616E6,1.108127E6,2.553318E6,2.123298E6,1.45027E5,9.631E5,1.173946E6,1.379372E6,1.283525E6,8.39773E5,9.1731E4,5.3296E4,7.15156E5,2.47944E5,5.6489E5,6.09056E5,9.74774E5,4.04598E5,8.318E5,4.51725E5,1.11296E5,7.28477E5,2.2122E4,6.9609E4,2.3676E4,2.962E4,3.34643E5,3.80513E5,7.9409E4,1.68535E5,3.55728E5,2.09162E5,3.77154E5,2.31902E5,5.57898E5,4.16876E5,6.9367E4,3.35231E5,4.79032E5,3.52768E5,2.82075E5,1.6965E5,6.7753E4,4.3543E4,3.3817E5,3.90307E5,3.345E3,1.8777E4,4.0149E4,2.946E4,8.681E3,1.4995E4,6.97E2,2.8923E4,1.86127E5,1.48516E5,2.14506E5,1.66007E5,2.5997E4,5.3412E4,1.04624E5,6.3911E4],"tree_param":{"num_deleted":"0","num_feature":"125","num_nodes":"63","size_leaf_vector":"1"}},{"base_weights":[9.845686E-3,-3.075925E1,8.505876E1,6.4098526E1,-5.3818867E1,2.2081657E2,6.632011E1,1.4582147E2,4.4422436E1,-7.196829E1,-2.8202253E1,1.9923245E2,3.8524136E2,3.600945E1,1.3278127E2,1.01753654E2,1.9543076E2,1.2418364E1,8.1538666E1,-5.0987354E1,-8.132585E1,-6.9132786E0,-4.8405025E1,2.541966E2,1.7106279E2,3.2648157E2,5.0059647E2,7.6719765E1,1.1521343E1,1.0281228E2,1.936782E2,1.9539167E0,1.2570878E0,4.179986E0,2.8906384E0,7.15947E-1,-9.733301E-2,1.8430977E0,1.0431521E0,-9.7105825E-1,-6.35558E-1,-1.215318E0,-1.478368E0,-2.8094983E-1,1.9525638E-1,-6.2797153E-1,-1.0653921E0,3.5202029E0,4.899528E0,2.3744657E0,3.722747E0,7.389069E0,4.500209E0,4.256685E0,9.530006E0,1.6860161E0,9.4371164E-1,-3.9351236E-2,7.133711E-1,2.1745512E0,1.0288188E0,2.239326E0,3.521092E0],"categories":[],"categories_nodes":[],"categories_segments":[],"categories_sizes":[],"default_left":[0,0,0,0,0,0,0,0,0,0,0,0,0,0,0,0,0,0,0,0,0,0,0,0,0,0,0,0,0,0,0,0,0,0,0,0,0,0,0,0,0,0,0,0,0,0,0,0,0,0,0,0,0,0,0,0,0,0,0,0,0,0,0],"id":6,"left_children":[1,3,5,7,9,11,13,15,17,19,21,23,25,27,29,31,33,35,37,39,41,43,45,47,49,51,53,55,57,59,61,-1,-1,-1,-1,-1,-1,-1,-1,-1,-1,-1,-1,-1,-1,-1,-1,-1,-1,-1,-1,-1,-1,-1,-1,-1,-1,-1,-1,-1,-1,-1,-1],"loss_changes":[1.5139937E10,9.293057E9,3.9100232E9,1.3359391E9,1.5889572E9,6.6145485E8,2.720748E9,3.524096E8,7.954044E8,3.9272653E8,6.095653E8,2.5506918E8,1.4629376E8,9.2471E8,7.720013E8,3.893421E7,8.034662E7,2.107057E8,1.7132058E8,6.504563E7,8.651571E7,1.3665086E8,1.2169318E8,9.928678E7,1.5651917E8,9.014694E7,1.5223974E8,1.7602726E8,2.6289738E8,3.505408E8,1.8365747E8,0E0,0E0,0E0,0E0,0E0,0E0,0E0,0E0,0E0,0E0,0E0,0E0,0E0,0E0,0E0,0E0,0E0,0E0,0E0,0E0,0E0,0E0,0E0,0E0,0E0,0E0,0E0,0E0,0E0,0E0,0E0,0E0],"parents":[2147483647,0,0,1,1,2,2,3,3,4,4,5,5,6,6,7,7,8,8,9,9,10,10,11,11,12,12,13,13,14,14,15,15,16,16,17,17,18,18,19,19,20,20,21,21,22,22,23,23,24,24,25,25,26,26,27,27,28,28,29,29,30,30],"right_children":[2,4,6,8,10,12,14,16,18,20,22,24,26,28,30,32,34,36,38,40,42,44,46,48,50,52,54,56,58,60,62,-1,-1,-1,-1,-1,-1,-1,-1,-1,-1,-1,-1,-1,-1,-1,-1,-1,-1,-1,-1,-1,-1,-1,-1,-1,-1,-1,-1,-1,-1,-1,-1],"split_conditions":[6.090905E0,-4.81465E2,-5.402684E2,-6.135783E2,4.2579355E0,1.1394374E1,8.916655E0,4.578681E0,4.456668E0,-3.92765E2,-3.7984668E2,-6.135783E2,1.5736755E1,-4.1742E2,1.1840852E1,-6.4093835E2,-6.8273334E2,-5.4638165E2,-5.52959E2,3.581638E0,-3.28855E2,5.285962E0,-3.2968668E2,1.5010417E0,8.184488E0,-6.333426E2,-6.233E0,-4.763468E2,7.630227E0,-3.88775E2,-7.851917E0,1.9539167E0,1.2570878E0,4.179986E0,2.8906384E0,7.15947E-1,-9.733301E-2,1.8430977E0,1.0431521E0,-9.7105825E-1,-6.35558E-1,-1.215318E0,-1.478368E0,-2.8094983E-1,1.9525638E-1,-6.2797153E-1,-1.0653921E0,3.5202029E0,4.899528E0,2.3744657E0,3.722747E0,7.389069E0,4.500209E0,4.256685E0,9.530006E0,1.6860161E0,9.4371164E-1,-3.9351236E-2,7.133711E-1,2.1745512E0,1.0288188E0,2.239326E0,3.521092E0],"split_indices":[39,17,17,17,39,39,38,39,39,17,17,17,38,17,38,17,17,17,17,39,17,38,17,9,38,17,6,17,38,17,8,0,0,0,0,0,0,0,0,0,0,0,0,0,0,0,0,0,0,0,0,0,0,0,0,0,0,0,0,0,0,0,0],"split_type":[0,0,0,0,0,0,0,0,0,0,0,0,0,0,0,0,0,0,0,0,0,0,0,0,0,0,0,0,0,0,0,0,0,0,0,0,0,0,0,0,0,0,0,0,0,0,0,0,0,0,0,0,0,0,0,0,0,0,0,0,0,0,0],"sum_hessian":[5.785492E6,4.248475E6,1.537017E6,8.3082E5,3.417655E6,1.8642E5,1.350597E6,1.61215E5,6.69605E5,2.000379E6,1.417276E6,1.64792E5,2.1628E4,9.27568E5,4.23029E5,8.5379E4,7.5836E4,3.59566E5,3.10039E5,6.16998E5,1.383381E6,6.90088E5,7.27188E5,5.5834E4,1.08958E5,1.4334E4,7.294E3,3.48387E5,5.79181E5,2.83511E5,1.39518E5,4.7847E4,3.7532E4,1.6101E4,5.9735E4,1.31934E5,2.27632E5,1.07413E5,2.02626E5,3.495E5,2.67498E5,8.49396E5,5.33985E5,4.45173E5,2.44915E5,4.6815E5,2.59038E5,3.1721E4,2.4113E4,7.7006E4,3.1952E4,3.897E3,1.0437E4,1.972E3,5.322E3,1.40121E5,2.08266E5,4.05357E5,1.73824E5,1.57364E5,1.26147E5,4.1909E4,9.7609E4],"tree_param":{"num_deleted":"0","num_feature":"125","num_nodes":"63","size_leaf_vector":"1"}},{"base_weights":[2.1774001E-2,-3.0187258E1,8.349953E1,6.592156E1,-5.3463905E1,2.1545586E2,6.490932E1,1.4316377E2,4.4159935E1,-7.009995E1,-2.9667738E1,1.9137111E2,3.4855893E2,4.195165E1,1.525981E2,8.6439415E1,1.7525815E2,1.7103804E1,7.870878E1,-4.6057602E1,-7.977503E1,-5.4899406E0,-4.7468323E1,2.3074205E2,1.5212366E2,3.0015665E2,4.8246014E2,7.573653E1,1.3659789E1,1.6826451E2,5.0753094E1,1.9743574E0,1.0378038E0,2.2578423E0,3.5347986E0,7.7029914E-1,2.5162123E-2,8.5937226E-1,1.6238797E0,-8.5183233E-1,8.52556E-2,-1.3173829E0,-3.4416205E-1,-3.000436E-1,4.1983405E-1,-6.2806356E-1,-1.0550508E0,2.4884894E0,4.4822135E0,1.8878878E0,3.1563716E0,1.8934448E0,5.271589E0,5.033576E0,9.704207E0,9.5699465E-1,1.6552596E0,-8.1397995E-2,7.4960965E-1,2.3572361E0,3.5697386E0,-6.904837E-1,1.1797754E0],"categories":[],"categories_nodes":[],"categories_segments":[],"categories_sizes":[],"default_left":[0,0,0,0,0,0,0,0,0,0,0,0,0,0,0,0,0,0,0,0,0,0,0,0,0,0,0,0,0,0,0,0,0,0,0,0,0,0,0,0,0,0,0,0,0,0,0,0,0,0,0,0,0,0,0,0,0,0,0,0,0,0,0],"id":7,"left_children":[1,3,5,7,9,11,13,15,17,19,21,23,25,27,29,31,33,35,37,39,41,43,45,47,49,51,53,55,57,59,61,-1,-1,-1,-1,-1,-1,-1,-1,-1,-1,-1,-1,-1,-1,-1,-1,-1,-1,-1,-1,-1,-1,-1,-1,-1,-1,-1,-1,-1,-1,-1,-1],"loss_changes":[1.4589815E10,9.503574E9,3.7712087E9,1.3922412E9,1.3538509E9,6.084403E8,2.7126845E9,3.3141325E8,6.040521E8,4.681861E8,6.0560474E8,2.4832973E8,1.8822067E8,1.0207519E9,4.4607846E8,5.216592E7,1.7919949E8,1.7169878E8,1.5698573E8,1.941399E8,1.3297664E8,2.4445842E8,1.2444262E8,2.8479258E8,1.2240973E8,9.938317E7,1.5440845E8,2.1444608E8,3.5443763E8,2.8687053E8,7.697146E7,0E0,0E0,0E0,0E0,0E0,0E0,0E0,0E0,0E0,0E0,0E0,0E0,0E0,0E0,0E0,0E0,0E0,0E0,0E0,0E0,0E0,0E0,0E0,0E0,0E0,0E0,0E0,0E0,0E0,0E0,0E0,0E0],"parents":[2147483647,0,0,1,1,2,2,3,3,4,4,5,5,6,6,7,7,8,8,9,9,10,10,11,11,12,12,13,13,14,14,15,15,16,16,17,17,18,18,19,19,20,20,21,21,22,22,23,23,24,24,25,25,26,26,27,27,28,28,29,29,30,30],"right_children":[2,4,6,8,10,12,14,16,18,20,22,24,26,28,30,32,34,36,38,40,42,44,46,48,50,52,54,56,58,60,62,-1,-1,-1,-1,-1,-1,-1,-1,-1,-1,-1,-1,-1,-1,-1,-1,-1,-1,-1,-1,-1,-1,-1,-1,-1,-1,-1,-1,-1,-1,-1,-1],"split_conditions":[6.1148987E0,-4.8328E2,-5.3451E2,-6.0832E2,4.2668195E0,1.0657229E1,1.0008354E1,2.1855094E0,4.5042105E0,-3.9866E2,-3.9026E2,-5.8488E2,1.5875431E1,-3.9956E2,-3.4726E2,-6.588E2,4.757953E0,-5.4982E2,3.105E0,5.855E0,1.7026E1,5.533E0,-3.304E2,3.3776667E0,4.785E0,2.904E0,5.617797E-1,6.383E0,7.742626E0,1.3664081E1,-4.220375E0,1.9743574E0,1.0378038E0,2.2578423E0,3.5347986E0,7.7029914E-1,2.5162123E-2,8.5937226E-1,1.6238797E0,-8.5183233E-1,8.52556E-2,-1.3173829E0,-3.4416205E-1,-3.000436E-1,4.1983405E-1,-6.2806356E-1,-1.0550508E0,2.4884894E0,4.4822135E0,1.8878878E0,3.1563716E0,1.8934448E0,5.271589E0,5.033576E0,9.704207E0,9.5699465E-1,1.6552596E0,-8.1397995E-2,7.4960965E-1,2.3572361E0,3.5697386E0,-6.904837E-1,1.1797754E0],"split_indices":[35,15,15,15,36,35,35,33,36,15,15,15,36,15,15,15,36,15,31,31,30,32,15,32,33,33,8,31,35,35,4,0,0,0,0,0,0,0,0,0,0,0,0,0,0,0,0,0,0,0,0,0,0,0,0,0,0,0,0,0,0,0,0],"split_type":[0,0,0,0,0,0,0,0,0,0,0,0,0,0,0,0,0,0,0,0,0,0,0,0,0,0,0,0,0,0,0,0,0,0,0,0,0,0,0,0,0,0,0,0,0,0,0,0,0,0,0,0,0,0,0,0,0,0,0,0,0,0,0],"sum_hessian":[5.785514E6,4.248179E6,1.537335E6,8.28269E5,3.41991E6,1.89835E5,1.3475E6,1.82056E5,6.46213E5,2.012768E6,1.407142E6,1.60752E5,2.9083E4,1.067914E6,2.79586E5,6.5788E4,1.16268E5,3.62406E5,2.83807E5,5.77559E5,1.435209E6,5.96688E5,8.10454E5,8.0245E4,8.0507E4,2.1366E4,7.717E3,4.86707E5,5.81207E5,2.42311E5,3.7275E4,2.5415E4,4.0373E4,6.3463E4,5.2805E4,1.22459E5,2.39947E5,1.2971E5,1.54097E5,5.12196E5,6.5363E4,1.397401E6,3.7808E4,4.21673E5,1.75015E5,5.43664E5,2.6679E5,3.0027E4,5.0218E4,4.3995E4,3.6512E4,2.603E3,1.8763E4,3.129E3,4.588E3,2.98962E5,1.87745E5,3.69582E5,2.11625E5,1.68901E5,7.341E4,7.134E3,3.0141E4],"tree_param":{"num_deleted":"0","num_feature":"125","num_nodes":"63","size_leaf_vector":"1"}},{"base_weights":[-1.0649859E-2,-3.9019848E1,6.283693E1,5.516643E1,-5.807594E1,1.4524744E2,3.226698E1,1.2359873E2,3.4543434E1,-3.7887093E1,-7.3671844E1,2.2215778E2,1.16195045E2,5.5291295E0,1.10220436E2,9.587954E1,1.8055753E2,1.3905792E1,6.997228E1,-5.141254E1,-1.5111215E1,-8.238822E1,-5.7116123E1,1.9569E2,3.5732513E2,1.0155508E2,2.0666016E2,2.093436E1,-2.7298607E1,8.159278E1,1.7233014E2,1.1825545E0,1.9580162E0,1.624801E0,3.0865119E0,6.6763806E-1,-3.5131853E-2,6.47129E-1,1.4754508E0,-9.208286E-1,-3.1151596E-1,-4.043905E-1,2.848486E-1,-1.3612547E0,-6.024665E-1,-9.581467E-1,5.7112414E-1,1.2498883E0,3.434766E0,5.3022904E0,7.7686505E0,1.3288919E0,2.114224E0,4.3836517E0,3.0113966E0,8.720931E-2,7.528625E-1,-6.359104E-1,7.0483804E-2,1.7931035E0,9.288918E-1,4.8340926E0,2.5733178E0],"categories":[],"categories_nodes":[],"categories_segments":[],"categories_sizes":[],"default_left":[0,0,0,0,0,0,0,0,0,0,0,0,0,0,0,0,0,0,0,0,0,0,0,0,0,0,0,0,0,0,0,0,0,0,0,0,0,0,0,0,0,0,0,0,0,0,0,0,0,0,0,0,0,0,0,0,0,0,0,0,0,0,0],"id":8,"left_children":[1,3,5,7,9,11,13,15,17,19,21,23,25,27,29,31,33,35,37,39,41,43,45,47,49,51,53,55,57,59,61,-1,-1,-1,-1,-1,-1,-1,-1,-1,-1,-1,-1,-1,-1,-1,-1,-1,-1,-1,-1,-1,-1,-1,-1,-1,-1,-1,-1,-1,-1,-1,-1],"loss_changes":[1.4182403E10,6.4064123E9,5.5814615E9,8.4767066E8,9.3474E8,1.3394074E9,3.3683174E9,2.1957478E8,3.374715E8,3.98576E8,2.416855E8,5.878605E8,5.7621965E8,6.0853664E8,7.338312E8,5.351859E7,3.669517E7,1.2812023E8,1.0780582E8,1.424873E8,1.55493E8,8.325325E7,1.0976768E8,2.676142E8,9.81161E7,2.1171354E8,8.020608E7,3.2548698E8,1.4565456E8,1.994688E8,2.2026906E8,0E0,0E0,0E0,0E0,0E0,0E0,0E0,0E0,0E0,0E0,0E0,0E0,0E0,0E0,0E0,0E0,0E0,0E0,0E0,0E0,0E0,0E0,0E0,0E0,0E0,0E0,0E0,0E0,0E0,0E0,0E0,0E0],"parents":[2147483647,0,0,1,1,2,2,3,3,4,4,5,5,6,6,7,7,8,8,9,9,10,10,11,11,12,12,13,13,14,14,15,15,16,16,17,17,18,18,19,19,20,20,21,21,22,22,23,23,24,24,25,25,26,26,27,27,28,28,29,29,30,30],"right_children":[2,4,6,8,10,12,14,16,18,20,22,24,26,28,30,32,34,36,38,40,42,44,46,48,50,52,54,56,58,60,62,-1,-1,-1,-1,-1,-1,-1,-1,-1,-1,-1,-1,-1,-1,-1,-1,-1,-1,-1,-1,-1,-1,-1,-1,-1,-1,-1,-1,-1,-1,-1,-1],"split_conditions":[5.2593083E0,-4.907E2,-4.716E2,-6.0832E2,-3.7746E2,-5.80525E2,8.429003E0,4.578681E0,4.389665E0,4.2417436E0,4.049525E0,9.26084E0,1.0090057E1,-3.527E2,1.1394374E1,2.22E0,1.706E0,-5.4982E2,2.78E0,5.484E0,5.775E0,1.5889E1,2.0576E1,1.85E0,1.56088705E1,4.876E0,-5.4038E2,6.85E0,6.913868E0,-3.9041928E2,3.562E0,1.1825545E0,1.9580162E0,1.624801E0,3.0865119E0,6.6763806E-1,-3.5131853E-2,6.47129E-1,1.4754508E0,-9.208286E-1,-3.1151596E-1,-4.043905E-1,2.848486E-1,-1.3612547E0,-6.024665E-1,-9.581467E-1,5.7112414E-1,1.2498883E0,3.434766E0,5.3022904E0,7.7686505E0,1.3288919E0,2.114224E0,4.3836517E0,3.0113966E0,8.720931E-2,7.528625E-1,-6.359104E-1,7.0483804E-2,1.7931035E0,9.288918E-1,4.8340926E0,2.5733178E0],"split_indices":[39,15,15,15,15,17,39,39,39,39,39,39,39,15,39,30,30,15,30,30,30,30,30,30,39,30,15,30,39,17,30,0,0,0,0,0,0,0,0,0,0,0,0,0,0,0,0,0,0,0,0,0,0,0,0,0,0,0,0,0,0,0,0],"split_type":[0,0,0,0,0,0,0,0,0,0,0,0,0,0,0,0,0,0,0,0,0,0,0,0,0,0,0,0,0,0,0,0,0,0,0,0,0,0,0,0,0,0,0,0,0,0,0,0,0,0,0,0,0,0,0,0,0,0,0,0,0,0,0],"sum_hessian":[5.784875E6,3.569379E6,2.215496E6,6.00644E5,2.968735E6,5.99461E5,1.616035E6,1.39092E5,4.61552E5,1.293853E6,1.674882E6,1.64354E5,4.35107E5,1.203306E6,4.12729E5,9.3564E4,4.5528E4,2.9166E5,1.69892E5,8.11777E5,4.82076E5,1.097208E6,5.77674E5,1.37445E5,2.6909E4,3.74505E5,6.0602E4,8.1898E5,3.84326E5,2.82516E5,1.30213E5,4.893E4,4.4634E4,5.075E3,4.0453E4,1.08027E5,1.83633E5,7.0237E4,9.9655E4,6.94084E5,1.17693E5,3.70374E5,1.11702E5,1.057882E6,3.9326E4,5.65095E5,1.2579E4,1.674E4,1.20705E5,2.1638E4,5.271E3,2.24044E5,1.50461E5,1.4785E4,4.5817E4,5.09222E5,3.09758E5,2.78841E5,1.05485E5,1.28238E5,1.54278E5,1.2501E4,1.17712E5],"tree_param":{"num_deleted":"0","num_feature":"125","num_nodes":"63","size_leaf_vector":"1"}},{"base_weights":[-6.4827763E-3,-3.5699596E1,1.5457565E2,-6.686743E1,7.697944E0,3.325719E2,1.2450104E2,-8.786579E1,-5.0507893E1,-1.5818946E1,4.319001E1,2.6444846E2,4.369391E2,9.327897E1,2.0402635E2,-9.850815E1,-7.762998E1,-2.9259218E1,-6.2162964E1,3.5578075E1,-3.412226E1,8.096985E1,2.3216602E1,3.1850406E2,2.2930739E2,5.232267E2,3.7626813E2,1.4378265E2,7.2901344E1,2.5160953E2,1.759281E2,-1.1177709E0,-1.630127E0,-1.3880742E0,-1.0320436E0,-7.1360475E-1,-1.1831063E-1,-3.3671144E-1,-1.096147E0,1.8207287E0,4.3658173E-1,-2.7628487E-2,-6.9447565E-1,2.1334994E0,1.0649769E0,1.09673E0,4.640776E-3,4.598035E0,5.9299464E0,3.3609526E0,4.3224587E0,7.7502327E0,9.907835E0,5.845649E0,7.518071E0,1.8034935E0,3.156721E0,6.2327915E-1,1.5797967E0,3.202795E0,5.034199E0,3.6276104E0,2.527538E0],"categories":[],"categories_nodes":[],"categories_segments":[],"categories_sizes":[],"default_left":[0,0,0,0,0,0,0,0,0,0,0,0,0,0,0,0,0,0,0,0,0,0,0,0,0,0,0,0,0,0,0,0,0,0,0,0,0,0,0,0,0,0,0,0,0,0,0,0,0,0,0,0,0,0,0,0,0,0,0,0,0,0,0],"id":9,"left_children":[1,3,5,7,9,11,13,15,17,19,21,23,25,27,29,31,33,35,37,39,41,43,45,47,49,51,53,55,57,59,61,-1,-1,-1,-1,-1,-1,-1,-1,-1,-1,-1,-1,-1,-1,-1,-1,-1,-1,-1,-1,-1,-1,-1,-1,-1,-1,-1,-1,-1,-1,-1,-1],"loss_changes":[3.1917124E10,6.356658E9,5.80881E9,9.395876E8,1.6396018E9,1.1149128E9,2.304853E9,1.304617E8,3.807429E8,1.1114996E9,5.907432E8,1.8013542E8,3.2388506E8,6.85995E8,3.498107E8,3.745229E7,6.864947E7,1.7706742E8,2.2722227E8,2.0547331E8,2.4759763E8,2.0899405E8,5.2273654E8,6.141133E7,4.696499E7,1.0050304E8,4.852275E7,3.1769523E8,4.0305536E8,3.0986957E8,1.5692288E8,0E0,0E0,0E0,0E0,0E0,0E0,0E0,0E0,0E0,0E0,0E0,0E0,0E0,0E0,0E0,0E0,0E0,0E0,0E0,0E0,0E0,0E0,0E0,0E0,0E0,0E0,0E0,0E0,0E0,0E0,0E0,0E0],"parents":[2147483647,0,0,1,1,2,2,3,3,4,4,5,5,6,6,7,7,8,8,9,9,10,10,11,11,12,12,13,13,14,14,15,15,16,16,17,17,18,18,19,19,20,20,21,21,22,22,23,23,24,24,25,25,26,26,27,27,28,28,29,29,30,30],"right_children":[2,4,6,8,10,12,14,16,18,20,22,24,26,28,30,32,34,36,38,40,42,44,46,48,50,52,54,56,58,60,62,-1,-1,-1,-1,-1,-1,-1,-1,-1,-1,-1,-1,-1,-1,-1,-1,-1,-1,-1,-1,-1,-1,-1,-1,-1,-1,-1,-1,-1,-1,-1,-1],"split_conditions":[2.6933334E2,7.83E1,-5.381E0,3.8516666E1,5.222354E0,6.6411664E2,5.0141666E2,2.7E1,-4.0234E2,-4.798E2,-4.471E2,-7.228E0,-8.99E0,-5.3744E2,-5.603E2,-1.521E0,4.647778E0,4.8955817E0,-1.932E0,-6.3369E2,-2.111E0,-1.967E0,-2.111E0,5.141667E2,5.0141666E2,1.00493335E3,1.00493335E3,5.3181024E0,5.2936077E0,5.7651043E0,-3.82E0,-1.1177709E0,-1.630127E0,-1.3880742E0,-1.0320436E0,-7.1360475E-1,-1.1831063E-1,-3.3671144E-1,-1.096147E0,1.8207287E0,4.3658173E-1,-2.7628487E-2,-6.9447565E-1,2.1334994E0,1.0649769E0,1.09673E0,4.640776E-3,4.598035E0,5.9299464E0,3.3609526E0,4.3224587E0,7.7502327E0,9.907835E0,5.845649E0,7.518071E0,1.8034935E0,3.156721E0,6.2327915E-1,1.5797967E0,3.202795E0,5.034199E0,3.6276104E0,2.527538E0],"split_indices":[43,43,11,43,36,43,43,43,15,15,15,11,11,15,15,11,36,36,11,15,11,11,11,43,43,43,43,36,36,36,12,0,0,0,0,0,0,0,0,0,0,0,0,0,0,0,0,0,0,0,0,0,0,0,0,0,0,0,0,0,0,0,0],"split_type":[0,0,0,0,0,0,0,0,0,0,0,0,0,0,0,0,0,0,0,0,0,0,0,0,0,0,0,0,0,0,0,0,0,0,0,0,0,0,0,0,0,0,0,0,0,0,0,0,0,0,0,0,0,0,0,0,0,0,0,0,0,0,0],"sum_hessian":[5.784685E6,4.699556E6,1.085129E6,2.735172E6,1.964384E6,1.56842E5,9.28287E5,1.197766E6,1.537406E6,1.181517E6,7.82867E5,9.4903E4,6.1939E4,6.66586E5,2.61701E5,5.87213E5,6.10553E5,5.44578E5,9.92828E5,3.10266E5,8.71251E5,2.70745E5,5.12122E5,3.7383E4,5.752E4,2.5565E4,3.6374E4,1.91633E5,4.74953E5,9.7156E4,1.64545E5,4.0173E4,5.4704E5,3.8579E5,2.24763E5,3.2518E5,2.19398E5,1.17114E5,8.75714E5,3.127E4,2.78996E5,1.85469E5,6.85782E5,6.2358E4,2.08387E5,1.74111E5,3.38011E5,2.1693E4,1.569E4,3.6466E4,2.1054E4,1.7018E4,8.547E3,3.101E4,5.364E3,1.17335E5,7.4298E4,1.98298E5,2.76655E5,5.0935E4,4.6221E4,4.8031E4,1.16514E5],"tree_param":{"num_deleted":"0","num_feature":"125","num_nodes":"63","size_leaf_vector":"1"}},{"base_weights":[-4.1508734E-2,-3.8698505E1,1.41129E2,-6.9286385E1,-7.539022E-1,9.7264534E1,2.580028E2,-8.5191635E1,-5.1515606E1,-1.9780321E1,3.7153797E1,7.099567E1,1.457712E2,4.278352E2,2.234314E2,-9.613675E1,-7.458009E1,-1.9197657E1,-6.02719E1,2.8662457E1,-3.3788853E1,1.990829E1,7.9809006E1,1.2346651E2,5.6516426E1,1.196411E2,2.0708946E2,3.9333176E2,5.361396E2,1.9211656E2,2.711213E2,-1.64774E0,-1.3891144E0,-1.3198802E0,-9.699591E-1,-6.4809227E-1,9.996729E-3,-1.1102453E0,-6.7737305E-1,1.0796123E0,2.4330327E-1,-7.493893E-1,-2.9538783E-1,8.0900913E-1,1.1553963E-1,1.1271219E0,3.109119E0,1.3763074E0,2.4939094E0,4.643524E-1,1.3146484E0,2.5518863E0,1.6451617E0,3.0668519E0,4.2659287E0,7.9591327E0,5.86266E0,9.678696E0,6.7600746E0,3.7609897E0,2.8360646E0,4.2445455E0,6.5024614E0],"categories":[],"categories_nodes":[],"categories_segments":[],"categories_sizes":[],"default_left":[0,0,0,0,0,0,0,0,0,0,0,0,0,0,0,0,0,0,0,0,0,0,0,0,0,0,0,0,0,0,0,0,0,0,0,0,0,0,0,0,0,0,0,0,0,0,0,0,0,0,0,0,0,0,0,0,0,0,0,0,0,0,0],"id":10,"left_children":[1,3,5,7,9,11,13,15,17,19,21,23,25,27,29,31,33,35,37,39,41,43,45,47,49,51,53,55,57,59,61,-1,-1,-1,-1,-1,-1,-1,-1,-1,-1,-1,-1,-1,-1,-1,-1,-1,-1,-1,-1,-1,-1,-1,-1,-1,-1,-1,-1,-1,-1,-1,-1],"loss_changes":[3.1567989E10,5.2706253E9,6.374904E9,7.106529E8,1.4618436E9,1.1520763E9,1.9922145E9,1.5408435E8,3.3604634E8,9.157855E8,4.982487E8,4.4559616E8,5.0887936E8,2.1405491E8,4.209664E8,3.7991936E7,6.853888E7,1.0447523E8,1.4288998E8,1.5690747E8,2.0328422E8,1.8515419E8,2.2316506E8,1.4905498E8,3.1574285E8,1.5247974E8,9.452365E7,1.333289E8,1.0081178E8,1.1588352E8,1.3083597E8,0E0,0E0,0E0,0E0,0E0,0E0,0E0,0E0,0E0,0E0,0E0,0E0,0E0,0E0,0E0,0E0,0E0,0E0,0E0,0E0,0E0,0E0,0E0,0E0,0E0,0E0,0E0,0E0,0E0,0E0,0E0,0E0],"parents":[2147483647,0,0,1,1,2,2,3,3,4,4,5,5,6,6,7,7,8,8,9,9,10,10,11,11,12,12,13,13,14,14,15,15,16,16,17,17,18,18,19,19,20,20,21,21,22,22,23,23,24,24,25,25,26,26,27,27,28,28,29,29,30,30],"right_children":[2,4,6,8,10,12,14,16,18,20,22,24,26,28,30,32,34,36,38,40,42,44,46,48,50,52,54,56,58,60,62,-1,-1,-1,-1,-1,-1,-1,-1,-1,-1,-1,-1,-1,-1,-1,-1,-1,-1,-1,-1,-1,-1,-1,-1,-1,-1,-1,-1,-1,-1,-1,-1],"split_conditions":[2.4116667E2,6.66E1,4.956E2,4.4083332E1,5.430149E0,3.75E2,-6.890333E0,2.82E1,-4.4316E2,-4.7802667E2,2.03E2,-5.52959E2,7.4025793E0,9.5749164E2,6.14E2,2.6366667E1,4.8362703E0,4.456668E0,5.101596E0,-5.80525E2,4.098391E0,-4.4712E2,1.05419445E1,4.5964074E0,5.5059237E0,-5.52959E2,1.1071819E1,4.2731667E0,8.778706E0,-5.7160693E2,9.5749164E2,-1.64774E0,-1.3891144E0,-1.3198802E0,-9.699591E-1,-6.4809227E-1,9.996729E-3,-1.1102453E0,-6.7737305E-1,1.0796123E0,2.4330327E-1,-7.493893E-1,-2.9538783E-1,8.0900913E-1,1.1553963E-1,1.1271219E0,3.109119E0,1.3763074E0,2.4939094E0,4.643524E-1,1.3146484E0,2.5518863E0,1.6451617E0,3.0668519E0,4.2659287E0,7.9591327E0,5.86266E0,9.678696E0,6.7600746E0,3.7609897E0,2.8360646E0,4.2445455E0,6.5024614E0],"split_indices":[44,40,44,44,39,40,14,40,17,17,40,17,39,44,40,44,39,39,39,17,39,17,39,39,39,17,39,33,33,19,44,0,0,0,0,0,0,0,0,0,0,0,0,0,0,0,0,0,0,0,0,0,0,0,0,0,0,0,0,0,0,0,0],"split_type":[0,0,0,0,0,0,0,0,0,0,0,0,0,0,0,0,0,0,0,0,0,0,0,0,0,0,0,0,0,0,0,0,0,0,0,0,0,0,0,0,0,0,0,0,0,0,0,0,0,0,0,0,0,0,0,0,0,0,0,0,0,0,0],"sum_hessian":[5.784616E6,4.541115E6,1.243501E6,2.514293E6,2.026822E6,9.0416E5,3.39341E5,1.326784E6,1.187509E6,1.349493E6,6.77329E5,5.86529E5,3.17631E5,5.739E4,2.81951E5,6.53119E5,6.73665E5,2.53157E5,9.34352E5,3.02706E5,1.046787E6,4.82327E5,1.95002E5,1.26845E5,4.59684E5,2.22725E5,9.4906E4,4.3531E4,1.3859E4,1.70201E5,1.1175E5,4.23151E5,2.29968E5,4.57551E5,2.16114E5,1.23426E5,1.29731E5,6.4446E5,2.89892E5,7.9921E4,2.22785E5,5.80417E5,4.6637E5,1.43849E5,3.38478E5,1.78754E5,1.6248E4,5.615E4,7.0695E4,2.15986E5,2.43698E5,7.1748E4,1.50977E5,7.2243E4,2.2663E4,1.0506E4,3.3025E4,9.118E3,4.741E3,5.0552E4,1.19649E5,1.04552E5,7.198E3],"tree_param":{"num_deleted":"0","num_feature":"125","num_nodes":"63","size_leaf_vector":"1"}},{"base_weights":[-1.608256E-2,-3.5020844E1,1.4781828E2,-6.449778E1,7.2261467E0,3.162054E2,1.1729354E2,-8.3167625E1,-4.6983166E1,-1.3764935E1,4.3762123E1,2.5346968E2,4.1951514E2,8.625181E1,1.9181964E2,-9.538429E1,-7.354357E1,2.0125167E-1,-5.2376408E1,3.5720337E1,-3.11849E1,9.669414E1,2.8834576E1,2.032164E2,2.9210062E2,5.0945905E2,3.6224432E2,1.3644077E2,6.632011E1,2.372179E2,1.6257135E2,-1.1597254E0,-1.5919867E0,-5.2036613E-1,-1.240539E0,1.4002095E0,-1.5199073E-1,-3.3567372E-1,-9.7801214E-1,1.0669804E0,2.666182E-1,7.220009E-2,-6.6006E-1,1.156017E0,2.337753E0,1.1192673E0,1.021139E-1,2.641704E0,3.6654327E0,6.866624E0,4.504333E0,9.843783E0,7.3074083E0,1.1368916E1,5.761117E0,1.6092752E0,2.8811886E0,1.9353468E0,8.5247916E-1,3.3439553E0,5.326836E0,1.5240976E0,2.8569074E0],"categories":[],"categories_nodes":[],"categories_segments":[],"categories_sizes":[],"default_left":[0,0,0,0,0,0,0,0,0,0,0,0,0,0,0,0,0,0,0,0,0,0,0,0,0,0,0,0,0,0,0,0,0,0,0,0,0,0,0,0,0,0,0,0,0,0,0,0,0,0,0,0,0,0,0,0,0,0,0,0,0,0,0],"id":11,"left_children":[1,3,5,7,9,11,13,15,17,19,21,23,25,27,29,31,33,35,37,39,41,43,45,47,49,51,53,55,57,59,61,-1,-1,-1,-1,-1,-1,-1,-1,-1,-1,-1,-1,-1,-1,-1,-1,-1,-1,-1,-1,-1,-1,-1,-1,-1,-1,-1,-1,-1,-1,-1,-1],"loss_changes":[2.9934858E10,5.8245074E9,5.6923054E9,9.008456E8,1.4741971E9,1.1012751E9,2.1688535E9,1.567703E8,3.617275E8,1.05238086E9,5.541983E8,2.0516813E8,3.303844E8,6.620677E8,3.659694E8,4.093696E7,9.478451E7,1.20610184E8,3.238876E8,1.8467027E8,3.082903E8,1.8610957E8,4.9657152E8,4.257024E7,1.0961766E8,1.4251674E8,8.555008E7,2.8923443E8,3.4459392E8,3.041531E8,1.590738E8,0E0,0E0,0E0,0E0,0E0,0E0,0E0,0E0,0E0,0E0,0E0,0E0,0E0,0E0,0E0,0E0,0E0,0E0,0E0,0E0,0E0,0E0,0E0,0E0,0E0,0E0,0E0,0E0,0E0,0E0,0E0,0E0],"parents":[2147483647,0,0,1,1,2,2,3,3,4,4,5,5,6,6,7,7,8,8,9,9,10,10,11,11,12,12,13,13,14,14,15,15,16,16,17,17,18,18,19,19,20,20,21,21,22,22,23,23,24,24,25,25,26,26,27,27,28,28,29,29,30,30],"right_children":[2,4,6,8,10,12,14,16,18,20,22,24,26,28,30,32,34,36,38,40,42,44,46,48,50,52,54,56,58,60,62,-1,-1,-1,-1,-1,-1,-1,-1,-1,-1,-1,-1,-1,-1,-1,-1,-1,-1,-1,-1,-1,-1,-1,-1,-1,-1,-1,-1,-1,-1,-1,-1],"split_conditions":[2.65E2,7.9166664E1,-5.262E0,4.1E1,5.383165E0,6.6411664E2,4.8918332E2,2.7E1,-2.086E0,-4.798E2,-2.9060001E0,8.368989E0,-9.116E0,-5.3744E2,-5.52959E2,-1.1E0,-1.944E0,-4.598E0,-4.445E2,-5.603E2,-2.2E0,7.630227E0,-4.5106E2,3.9268332E2,3.2581112E0,5.326667E0,1.0213333E0,4.956317E0,-3.376E0,4.6255E0,5.1054854E0,-1.1597254E0,-1.5919867E0,-5.2036613E-1,-1.240539E0,1.4002095E0,-1.5199073E-1,-3.3567372E-1,-9.7801214E-1,1.0669804E0,2.666182E-1,7.220009E-2,-6.6006E-1,1.156017E0,2.337753E0,1.1192673E0,1.021139E-1,2.641704E0,3.6654327E0,6.866624E0,4.504333E0,9.843783E0,7.3074083E0,1.1368916E1,5.761117E0,1.6092752E0,2.8811886E0,1.9353468E0,8.5247916E-1,3.3439553E0,5.326836E0,1.5240976E0,2.8569074E0],"split_indices":[43,43,10,43,38,43,43,43,10,15,10,38,10,15,17,10,10,10,15,15,10,38,15,43,32,32,32,38,10,32,38,0,0,0,0,0,0,0,0,0,0,0,0,0,0,0,0,0,0,0,0,0,0,0,0,0,0,0,0,0,0,0,0],"split_type":[0,0,0,0,0,0,0,0,0,0,0,0,0,0,0,0,0,0,0,0,0,0,0,0,0,0,0,0,0,0,0,0,0,0,0,0,0,0,0,0,0,0,0,0,0,0,0,0,0,0,0,0,0,0,0,0,0,0,0,0,0,0,0],"sum_hessian":[5.784615E6,4.677145E6,1.10747E6,2.754942E6,1.922203E6,1.69948E5,9.37522E5,1.33349E6,1.421452E6,1.22081E6,7.01393E5,1.05742E5,6.4206E4,6.61851E5,2.75671E5,5.87591E5,7.45899E5,1.45808E5,1.275644E6,3.17859E5,9.02951E5,1.54288E5,5.47105E5,4.5963E4,5.9779E4,2.4972E4,3.9234E4,1.88127E5,4.73724E5,1.08009E5,1.67662E5,6.4561E4,5.2303E5,5.1472E4,6.94427E5,1.4582E4,1.31226E5,2.58004E5,1.01764E6,1.23819E5,1.9404E5,1.91258E5,7.11693E5,1.00802E5,5.3486E4,1.96209E5,3.50896E5,1.6837E4,2.9126E4,5.7E3,5.4079E4,9.267E3,1.5705E4,7.27E2,3.8507E4,9.9382E4,8.8745E4,9.6853E4,3.76871E5,8.0933E4,2.7076E4,2.8243E4,1.39419E5],"tree_param":{"num_deleted":"0","num_feature":"125","num_nodes":"63","size_leaf_vector":"1"}},{"base_weights":[-1.3124842E-2,-3.4718594E1,1.4290132E2,-6.741768E1,2.0530899E0,3.3915677E2,1.1932682E2,-8.618969E1,-5.370465E1,3.966411E1,-1.7549881E1,2.7296832E2,4.309075E2,9.1769356E1,2.0040231E2,-9.640541E1,-7.835238E1,-3.3250645E1,-6.4586E1,7.736108E0,6.541155E1,-3.8023155E1,1.9951738E1,4.1152045E2,2.6046957E2,5.315651E2,3.8912567E2,5.8944016E1,1.1890672E2,1.4779292E2,2.2285176E2,-1.4086622E0,-1.6499785E0,-9.4619066E-1,-1.3347867E0,-7.8620934E-1,-2.3733431E-1,-1.096848E0,-2.535533E-1,6.702526E-1,-1.664355E-1,1.7994511E0,8.0351835E-1,-2.3689707E-1,-7.6302916E-1,9.32604E-1,5.591741E-2,7.6814246E0,4.433564E0,4.913426E0,3.7256153E0,1.0248466E1,7.4174833E0,1.10066185E1,6.1554184E0,1.8543872E0,5.8626425E-1,3.0752752E0,1.641063E0,2.9105198E0,1.7833221E0,4.5864058E0,3.0257843E0],"categories":[],"categories_nodes":[],"categories_segments":[],"categories_sizes":[],"default_left":[0,0,0,0,0,0,0,0,0,0,0,0,0,0,0,0,0,0,0,0,0,0,0,0,0,0,0,0,0,0,0,0,0,0,0,0,0,0,0,0,0,0,0,0,0,0,0,0,0,0,0,0,0,0,0,0,0,0,0,0,0,0,0],"id":12,"left_children":[1,3,5,7,9,11,13,15,17,19,21,23,25,27,29,31,33,35,37,39,41,43,45,47,49,51,53,55,57,59,61,-1,-1,-1,-1,-1,-1,-1,-1,-1,-1,-1,-1,-1,-1,-1,-1,-1,-1,-1,-1,-1,-1,-1,-1,-1,-1,-1,-1,-1,-1,-1,-1],"loss_changes":[2.8693926E10,5.596925E9,5.22974E9,6.342349E8,1.6153683E9,7.359201E8,2.2546565E9,8.325632E7,3.1688115E8,6.1710566E8,1.1058225E9,1.2174797E8,2.132306E8,6.7089766E8,3.0227968E8,2.33216E7,4.782848E7,1.4068416E8,1.4335104E8,2.0319187E8,2.9994445E8,1.9831923E8,3.1588477E8,5.0166976E7,8.421376E7,1.1036442E8,9.321779E7,4.3075008E8,5.1407155E8,9.210419E7,3.898542E8,0E0,0E0,0E0,0E0,0E0,0E0,0E0,0E0,0E0,0E0,0E0,0E0,0E0,0E0,0E0,0E0,0E0,0E0,0E0,0E0,0E0,0E0,0E0,0E0,0E0,0E0,0E0,0E0,0E0,0E0,0E0,0E0],"parents":[2147483647,0,0,1,1,2,2,3,3,4,4,5,5,6,6,7,7,8,8,9,9,10,10,11,11,12,12,13,13,14,14,15,15,16,16,17,17,18,18,19,19,20,20,21,21,22,22,23,23,24,24,25,25,26,26,27,27,28,28,29,29,30,30],"right_children":[2,4,6,8,10,12,14,16,18,20,22,24,26,28,30,32,34,36,38,40,42,44,46,48,50,52,54,56,58,60,62,-1,-1,-1,-1,-1,-1,-1,-1,-1,-1,-1,-1,-1,-1,-1,-1,-1,-1,-1,-1,-1,-1,-1,-1,-1,-1,-1,-1,-1,-1,-1,-1],"split_conditions":[2.6003333E2,6.59E1,-6.001E0,3.4633335E1,-4.4580667E2,7.0913336E2,5.22E2,2.3533333E1,-4.0048666E2,4.4877877E0,5.412135E0,3.1958332E0,-1.0809667E1,5.265288E0,5.4621243E0,-3.6048666E2,-4.2478168E2,4.6478963E0,1.49869995E1,-5.402684E2,-5.5642303E2,-1.751E0,-2.0526667E0,-6.921E0,-7.602667E0,5.618644E0,1.168E0,-5.60105E2,-5.402684E2,-5.52959E2,-5.3448334E2,-1.4086622E0,-1.6499785E0,-9.4619066E-1,-1.3347867E0,-7.8620934E-1,-2.3733431E-1,-1.096848E0,-2.535533E-1,6.702526E-1,-1.664355E-1,1.7994511E0,8.0351835E-1,-2.3689707E-1,-7.6302916E-1,9.32604E-1,5.591741E-2,7.6814246E0,4.433564E0,4.913426E0,3.7256153E0,1.0248466E1,7.4174833E0,1.10066185E1,6.1554184E0,1.8543872E0,5.8626425E-1,3.0752752E0,1.641063E0,2.9105198E0,1.7833221E0,4.5864058E0,3.0257843E0],"split_indices":[42,42,12,42,17,42,42,42,17,38,37,33,12,37,37,17,17,38,31,17,17,12,12,12,12,33,31,17,17,17,17,0,0,0,0,0,0,0,0,0,0,0,0,0,0,0,0,0,0,0,0,0,0,0,0,0,0,0,0,0,0,0,0],"split_type":[0,0,0,0,0,0,0,0,0,0,0,0,0,0,0,0,0,0,0,0,0,0,0,0,0,0,0,0,0,0,0,0,0,0,0,0,0,0,0,0,0,0,0,0,0,0,0,0,0,0,0,0,0,0,0,0,0,0,0,0,0,0,0],"sum_hessian":[5.785163E6,4.654791E6,1.130372E6,2.463834E6,2.190957E6,1.21218E5,1.009154E6,1.040063E6,1.423771E6,7.50677E5,1.44028E6,7.0423E4,5.0795E4,7.5316E5,2.55994E5,4.5151E5,5.88553E5,4.94414E5,9.29357E5,3.35118E5,4.15559E5,9.31659E5,5.08621E5,5.822E3,6.4601E4,1.4893E4,3.5902E4,3.40861E5,4.12299E5,7.657E4,1.79424E5,1.66436E5,2.85074E5,1.00083E5,4.8847E5,2.71197E5,2.23217E5,8.73098E5,5.6259E4,1.16834E5,2.18284E5,1.06668E5,3.08891E5,2.60915E5,6.70744E5,1.54988E5,3.53633E5,3.994E3,1.828E3,2.6751E4,3.785E4,6.253E3,8.64E3,1.072E3,3.483E4,9.8961E4,2.419E5,8.173E4,3.30569E5,4.1419E4,3.5151E4,6.6989E4,1.12435E5],"tree_param":{"num_deleted":"0","num_feature":"125","num_nodes":"63","size_leaf_vector":"1"}},{"base_weights":[-1.870418E-2,-3.288657E1,1.4606557E2,-6.2022617E1,9.506939E0,3.1844223E2,1.1840793E2,-7.92382E1,-4.364982E1,-1.2630052E1,4.407362E1,2.590257E2,4.2291724E2,9.0718735E1,1.9304474E2,-9.246237E1,-7.018449E1,-6.140358E0,-5.135928E1,4.1199886E1,-2.8480999E1,9.3111145E1,2.9784672E1,2.0364943E2,2.9040918E2,4.9591302E2,3.6415622E2,1.5064702E2,7.6603905E1,2.3008864E2,1.6339159E2,-9.9378896E-1,-1.5283382E0,-1.2502831E0,-8.852513E-1,-4.3955806E-1,2.186324E-1,-9.8171663E-1,-4.7746584E-1,1.5774759E0,5.0193983E-1,2.6574712E-2,-6.0013247E-1,2.3817308E0,1.2619886E0,1.5841223E0,2.924996E-1,9.547576E0,3.250175E0,4.077892E0,5.4966497E0,9.710268E0,7.0580893E0,1.1118672E1,5.770025E0,1.5987372E0,3.101113E0,6.378556E-1,1.6736933E0,2.7326136E0,4.4634094E0,3.4124222E0,2.2813327E0],"categories":[],"categories_nodes":[],"categories_segments":[],"categories_sizes":[],"default_left":[0,0,0,0,0,0,0,0,0,0,0,0,0,0,0,0,0,0,0,0,0,0,0,0,0,0,0,0,0,0,0,0,0,0,0,0,0,0,0,0,0,0,0,0,0,0,0,0,0,0,0,0,0,0,0,0,0,0,0,0,0,0,0],"id":13,"left_children":[1,3,5,7,9,11,13,15,17,19,21,23,25,27,29,31,33,35,37,39,41,43,45,47,49,51,53,55,57,59,61,-1,-1,-1,-1,-1,-1,-1,-1,-1,-1,-1,-1,-1,-1,-1,-1,-1,-1,-1,-1,-1,-1,-1,-1,-1,-1,-1,-1,-1,-1,-1,-1],"loss_changes":[2.7774296E10,5.832634E9,5.065124E9,8.852019E8,1.4718272E9,9.116488E8,1.892055E9,1.7297306E8,3.914962E8,1.0004777E9,5.2615296E8,1.626322E8,2.2806118E8,5.648563E8,2.720635E8,3.510989E7,9.35273E7,9.523775E7,2.2767104E8,1.52971E8,2.3415226E8,1.3875494E8,4.6375475E8,3.804211E7,1.1289958E8,1.473792E8,7.388672E7,2.7005568E8,5.3819955E8,3.076613E8,1.4655923E8,0E0,0E0,0E0,0E0,0E0,0E0,0E0,0E0,0E0,0E0,0E0,0E0,0E0,0E0,0E0,0E0,0E0,0E0,0E0,0E0,0E0,0E0,0E0,0E0,0E0,0E0,0E0,0E0,0E0,0E0,0E0,0E0],"parents":[2147483647,0,0,1,1,2,2,3,3,4,4,5,5,6,6,7,7,8,8,9,9,10,10,11,11,12,12,13,13,14,14,15,15,16,16,17,17,18,18,19,19,20,20,21,21,22,22,23,23,24,24,25,25,26,26,27,27,28,28,29,29,30,30],"right_children":[2,4,6,8,10,12,14,16,18,20,22,24,26,28,30,32,34,36,38,40,42,44,46,48,50,52,54,56,58,60,62,-1,-1,-1,-1,-1,-1,-1,-1,-1,-1,-1,-1,-1,-1,-1,-1,-1,-1,-1,-1,-1,-1,-1,-1,-1,-1,-1,-1,-1,-1,-1,-1],"split_conditions":[2.731E2,7.71E1,-5.733E0,4.1866665E1,5.265288E0,7.0913336E2,5.22E2,2.62E1,-4.5957904E2,-4.9639038E2,-4.830307E2,8.368989E0,-9.116E0,-5.7160693E2,-5.311445E2,-1.648E0,4.975998E0,4.4532027E0,5.2897615E0,-6.2486273E2,-2.162E0,-5.8881805E2,-3.922E0,-6.675952E2,5.22E2,5.294E0,1.0213333E0,4.612056E0,5.265288E0,5.4621243E0,-3.832E0,-9.9378896E-1,-1.5283382E0,-1.2502831E0,-8.852513E-1,-4.3955806E-1,2.186324E-1,-9.8171663E-1,-4.7746584E-1,1.5774759E0,5.0193983E-1,2.6574712E-2,-6.0013247E-1,2.3817308E0,1.2619886E0,1.5841223E0,2.924996E-1,9.547576E0,3.250175E0,4.077892E0,5.4966497E0,9.710268E0,7.0580893E0,1.1118672E1,5.770025E0,1.5987372E0,3.101113E0,6.378556E-1,1.6736933E0,2.7326136E0,4.4634094E0,3.4124222E0,2.2813327E0],"split_indices":[41,41,10,42,37,42,42,42,19,19,19,38,10,19,19,10,37,38,37,19,10,19,10,19,42,32,32,38,37,37,10,0,0,0,0,0,0,0,0,0,0,0,0,0,0,0,0,0,0,0,0,0,0,0,0,0,0,0,0,0,0,0,0],"split_type":[0,0,0,0,0,0,0,0,0,0,0,0,0,0,0,0,0,0,0,0,0,0,0,0,0,0,0,0,0,0,0,0,0,0,0,0,0,0,0,0,0,0,0,0,0,0,0,0,0,0,0,0,0,0,0,0,0,0,0,0,0,0,0],"sum_hessian":[5.784527E6,4.722093E6,1.062434E6,2.798648E6,1.923445E6,1.46894E5,9.1554E5,1.444822E6,1.353826E6,1.172537E6,7.50908E5,9.3644E4,5.325E4,6.678E5,2.4774E5,5.87167E5,8.57655E5,2.30817E5,1.123009E6,2.66727E5,9.0581E5,1.69432E5,5.81476E5,3.3879E4,5.9765E4,2.3742E4,2.9508E4,1.27299E5,5.40501E5,1.10138E5,1.37602E5,3.4225E4,5.52942E5,5.902E5,2.67455E5,1.11538E5,1.19279E5,7.88746E5,3.34263E5,4.0962E4,2.25765E5,2.00843E5,7.04967E5,3.7174E4,1.32258E5,8.5437E4,4.96039E5,2.52E2,3.3627E4,3.3464E4,2.6301E4,8.694E3,1.5048E4,6.94E2,2.8814E4,5.6077E4,7.1222E4,2.26096E5,3.14405E5,4.6949E4,6.3189E4,4.4321E4,9.3281E4],"tree_param":{"num_deleted":"0","num_feature":"125","num_nodes":"63","size_leaf_vector":"1"}},{"base_weights":[2.059976E-2,1.8159123E2,-1.704142E1,3.6223465E2,1.4615526E2,6.5045494E1,-4.091546E1,4.5144626E2,3.0371576E2,1.9321153E2,9.7196915E1,1.251761E2,4.0189583E1,-5.7438717E1,-5.846545E0,5.660491E2,4.015236E2,3.3667883E2,2.2872702E2,1.5348167E2,2.401086E2,1.517635E2,6.0136097E1,8.966757E1,2.0084048E2,2.1804514E1,1.1059358E2,-2.1059822E1,-6.705407E1,3.5330235E1,-2.6649529E1,8.509612E0,1.1376652E1,6.1093087E0,8.684555E0,5.940486E0,4.479969E0,5.7863E0,3.4276812E0,3.0017102E0,1.8003634E0,5.3411965E0,3.6067324E0,2.0201344E0,3.0950942E0,7.46099E-1,1.9144624E0,2.2873886E0,1.0728562E0,3.0040522E0,5.47222E0,1.1326792E0,6.0426965E-2,2.8921819E0,1.2752339E0,5.193827E-2,-6.308323E-1,-7.656188E-1,-1.2284331E0,2.5445E-1,1.3985032E0,8.498873E-2,-7.351581E-1],"categories":[],"categories_nodes":[],"categories_segments":[],"categories_sizes":[],"default_left":[0,0,0,0,0,0,0,0,0,0,0,0,0,0,0,0,0,0,0,0,0,0,0,0,0,0,0,0,0,0,0,0,0,0,0,0,0,0,0,0,0,0,0,0,0,0,0,0,0,0,0,0,0,0,0,0,0,0,0,0,0,0,0],"id":14,"left_children":[1,3,5,7,9,11,13,15,17,19,21,23,25,27,29,31,33,35,37,39,41,43,45,47,49,51,53,55,57,59,61,-1,-1,-1,-1,-1,-1,-1,-1,-1,-1,-1,-1,-1,-1,-1,-1,-1,-1,-1,-1,-1,-1,-1,-1,-1,-1,-1,-1,-1,-1,-1,-1],"loss_changes":[1.7920043E10,3.180499E9,1.0362341E10,4.2511872E8,9.5693414E8,1.7805793E9,2.3735803E9,1.8419917E8,1.2149453E8,3.9457024E8,4.116864E8,9.3610445E8,1.0910533E9,9.7395405E8,1.1237701E9,5.342899E7,7.305216E7,6.1726464E7,3.280352E7,1.5466086E8,1.512535E8,8.752576E7,9.901683E7,2.8642854E8,2.3360307E8,5.8158886E8,3.779612E8,2.5283485E8,3.8363648E8,4.4083533E8,5.2133485E8,0E0,0E0,0E0,0E0,0E0,0E0,0E0,0E0,0E0,0E0,0E0,0E0,0E0,0E0,0E0,0E0,0E0,0E0,0E0,0E0,0E0,0E0,0E0,0E0,0E0,0E0,0E0,0E0,0E0,0E0,0E0,0E0],"parents":[2147483647,0,0,1,1,2,2,3,3,4,4,5,5,6,6,7,7,8,8,9,9,10,10,11,11,12,12,13,13,14,14,15,15,16,16,17,17,18,18,19,19,20,20,21,21,22,22,23,23,24,24,25,25,26,26,27,27,28,28,29,29,30,30],"right_children":[2,4,6,8,10,12,14,16,18,20,22,24,26,28,30,32,34,36,38,40,42,44,46,48,50,52,54,56,58,60,62,-1,-1,-1,-1,-1,-1,-1,-1,-1,-1,-1,-1,-1,-1,-1,-1,-1,-1,-1,-1,-1,-1,-1,-1,-1,-1,-1,-1,-1,-1,-1,-1],"split_conditions":[-3.75E0,-6.19925E0,-4.731305E2,-9.116E0,-4.0048932E2,-5.8042444E2,5.2897615E0,4.98675E0,-6.39E0,7.2028427E0,-5.07E0,3.238186E0,5.0771523E0,-1.466E0,-2.98E-1,-3.775616E2,1.8337116E1,-3.562213E2,-5.0554807E2,-4.653881E2,-5.6368665E2,8.203203E0,7.440651E0,-6.4920416E2,9.467172E0,-1.0190834E0,-7.5266665E-1,-3.775616E2,-3.9613165E2,7.440651E0,-3.9881418E2,8.509612E0,1.1376652E1,6.1093087E0,8.684555E0,5.940486E0,4.479969E0,5.7863E0,3.4276812E0,3.0017102E0,1.8003634E0,5.3411965E0,3.6067324E0,2.0201344E0,3.0950942E0,7.46099E-1,1.9144624E0,2.2873886E0,1.0728562E0,3.0040522E0,5.47222E0,1.1326792E0,6.0426965E-2,2.8921819E0,1.2752339E0,5.193827E-2,-6.308323E-1,-7.656188E-1,-1.2284331E0,2.5445E-1,1.3985032E0,8.498873E-2,-7.351581E-1],"split_indices":[10,14,18,10,18,18,37,34,10,37,10,34,34,10,10,18,37,18,18,18,18,37,37,18,37,14,14,18,18,37,18,0,0,0,0,0,0,0,0,0,0,0,0,0,0,0,0,0,0,0,0,0,0,0,0,0,0,0,0,0,0,0,0],"split_type":[0,0,0,0,0,0,0,0,0,0,0,0,0,0,0,0,0,0,0,0,0,0,0,0,0,0,0,0,0,0,0,0,0,0,0,0,0,0,0,0,0,0,0,0,0,0,0,0,0,0,0,0,0,0,0,0,0,0,0,0,0,0,0],"sum_hessian":[5.784458E6,4.96868E5,5.28759E6,8.1481E4,4.15387E5,1.191345E6,4.096245E6,3.2271E4,4.921E4,2.11805E5,2.03582E5,3.48429E5,8.42916E5,2.784353E6,1.311892E6,9.786E3,2.2485E4,3.4179E4,1.5031E4,1.14669E5,9.7136E4,8.2341E4,1.21241E5,2.37144E5,1.11285E5,6.6838E5,1.74536E5,5.82086E5,2.202267E6,4.40325E5,8.71567E5,7.554E3,2.232E3,1.9066E4,3.419E3,2.2732E4,1.1447E4,1.754E3,1.3277E4,6.5367E4,4.9302E4,1.5742E4,8.1394E4,4.8851E4,3.349E4,9.7621E4,2.362E4,7.4013E4,1.63131E5,1.00106E5,1.1179E4,1.82413E5,4.85967E5,5.5645E4,1.18891E5,2.47086E5,3.35E5,6.78887E5,1.52338E6,3.18077E5,1.22248E5,3.22677E5,5.4889E5],"tree_param":{"num_deleted":"0","num_feature":"125","num_nodes":"63","size_leaf_vector":"1"}},{"base_weights":[-6.854625E-3,-3.447863E1,1.319729E2,-6.4914894E1,1.4349714E-1,9.294149E1,2.406642E2,-8.264838E1,-5.1745094E1,3.5997013E1,-1.8140665E1,7.2447105E1,1.5832089E2,1.8535991E2,3.1840063E2,-9.246886E1,-7.511986E1,-3.1778194E1,-6.175556E1,7.758779E0,6.0552097E1,-3.3865208E1,2.4538303E1,1.2530687E2,5.431728E1,2.6062173E2,1.4982562E2,1.6221924E2,2.3085841E2,2.7973428E2,3.9809628E2,-1.3522278E0,-1.5818845E0,-9.0945005E-1,-1.279245E0,-7.0390743E-1,-1.6198035E-1,-1.0483764E0,-2.3667884E-1,6.853911E-1,-1.3846596E-1,1.67545E0,7.479603E-1,-7.8466684E-1,-3.259354E-1,2.095341E-1,1.177892E0,1.2428414E0,2.4297361E0,4.0353662E-1,1.2040756E0,3.755343E0,5.400899E0,2.070227E0,2.992621E0,1.875432E0,2.8548162E0,2.5039997E0,3.9960833E0,6.409099E0,4.310476E0,7.123709E0,5.293435E0],"categories":[],"categories_nodes":[],"categories_segments":[],"categories_sizes":[],"default_left":[0,0,0,0,0,0,0,0,0,0,0,0,0,0,0,0,0,0,0,0,0,0,0,0,0,0,0,0,0,0,0,0,0,0,0,0,0,0,0,0,0,0,0,0,0,0,0,0,0,0,0,0,0,0,0,0,0,0,0,0,0,0,0],"id":15,"left_children":[1,3,5,7,9,11,13,15,17,19,21,23,25,27,29,31,33,35,37,39,41,43,45,47,49,51,53,55,57,59,61,-1,-1,-1,-1,-1,-1,-1,-1,-1,-1,-1,-1,-1,-1,-1,-1,-1,-1,-1,-1,-1,-1,-1,-1,-1,-1,-1,-1,-1,-1,-1,-1],"loss_changes":[2.632249E10,4.8341545E9,5.0831995E9,5.70155E8,1.4069254E9,1.181269E9,1.3609554E9,7.690701E7,2.8001152E8,5.025948E8,9.5387E8,6.4324045E8,1.8277888E8,1.946967E8,4.0531968E8,2.1114624E7,4.333875E7,1.1911622E8,1.3149773E8,1.9008754E8,2.3893952E8,2.0821248E8,2.139497E8,2.0594586E8,2.9447654E8,3.360896E7,1.4932838E8,8.011162E7,7.564083E7,1.3896602E8,1.2777318E8,0E0,0E0,0E0,0E0,0E0,0E0,0E0,0E0,0E0,0E0,0E0,0E0,0E0,0E0,0E0,0E0,0E0,0E0,0E0,0E0,0E0,0E0,0E0,0E0,0E0,0E0,0E0,0E0,0E0,0E0,0E0,0E0],"parents":[2147483647,0,0,1,1,2,2,3,3,4,4,5,5,6,6,7,7,8,8,9,9,10,10,11,11,12,12,13,13,14,14,15,15,16,16,17,17,18,18,19,19,20,20,21,21,22,22,23,23,24,24,25,25,26,26,27,27,28,28,29,29,30,30],"right_children":[2,4,6,8,10,12,14,16,18,20,22,24,26,28,30,32,34,36,38,40,42,44,46,48,50,52,54,56,58,60,62,-1,-1,-1,-1,-1,-1,-1,-1,-1,-1,-1,-1,-1,-1,-1,-1,-1,-1,-1,-1,-1,-1,-1,-1,-1,-1,-1,-1,-1,-1,-1,-1],"split_conditions":[2.474E2,6.5166664E1,5.3656665E2,3.4633335E1,-4.4580667E2,7.440651E0,8.296271E0,2.3533333E1,-4.0315433E2,4.5394735E0,5.9412026E0,-5.52959E2,-5.761979E2,7.0913336E2,8.4293335E2,-3.6048666E2,-4.2478168E2,5.1505327E0,1.5E1,-5.4625665E2,-5.5642303E2,4.036823E0,1.3622618E1,4.219133E0,4.8143306E0,1.061548E1,4.0486667E2,4.756812E0,4.955164E0,3.2676883E0,9.69E0,-1.3522278E0,-1.5818845E0,-9.0945005E-1,-1.279245E0,-7.0390743E-1,-1.6198035E-1,-1.0483764E0,-2.3667884E-1,6.853911E-1,-1.3846596E-1,1.67545E0,7.479603E-1,-7.8466684E-1,-3.259354E-1,2.095341E-1,1.177892E0,1.2428414E0,2.4297361E0,4.0353662E-1,1.2040756E0,3.755343E0,5.400899E0,2.070227E0,2.992621E0,1.875432E0,2.8548162E0,2.5039997E0,3.9960833E0,6.409099E0,4.310476E0,7.123709E0,5.293435E0],"split_indices":[42,42,42,42,17,37,37,42,17,37,37,17,18,42,42,17,17,37,30,18,17,37,33,37,37,37,42,37,37,33,30,0,0,0,0,0,0,0,0,0,0,0,0,0,0,0,0,0,0,0,0,0,0,0,0,0,0,0,0,0,0,0,0],"split_type":[0,0,0,0,0,0,0,0,0,0,0,0,0,0,0,0,0,0,0,0,0,0,0,0,0,0,0,0,0,0,0,0,0,0,0,0,0,0,0,0,0,0,0,0,0,0,0,0,0,0,0,0,0,0,0,0,0,0,0,0,0,0,0],"sum_hessian":[5.785697E6,4.587492E6,1.198205E6,2.441325E6,2.146167E6,8.81617E5,3.16588E5,1.040395E6,1.40093E6,7.24834E5,1.421333E6,6.71216E5,2.10401E5,1.84988E5,1.316E5,4.51465E5,5.8893E5,4.67821E5,9.33109E5,3.37134E5,3.877E5,1.038654E6,3.82679E5,1.71417E5,4.99799E5,1.6128E4,1.94273E5,1.22628E5,6.236E4,8.8615E4,4.2985E4,1.66313E5,2.85152E5,1.00143E5,4.88787E5,3.04368E5,1.63453E5,8.77459E5,5.565E4,1.08072E5,2.29062E5,9.7193E4,2.90507E5,5.03603E5,5.35051E5,3.08466E5,7.4213E4,5.7877E4,1.1354E5,2.02628E5,2.97171E5,1.1579E4,4.549E3,1.1934E5,7.4933E4,2.8565E4,9.4063E4,1.0784E4,5.1576E4,9.245E3,7.937E4,2.7065E4,1.592E4],"tree_param":{"num_deleted":"0","num_feature":"125","num_nodes":"63","size_leaf_vector":"1"}},{"base_weights":[2.6958464E-3,-3.249658E1,1.3731804E2,-6.305802E1,2.8272386E0,2.9350082E2,1.090087E2,-8.103543E1,-4.99037E1,-1.5940387E1,3.923757E1,2.3519818E2,3.8947028E2,8.150743E1,1.8200137E2,-4.7059814E1,-8.3680435E1,-2.1734272E1,-5.807895E1,3.1334242E1,-3.0897572E1,7.798566E1,2.0801352E1,2.0995827E2,2.9570178E2,4.7237146E2,3.3648236E2,1.1108317E2,5.172679E1,2.266477E2,1.554038E2,-9.705459E-1,-2.707311E-1,-1.0277443E0,-1.4112313E0,2.6830375E-1,-4.737906E-1,-3.1122026E-1,-9.973945E-1,1.5800142E0,3.6834845E-1,-4.2791482E-2,-6.470565E-1,9.8409927E-1,2.30418E0,9.3485105E-1,-9.629591E-3,3.0201156E0,4.151679E0,5.4241962E0,3.9249883E0,6.9575467E0,9.026152E0,5.790477E0,4.477826E0,1.2168665E0,2.2620895E0,1.5435957E0,5.116175E-1,2.8776252E0,4.5658255E0,2.2083178E0,3.1809413E0],"categories":[],"categories_nodes":[],"categories_segments":[],"categories_sizes":[],"default_left":[0,0,0,0,0,0,0,0,0,0,0,0,0,0,0,0,0,0,0,0,0,0,0,0,0,0,0,0,0,0,0,0,0,0,0,0,0,0,0,0,0,0,0,0,0,0,0,0,0,0,0,0,0,0,0,0,0,0,0,0,0,0,0],"id":16,"left_children":[1,3,5,7,9,11,13,15,17,19,21,23,25,27,29,31,33,35,37,39,41,43,45,47,49,51,53,55,57,59,61,-1,-1,-1,-1,-1,-1,-1,-1,-1,-1,-1,-1,-1,-1,-1,-1,-1,-1,-1,-1,-1,-1,-1,-1,-1,-1,-1,-1,-1,-1,-1,-1],"loss_changes":[2.5809367E10,5.04859E9,4.893737E9,5.929216E8,1.4823437E9,9.501051E8,1.8808986E9,9.519923E7,3.3343334E8,1.0121686E9,5.2708186E8,1.6122778E8,2.8162662E8,5.994363E8,3.0442547E8,2.9899136E7,6.899149E7,9.388656E7,1.5339443E8,1.9567478E8,2.784565E8,2.632809E8,3.9507504E8,8.10816E7,6.4957184E7,9.039462E7,4.939264E7,3.511122E8,2.9765056E8,2.5905562E8,1.2541722E8,0E0,0E0,0E0,0E0,0E0,0E0,0E0,0E0,0E0,0E0,0E0,0E0,0E0,0E0,0E0,0E0,0E0,0E0,0E0,0E0,0E0,0E0,0E0,0E0,0E0,0E0,0E0,0E0,0E0,0E0,0E0,0E0],"parents":[2147483647,0,0,1,1,2,2,3,3,4,4,5,5,6,6,7,7,8,8,9,9,10,10,11,11,12,12,13,13,14,14,15,15,16,16,17,17,18,18,19,19,20,20,21,21,22,22,23,23,24,24,25,25,26,26,27,27,28,28,29,29,30,30],"right_children":[2,4,6,8,10,12,14,16,18,20,22,24,26,28,30,32,34,36,38,40,42,44,46,48,50,52,54,56,58,60,62,-1,-1,-1,-1,-1,-1,-1,-1,-1,-1,-1,-1,-1,-1,-1,-1,-1,-1,-1,-1,-1,-1,-1,-1,-1,-1,-1,-1,-1,-1,-1,-1],"split_conditions":[2.65E2,6.61E1,-5.262E0,3.6066666E1,5.497406E0,6.6411664E2,5.0141666E2,-1.678E0,-4.3366E2,-4.798E2,-2.014E0,1.0657229E1,-9.116E0,-4.6688E2,-5.603E2,5.0232778E0,-4.2262E2,-5.4294824E2,-1.944E0,-6.2486273E2,-2.014E0,8.621718E0,-4.471E2,5.141667E2,1.5262916E0,1.00493335E3,-6.036E0,4.833333E0,-2.9060001E0,5.7651043E0,8.315684E0,-9.705459E-1,-2.707311E-1,-1.0277443E0,-1.4112313E0,2.6830375E-1,-4.737906E-1,-3.1122026E-1,-9.973945E-1,1.5800142E0,3.6834845E-1,-4.2791482E-2,-6.470565E-1,9.8409927E-1,2.30418E0,9.3485105E-1,-9.629591E-3,3.0201156E0,4.151679E0,5.4241962E0,3.9249883E0,6.9575467E0,9.026152E0,5.790477E0,4.477826E0,1.2168665E0,2.2620895E0,1.5435957E0,5.116175E-1,2.8776252E0,4.5658255E0,2.2083178E0,3.1809413E0],"split_indices":[43,41,10,43,35,43,43,10,15,15,10,35,10,15,15,35,15,19,10,19,10,35,15,43,4,43,10,37,10,36,36,0,0,0,0,0,0,0,0,0,0,0,0,0,0,0,0,0,0,0,0,0,0,0,0,0,0,0,0,0,0,0,0],"split_type":[0,0,0,0,0,0,0,0,0,0,0,0,0,0,0,0,0,0,0,0,0,0,0,0,0,0,0,0,0,0,0,0,0,0,0,0,0,0,0,0,0,0,0,0,0,0,0,0,0,0,0,0,0,0,0,0,0,0,0,0,0,0,0],"sum_hessian":[5.783415E6,4.676581E6,1.106834E6,2.507308E6,2.169273E6,1.69835E5,9.36999E5,1.059427E6,1.447881E6,1.431441E6,7.37832E5,1.05655E5,6.418E4,6.80582E5,2.56417E5,7.6522E4,9.82905E5,3.25683E5,1.122198E6,3.44041E5,1.0874E6,2.37875E5,4.99957E5,7.456E4,3.1095E4,2.502E4,3.916E4,3.41463E5,3.39119E5,9.5723E4,1.60694E5,5.3718E4,2.2804E4,1.44173E5,8.38732E5,5.3481E4,2.72202E5,9.3155E4,1.029043E6,3.9473E4,3.04568E5,2.64087E5,8.23313E5,1.87662E5,5.0213E4,1.83392E5,3.16565E5,4.9554E4,2.5006E4,1.7896E4,1.3199E4,1.6667E4,8.353E3,2.8949E4,1.0211E4,1.51388E5,1.90075E5,1.07112E5,2.32007E5,5.0801E4,4.4922E4,1.09807E5,5.0887E4],"tree_param":{"num_deleted":"0","num_feature":"125","num_nodes":"63","size_leaf_vector":"1"}},{"base_weights":[6.8299333E-3,-3.1847635E1,1.3441095E2,-5.7227623E1,1.0069355E1,2.808172E2,1.0598062E2,-7.4252396E1,-3.9622387E1,7.57134E1,4.1842628E0,4.1702643E2,2.4114708E2,8.123172E1,1.7340524E2,-8.5541855E1,-6.49785E1,-8.0237764E-1,-4.32071E1,1.3397388E2,5.9335854E1,-2.4376771E0,4.0931396E1,4.5652628E2,3.3616934E2,2.0978609E2,3.1012274E2,6.4170265E1,1.0595998E2,1.5491266E2,2.1568872E2,-8.861235E-1,-1.4088644E0,-4.2218438E-1,-1.0867394E0,-2.664485E-1,6.7740387E-1,-8.0331033E-1,-4.5219767E-1,4.917432E0,2.0858986E0,7.8482354E-1,1.6812024E0,-2.601888E-1,3.0045485E-1,3.159376E-1,1.0728678E0,8.782777E0,6.607215E0,5.7502775E0,3.9985292E0,3.9554095E0,3.02048E0,1.2232197E1,4.915574E0,1.5714167E0,9.210999E-1,2.4054573E0,1.5982099E0,3.081823E0,2.3302443E0,3.3421543E0,4.691799E0],"categories":[],"categories_nodes":[],"categories_segments":[],"categories_sizes":[],"default_left":[0,0,0,0,0,0,0,0,0,0,0,0,0,0,0,0,0,0,0,0,0,0,0,0,0,0,0,0,0,0,0,0,0,0,0,0,0,0,0,0,0,0,0,0,0,0,0,0,0,0,0,0,0,0,0,0,0,0,0,0,0,0,0],"id":17,"left_children":[1,3,5,7,9,11,13,15,17,19,21,23,25,27,29,31,33,35,37,39,41,43,45,47,49,51,53,55,57,59,61,-1,-1,-1,-1,-1,-1,-1,-1,-1,-1,-1,-1,-1,-1,-1,-1,-1,-1,-1,-1,-1,-1,-1,-1,-1,-1,-1,-1,-1,-1,-1,-1],"loss_changes":[2.4767343E10,4.975155E9,4.613372E9,8.730501E8,6.8134874E8,9.736714E8,1.5487406E9,1.550295E8,1.9927808E8,1.3844128E8,3.9386112E8,1.2952627E8,3.0181274E8,2.8642816E8,1.9479654E8,3.016448E7,6.75543E7,8.079515E7,1.2827085E8,2.7772992E7,5.4755296E7,3.9244573E8,1.3406618E8,1.1324006E8,2.24032E7,7.685811E7,1.2677299E8,9.621594E7,8.566989E7,6.750362E7,5.202867E7,0E0,0E0,0E0,0E0,0E0,0E0,0E0,0E0,0E0,0E0,0E0,0E0,0E0,0E0,0E0,0E0,0E0,0E0,0E0,0E0,0E0,0E0,0E0,0E0,0E0,0E0,0E0,0E0,0E0,0E0,0E0,0E0],"parents":[2147483647,0,0,1,1,2,2,3,3,4,4,5,5,6,6,7,7,8,8,9,9,10,10,11,11,12,12,13,13,14,14,15,15,16,16,17,17,18,18,19,19,20,20,21,21,22,22,23,23,24,24,25,25,26,26,27,27,28,28,29,29,30,30],"right_children":[2,4,6,8,10,12,14,16,18,20,22,24,26,28,30,32,34,36,38,40,42,44,46,48,50,52,54,56,58,60,62,-1,-1,-1,-1,-1,-1,-1,-1,-1,-1,-1,-1,-1,-1,-1,-1,-1,-1,-1,-1,-1,-1,-1,-1,-1,-1,-1,-1,-1,-1,-1,-1],"split_conditions":[2.638E2,8.2E1,-5.262E0,4.14E1,-3.59E0,-7.878667E0,5.134E2,2.68E1,-2.2E0,-5.482E0,1.07725E0,-9.116E0,6.61E2,3.75E2,7.204E2,-1.808E0,-2.05E0,2.9191667E-1,1.5568334E0,-1.1268E1,-3.4908333E-1,1.634E2,1.248E2,4.91E0,-6.814E0,-6.814E0,1.01E0,-3.246E0,-3.922E0,-3.668E0,3.452E1,-8.861235E-1,-1.4088644E0,-4.2218438E-1,-1.0867394E0,-2.664485E-1,6.7740387E-1,-8.0331033E-1,-4.5219767E-1,4.917432E0,2.0858986E0,7.8482354E-1,1.6812024E0,-2.601888E-1,3.0045485E-1,3.159376E-1,1.0728678E0,8.782777E0,6.607215E0,5.7502775E0,3.9985292E0,3.9554095E0,3.02048E0,1.2232197E1,4.915574E0,1.5714167E0,9.210999E-1,2.4054573E0,1.5982099E0,3.081823E0,2.3302443E0,3.3421543E0,4.691799E0],"split_indices":[40,40,10,40,10,14,40,40,10,10,14,10,40,40,40,10,10,14,14,10,14,40,40,31,10,10,31,10,10,10,26,0,0,0,0,0,0,0,0,0,0,0,0,0,0,0,0,0,0,0,0,0,0,0,0,0,0,0,0,0,0,0,0],"split_type":[0,0,0,0,0,0,0,0,0,0,0,0,0,0,0,0,0,0,0,0,0,0,0,0,0,0,0,0,0,0,0,0,0,0,0,0,0,0,0,0,0,0,0,0,0,0,0,0,0,0,0,0,0,0,0,0,0,0,0,0,0,0,0],"sum_hessian":[5.784905E6,4.676542E6,1.108363E6,2.912858E6,1.763684E6,1.80229E5,9.28134E5,1.480838E6,1.43202E6,1.45106E5,1.618578E6,4.0647E4,1.39582E5,6.7893E5,2.49204E5,6.67838E5,8.13E5,1.21057E5,1.310963E6,3.1837E4,1.13269E5,1.371442E6,2.47136E5,2.7301E4,1.3346E4,9.596E4,4.3622E4,4.01748E5,2.77182E5,1.73384E5,7.582E4,3.0333E4,6.37505E5,4.2311E4,7.70689E5,8.855E4,3.2507E4,9.23825E5,3.87138E5,9.35E2,3.0902E4,9.1037E4,2.2232E4,8.31526E5,5.39916E5,1.33896E5,1.1324E5,9.844E3,1.7457E4,1.1003E4,2.343E3,3.8631E4,5.7329E4,6.29E2,4.2993E4,7.2873E4,3.28875E5,4.0351E4,2.36831E5,4.1092E4,1.32292E5,6.738E4,8.44E3],"tree_param":{"num_deleted":"0","num_feature":"125","num_nodes":"63","size_leaf_vector":"1"}},{"base_weights":[9.020937E-3,-3.052402E1,1.35585E2,-5.623907E1,1.08577585E1,3.03646E2,1.11479965E2,-7.331014E1,-3.8873405E1,-1.2145373E1,4.076095E1,2.4629034E2,3.9725662E2,8.537902E1,1.8092577E2,-8.5563446E1,-6.4619934E1,-4.9577732E1,-1.774306E1,-2.2609404E1,8.178737E0,2.7524317E1,7.401643E1,3.1372244E2,2.2173965E2,4.8146237E2,3.581284E2,5.5633896E1,1.1153651E2,1.342875E2,2.0219312E2,-9.2909986E-1,-1.4115065E0,-1.1723992E0,-8.3566564E-1,-9.922087E-1,-6.919251E-1,3.9365783E-1,-3.857321E-1,-5.48603E-1,-9.6709654E-2,-2.1320558E-1,2.6409313E-1,1.6340482E-1,6.542686E-1,2.03989E0,8.985703E-1,4.860244E0,8.536999E0,3.4191303E0,5.47093E0,9.17796E0,6.9129252E0,1.0339721E1,5.6608357E0,6.203924E-1,1.221622E0,1.6161374E0,2.4088962E0,1.7019967E0,2.4043796E0,2.9081297E0,3.8719559E0],"categories":[],"categories_nodes":[],"categories_segments":[],"categories_sizes":[],"default_left":[0,0,0,0,0,0,0,0,0,0,0,0,0,0,0,0,0,0,0,0,0,0,0,0,0,0,0,0,0,0,0,0,0,0,0,0,0,0,0,0,0,0,0,0,0,0,0,0,0,0,0,0,0,0,0,0,0,0,0,0,0,0,0],"id":18,"left_children":[1,3,5,7,9,11,13,15,17,19,21,23,25,27,29,31,33,35,37,39,41,43,45,47,49,51,53,55,57,59,61,-1,-1,-1,-1,-1,-1,-1,-1,-1,-1,-1,-1,-1,-1,-1,-1,-1,-1,-1,-1,-1,-1,-1,-1,-1,-1,-1,-1,-1,-1,-1,-1],"loss_changes":[2.3944897E10,5.0239626E9,4.3073004E9,8.6319E8,1.2446303E9,7.158958E8,1.6854784E9,1.563438E8,3.264832E8,2.1749907E8,3.4629875E8,1.3678438E8,1.6660531E8,5.2585165E8,2.5190144E8,2.75968E7,8.700621E7,7.672781E7,1.2407726E8,1.2659171E8,6.0328536E7,1.2636893E8,2.155662E8,6.3612416E7,7.43831E7,7.43209E7,8.232243E7,1.0850515E8,1.5699405E8,3.2934784E7,1.4548275E8,0E0,0E0,0E0,0E0,0E0,0E0,0E0,0E0,0E0,0E0,0E0,0E0,0E0,0E0,0E0,0E0,0E0,0E0,0E0,0E0,0E0,0E0,0E0,0E0,0E0,0E0,0E0,0E0,0E0,0E0,0E0,0E0],"parents":[2147483647,0,0,1,1,2,2,3,3,4,4,5,5,6,6,7,7,8,8,9,9,10,10,11,11,12,12,13,13,14,14,15,15,16,16,17,17,18,18,19,19,20,20,21,21,22,22,23,23,24,24,25,25,26,26,27,27,28,28,29,29,30,30],"right_children":[2,4,6,8,10,12,14,16,18,20,22,24,26,28,30,32,34,36,38,40,42,44,46,48,50,52,54,56,58,60,62,-1,-1,-1,-1,-1,-1,-1,-1,-1,-1,-1,-1,-1,-1,-1,-1,-1,-1,-1,-1,-1,-1,-1,-1,-1,-1,-1,-1,-1,-1,-1,-1],"split_conditions":[2.731E2,8.22E1,-5.932E0,4.23E1,5.0643163E0,7.0913336E2,5.22E2,2.6633333E1,5.108669E0,1.699E2,7.659615E0,-6.890333E0,-9.907E0,5.3181024E0,5.467766E0,-1.641E0,4.6298585E0,3.3258147E0,-1.641E0,4.0418596E0,3.5171707E0,1.388E2,-2.427E0,1.8458971E1,7.152E0,4.971E0,1.168E0,3.593E2,8.509916E0,4.3001804E0,7.0913336E2,-9.2909986E-1,-1.4115065E0,-1.1723992E0,-8.3566564E-1,-9.922087E-1,-6.919251E-1,3.9365783E-1,-3.857321E-1,-5.48603E-1,-9.6709654E-2,-2.1320558E-1,2.6409313E-1,1.6340482E-1,6.542686E-1,2.03989E0,8.985703E-1,4.860244E0,8.536999E0,3.4191303E0,5.47093E0,9.17796E0,6.9129252E0,1.0339721E1,5.6608357E0,6.203924E-1,1.221622E0,1.6161374E0,2.4088962E0,1.7019967E0,2.4043796E0,2.9081297E0,3.8719559E0],"split_indices":[41,41,11,42,36,42,42,42,36,42,36,14,14,36,36,11,38,38,11,38,38,41,11,36,5,31,31,42,36,36,42,0,0,0,0,0,0,0,0,0,0,0,0,0,0,0,0,0,0,0,0,0,0,0,0,0,0,0,0,0,0,0,0],"split_type":[0,0,0,0,0,0,0,0,0,0,0,0,0,0,0,0,0,0,0,0,0,0,0,0,0,0,0,0,0,0,0,0,0,0,0,0,0,0,0,0,0,0,0,0,0,0,0,0,0,0,0,0,0,0,0,0,0,0,0,0,0,0,0],"sum_hessian":[5.784421E6,4.721169E6,1.063252E6,2.911767E6,1.809402E6,1.3337E5,9.29882E5,1.468335E6,1.443432E6,1.022693E6,7.86709E5,8.2704E4,5.0666E4,6.75865E5,2.54017E5,6.09257E5,8.59078E5,9.5808E5,4.85352E5,6.75108E5,3.47585E5,5.6273E5,2.23979E5,2.2068E4,6.0636E4,1.6067E4,3.4599E4,3.16248E5,3.59617E5,7.956E4,1.74457E5,3.2882E4,5.76375E5,5.37492E5,3.21586E5,3.53687E5,6.04393E5,6.1295E4,4.24057E5,4.02455E5,2.72653E5,9.5879E4,2.51706E5,2.39125E5,3.23605E5,5.8857E4,1.65122E5,2.0754E4,1.314E3,5.5577E4,5.059E3,6.257E3,9.81E3,1.017E3,3.3582E4,1.68733E5,1.47515E5,2.73478E5,8.6139E4,2.6052E4,5.3508E4,1.08243E5,6.6214E4],"tree_param":{"num_deleted":"0","num_feature":"125","num_nodes":"63","size_leaf_vector":"1"}},{"base_weights":[3.3647288E-3,1.7209175E2,-1.5381797E1,3.0419147E2,1.3086157E2,6.8159546E1,-3.652981E1,3.8429663E2,2.5282016E2,1.8419496E2,9.267566E1,2.6995346E1,1.00327126E2,-5.237839E1,-3.263055E0,4.9678064E2,3.368979E2,3.3547424E2,2.4039256E2,1.5558842E2,2.2325627E2,1.3993561E2,6.3443283E1,7.6011986E1,8.275141E0,1.5904286E2,7.2218864E1,-2.1011219E1,-6.2291145E1,3.4015236E1,-2.4567547E1,7.320805E0,9.316347E0,5.1686807E0,7.29216E0,3.6421406E0,5.9509296E0,3.074914E0,4.1350813E0,2.8765876E0,1.8059746E0,4.882815E0,3.200533E0,1.9805892E0,2.8294718E0,7.6410586E-1,1.9749609E0,8.4336877E-1,1.6508293E0,7.187778E-1,-1.18877664E-1,2.1929846E0,3.908564E0,8.526149E-1,1.9397635E0,2.5816103E-2,-6.353801E-1,-6.5274364E-1,-1.1362556E0,2.4526411E-1,1.3157496E0,9.376397E-2,-7.303263E-1],"categories":[],"categories_nodes":[],"categories_segments":[],"categories_sizes":[],"default_left":[0,0,0,0,0,0,0,0,0,0,0,0,0,0,0,0,0,0,0,0,0,0,0,0,0,0,0,0,0,0,0,0,0,0,0,0,0,0,0,0,0,0,0,0,0,0,0,0,0,0,0,0,0,0,0,0,0,0,0,0,0,0,0],"id":19,"left_children":[1,3,5,7,9,11,13,15,17,19,21,23,25,27,29,31,33,35,37,39,41,43,45,47,49,51,53,55,57,59,61,-1,-1,-1,-1,-1,-1,-1,-1,-1,-1,-1,-1,-1,-1,-1,-1,-1,-1,-1,-1,-1,-1,-1,-1,-1,-1,-1,-1,-1,-1,-1,-1],"loss_changes":[1.5316683E10,2.5856942E9,9.381967E9,4.645284E8,7.368658E8,1.4204529E9,2.234202E9,2.3490816E8,7.052493E7,1.6862771E8,2.912942E8,4.3178893E8,9.93792E8,8.924493E8,1.0859839E9,4.538317E7,6.203725E7,3.1676544E7,4.515533E7,8.467354E7,1.2779213E8,4.937523E7,1.2392326E8,8.070547E7,1.920511E8,3.789097E8,3.790149E8,2.8401E8,3.7779098E8,4.4326022E8,5.424576E8,0E0,0E0,0E0,0E0,0E0,0E0,0E0,0E0,0E0,0E0,0E0,0E0,0E0,0E0,0E0,0E0,0E0,0E0,0E0,0E0,0E0,0E0,0E0,0E0,0E0,0E0,0E0,0E0,0E0,0E0,0E0,0E0],"parents":[2147483647,0,0,1,1,2,2,3,3,4,4,5,5,6,6,7,7,8,8,9,9,10,10,11,11,12,12,13,13,14,14,15,15,16,16,17,17,18,18,19,19,20,20,21,21,22,22,23,23,24,24,25,25,26,26,27,27,28,28,29,29,30,30],"right_children":[2,4,6,8,10,12,14,16,18,20,22,24,26,28,30,32,34,36,38,40,42,44,46,48,50,52,54,56,58,60,62,-1,-1,-1,-1,-1,-1,-1,-1,-1,-1,-1,-1,-1,-1,-1,-1,-1,-1,-1,-1,-1,-1,-1,-1,-1,-1,-1,-1,-1,-1,-1,-1],"split_conditions":[-3.756E0,-6.711E0,-4.8327E2,-8.625333E0,-4.1738956E2,4.594173E0,5.285962E0,5.1665E0,4.132E0,7.2028427E0,-4.978E0,-5.9346E2,-5.8042444E2,-1.263E0,-8.2E-2,-3.9203E2,1.8458971E1,8.275051E0,8.100197E0,-4.653881E2,-5.431606E2,8.100197E0,7.4267693E0,2.2686539E0,-1.049E0,4.368E0,5.1665E0,-3.7597E2,-4.0771E2,7.3657904E0,-3.978E2,7.320805E0,9.316347E0,5.1686807E0,7.29216E0,3.6421406E0,5.9509296E0,3.074914E0,4.1350813E0,2.8765876E0,1.8059746E0,4.882815E0,3.200533E0,1.9805892E0,2.8294718E0,7.6410586E-1,1.9749609E0,8.4336877E-1,1.6508293E0,7.187778E-1,-1.18877664E-1,2.1929846E0,3.908564E0,8.526149E-1,1.9397635E0,2.5816103E-2,-6.353801E-1,-6.5274364E-1,-1.1362556E0,2.4526411E-1,1.3157496E0,9.376397E-2,-7.303263E-1],"split_indices":[11,11,16,12,18,38,38,32,32,37,11,18,18,11,11,16,36,38,38,18,18,38,38,32,11,32,32,16,16,38,16,0,0,0,0,0,0,0,0,0,0,0,0,0,0,0,0,0,0,0,0,0,0,0,0,0,0,0,0,0,0,0,0],"split_type":[0,0,0,0,0,0,0,0,0,0,0,0,0,0,0,0,0,0,0,0,0,0,0,0,0,0,0,0,0,0,0,0,0,0,0,0,0,0,0,0,0,0,0,0,0,0,0,0,0,0,0,0,0,0,0,0,0,0,0,0,0,0,0],"sum_hessian":[5.785099E6,4.74757E5,5.310342E6,1.12928E5,3.61829E5,1.072727E6,4.237615E6,4.4119E4,6.8809E4,1.50968E5,2.10861E5,4.70562E5,6.02165E5,2.870217E6,1.367398E6,1.3074E4,3.1045E4,8.987E3,5.9822E4,8.7152E4,6.3816E4,8.058E4,1.30281E5,1.30046E5,3.40516E5,1.94941E5,4.07224E5,6.89241E5,2.180976E6,4.97274E5,8.70124E5,8.344E3,4.73E3,2.6863E4,4.182E3,2.023E3,6.964E3,1.3693E4,4.6129E4,5.8067E4,2.9085E4,1.5719E4,4.8097E4,5.3504E4,2.7076E4,1.01966E5,2.8315E4,6.7649E4,6.2397E4,1.02794E5,2.37722E5,1.51505E5,4.3436E4,2.88568E5,1.18656E5,3.07679E5,3.81562E5,5.75637E5,1.605339E6,3.55351E5,1.41923E5,3.51095E5,5.19029E5],"tree_param":{"num_deleted":"0","num_feature":"125","num_nodes":"63","size_leaf_vector":"1"}},{"base_weights":[-1.7335784E-2,-3.3598957E1,1.2266281E2,-5.8912254E1,2.8942513E-1,8.441971E1,2.2461967E2,-7.285283E1,-4.371712E1,-1.8268263E1,2.931243E1,6.82737E1,1.3534462E2,1.9139723E2,3.1615076E2,-8.512786E1,-6.5752075E1,-5.2433414E1,-2.5041155E1,2.4776035E1,-3.1200867E1,4.9017387E1,6.772192E0,1.00395546E2,4.5017143E1,2.0685548E2,1.2205639E2,1.6430789E2,2.3968915E2,2.8108047E2,4.2126608E2,-1.4179623E0,-1.1158637E0,-1.0866289E0,-1.181771E-1,-3.841281E-1,-9.1123885E-1,-4.9181858E-1,4.4038656E-1,1.5527148E0,2.9111898E-1,-7.4180406E-1,-3.6457878E-1,7.487987E-1,3.532202E0,9.932004E-3,1.46125E0,1.0145022E0,1.9546161E0,3.355229E-1,1.0325578E0,3.2137694E0,1.1968175E1,1.5176896E0,2.4514353E0,1.9305861E0,2.864065E0,5.7886343E0,3.7116456E0,3.506826E0,5.009936E0,6.110509E0,8.559599E0],"categories":[],"categories_nodes":[],"categories_segments":[],"categories_sizes":[],"default_left":[0,0,0,0,0,0,0,0,0,0,0,0,0,0,0,0,0,0,0,0,0,0,0,0,0,0,0,0,0,0,0,0,0,0,0,0,0,0,0,0,0,0,0,0,0,0,0,0,0,0,0,0,0,0,0,0,0,0,0,0,0,0,0],"id":20,"left_children":[1,3,5,7,9,11,13,15,17,19,21,23,25,27,29,31,33,35,37,39,41,43,45,47,49,51,53,55,57,59,61,-1,-1,-1,-1,-1,-1,-1,-1,-1,-1,-1,-1,-1,-1,-1,-1,-1,-1,-1,-1,-1,-1,-1,-1,-1,-1,-1,-1,-1,-1,-1,-1],"loss_changes":[2.383387E10,3.8961853E9,4.8476795E9,5.507287E8,1.0459765E9,7.4339994E8,1.0311496E9,1.1817421E8,2.0249907E8,6.594319E8,3.364201E8,5.128315E8,2.0677632E8,3.254364E8,3.3269043E8,1.9664128E7,6.80599E7,9.356339E7,1.1026459E8,1.3229218E8,1.1559507E8,1.895406E8,1.816278E8,2.2105088E8,1.8140794E8,1.5184973E8,1.5251814E8,9.028813E7,1.1009331E8,1.2359219E8,1.0605875E8,0E0,0E0,0E0,0E0,0E0,0E0,0E0,0E0,0E0,0E0,0E0,0E0,0E0,0E0,0E0,0E0,0E0,0E0,0E0,0E0,0E0,0E0,0E0,0E0,0E0,0E0,0E0,0E0,0E0,0E0,0E0,0E0],"parents":[2147483647,0,0,1,1,2,2,3,3,4,4,5,5,6,6,7,7,8,8,9,9,10,10,11,11,12,12,13,13,14,14,15,15,16,16,17,17,18,18,19,19,20,20,21,21,22,22,23,23,24,24,25,25,26,26,27,27,28,28,29,29,30,30],"right_children":[2,4,6,8,10,12,14,16,18,20,22,24,26,28,30,32,34,36,38,40,42,44,46,48,50,52,54,56,58,60,62,-1,-1,-1,-1,-1,-1,-1,-1,-1,-1,-1,-1,-1,-1,-1,-1,-1,-1,-1,-1,-1,-1,-1,-1,-1,-1,-1,-1,-1,-1,-1,-1],"split_conditions":[2.4116667E2,7.7808334E1,4.956E2,4.3641666E1,5.1963496E0,7.3768153E0,7.349583E2,2.6366667E1,5.105786E0,-4.851E2,-3.9956E2,-5.013E2,-5.3162E2,8.117936E0,9.5749164E2,6.068853E0,1.7686E1,-4.6688998E2,1.4604E1,-6.333426E2,3.5749567E0,1.9304167E1,2.0462334E1,4.2876525E0,5.0186462E0,1.9304167E1,3.5020834E2,4.7377315E0,2.9183333E0,7.14716E0,-4.0494E2,-1.4179623E0,-1.1158637E0,-1.0866289E0,-1.181771E-1,-3.841281E-1,-9.1123885E-1,-4.9181858E-1,4.4038656E-1,1.5527148E0,2.9111898E-1,-7.4180406E-1,-3.6457878E-1,7.487987E-1,3.532202E0,9.932004E-3,1.46125E0,1.0145022E0,1.9546161E0,3.355229E-1,1.0325578E0,3.2137694E0,1.1968175E1,1.5176896E0,2.4514353E0,1.9305861E0,2.864065E0,5.7886343E0,3.7116456E0,3.506826E0,5.009936E0,6.110509E0,8.559599E0],"split_indices":[44,44,44,44,37,37,44,44,37,15,15,15,15,37,44,37,31,17,31,17,37,32,32,38,37,32,44,37,32,37,15,0,0,0,0,0,0,0,0,0,0,0,0,0,0,0,0,0,0,0,0,0,0,0,0,0,0,0,0,0,0,0,0],"split_type":[0,0,0,0,0,0,0,0,0,0,0,0,0,0,0,0,0,0,0,0,0,0,0,0,0,0,0,0,0,0,0,0,0,0,0,0,0,0,0,0,0,0,0,0,0,0,0,0,0,0,0,0,0,0,0,0,0,0,0,0,0,0,0],"sum_hessian":[5.785199E6,4.541925E6,1.243274E6,2.5999E6,1.942025E6,9.04142E5,3.39132E5,1.355921E6,1.243979E6,1.184586E6,7.57439E5,6.86491E5,2.17651E5,2.48824E5,9.0308E4,4.96904E5,8.59017E5,8.48139E5,3.9584E5,2.7368E5,9.10906E5,4.04136E5,3.53303E5,2.88294E5,3.98197E5,3.4102E4,1.83549E5,1.59411E5,8.9413E4,6.7721E4,2.2587E4,4.31857E5,6.5047E4,8.39549E5,1.9468E4,1.00113E5,7.48026E5,3.59177E5,3.6663E4,2.3874E4,2.49806E5,3.396E5,5.71306E5,3.97618E5,6.518E3,3.29028E5,2.4275E4,1.00886E5,1.87408E5,1.73454E5,2.24743E5,3.3576E4,5.26E2,9.3387E4,9.0162E4,3.4762E4,1.24649E5,7.291E3,8.2122E4,2.0666E4,4.7055E4,1.6038E4,6.549E3],"tree_param":{"num_deleted":"0","num_feature":"125","num_nodes":"63","size_leaf_vector":"1"}},{"base_weights":[5.349122E-2,1.6299976E2,-1.30163145E1,3.1237943E2,1.2321786E2,5.888994E1,-3.6654263E1,3.7493216E2,2.4984364E2,1.8517139E2,8.472649E1,1.1209768E2,3.38081E1,-5.163644E1,-8.779705E-1,5.263186E2,3.6029968E2,3.7188544E2,2.3662184E2,2.4959923E2,1.6473755E2,1.2346031E2,4.9667397E1,6.879687E1,1.5384824E2,1.2359494E0,6.567835E1,-2.5146654E1,-5.9255486E1,3.550192E1,-1.9407682E1,3.5917685E0,9.524853E0,4.826888E0,6.291266E0,5.080052E0,7.8906736E0,4.2863064E0,3.3612363E0,3.2787511E0,4.857669E0,2.1297946E0,3.1454453E0,2.321793E0,1.3174771E0,1.1328177E0,-2.2679642E-2,1.6937466E0,8.229601E-1,3.2589853E0,2.0613756E0,4.1331095E-1,-2.8271937E-1,1.6748466E0,5.415685E-1,-3.774459E-3,-6.8822336E-1,-7.3704535E-1,-1.1083881E0,3.648265E-1,1.8215711E0,3.953744E-2,-6.604823E-1],"categories":[],"categories_nodes":[],"categories_segments":[],"categories_sizes":[],"default_left":[0,0,0,0,0,0,0,0,0,0,0,0,0,0,0,0,0,0,0,0,0,0,0,0,0,0,0,0,0,0,0,0,0,0,0,0,0,0,0,0,0,0,0,0,0,0,0,0,0,0,0,0,0,0,0,0,0,0,0,0,0,0,0],"id":21,"left_children":[1,3,5,7,9,11,13,15,17,19,21,23,25,27,29,31,33,35,37,39,41,43,45,47,49,51,53,55,57,59,61,-1,-1,-1,-1,-1,-1,-1,-1,-1,-1,-1,-1,-1,-1,-1,-1,-1,-1,-1,-1,-1,-1,-1,-1,-1,-1,-1,-1,-1,-1,-1,-1],"loss_changes":[1.2320279E10,2.5526303E9,9.102813E9,3.5320013E8,8.089078E8,1.7682232E9,2.1603876E9,9.966387E7,7.273267E7,1.7105562E8,2.84122E8,7.6737126E8,9.3477875E8,5.7335706E8,8.019724E8,7.47017E7,7.210291E7,2.9322496E7,3.3149952E7,7.419136E7,9.669043E7,8.336755E7,1.1381754E8,1.3408256E8,2.719483E8,2.0223437E8,5.5389286E8,2.7439597E8,2.7870566E8,4.009389E8,3.682412E8,0E0,0E0,0E0,0E0,0E0,0E0,0E0,0E0,0E0,0E0,0E0,0E0,0E0,0E0,0E0,0E0,0E0,0E0,0E0,0E0,0E0,0E0,0E0,0E0,0E0,0E0,0E0,0E0,0E0,0E0,0E0,0E0],"parents":[2147483647,0,0,1,1,2,2,3,3,4,4,5,5,6,6,7,7,8,8,9,9,10,10,11,11,12,12,13,13,14,14,15,15,16,16,17,17,18,18,19,19,20,20,21,21,22,22,23,23,24,24,25,25,26,26,27,27,28,28,29,29,30,30],"right_children":[2,4,6,8,10,12,14,16,18,20,22,24,26,28,30,32,34,36,38,40,42,44,46,48,50,52,54,56,58,60,62,-1,-1,-1,-1,-1,-1,-1,-1,-1,-1,-1,-1,-1,-1,-1,-1,-1,-1,-1,-1,-1,-1,-1,-1,-1,-1,-1,-1,-1,-1,-1,-1],"split_conditions":[-3.2134166E0,-6.19925E0,-4.6531168E2,-7.878667E0,-4.19475E2,-5.676667E2,5.4600616E0,-5.5642303E2,-5.15129E2,-5.432833E2,-4.1362915E0,4.794496E0,4.833432E0,-1.130125E0,-2.93E-1,-6.51E0,-4.114865E2,3.7348332E0,-6.890333E0,7.4267693E0,7.0317907E0,-3.4243335E2,-3.3523334E2,-6.333426E2,-6.333426E2,-4.0579167E-1,1.2570834E-1,-3.7677335E2,-3.7829166E2,8.916655E0,-3.7984668E2,3.5917685E0,9.524853E0,4.826888E0,6.291266E0,5.080052E0,7.8906736E0,4.2863064E0,3.3612363E0,3.2787511E0,4.857669E0,2.1297946E0,3.1454453E0,2.321793E0,1.3174771E0,1.1328177E0,-2.2679642E-2,1.6937466E0,8.229601E-1,3.2589853E0,2.0613756E0,4.1331095E-1,-2.8271937E-1,1.6748466E0,5.415685E-1,-3.774459E-3,-6.8822336E-1,-7.3704535E-1,-1.1083881E0,3.648265E-1,1.8215711E0,3.953744E-2,-6.604823E-1],"split_indices":[14,14,17,14,17,17,38,17,18,17,14,38,38,14,14,5,17,4,14,38,38,17,17,17,17,14,14,17,17,38,17,0,0,0,0,0,0,0,0,0,0,0,0,0,0,0,0,0,0,0,0,0,0,0,0,0,0,0,0,0,0,0,0],"split_type":[0,0,0,0,0,0,0,0,0,0,0,0,0,0,0,0,0,0,0,0,0,0,0,0,0,0,0,0,0,0,0,0,0,0,0,0,0,0,0,0,0,0,0,0,0,0,0,0,0,0,0,0,0,0,0,0,0,0,0,0,0,0,0],"sum_hessian":[5.785044E6,4.29558E5,5.355486E6,9.0336E4,3.39222E5,1.324964E6,4.030522E6,4.5157E4,4.5179E4,1.2999E5,2.09232E5,4.2448E5,9.00484E5,2.840848E6,1.189674E6,3.974E3,4.1183E4,4.411E3,4.0768E4,3.1295E4,9.8695E4,9.9404E4,1.09828E5,2.08374E5,2.16106E5,4.45339E5,4.55145E5,6.34575E5,2.206273E6,4.01465E5,7.88209E5,6.73E2,3.301E3,1.2864E4,2.8319E4,2.938E3,1.473E3,2.0715E4,2.0053E4,1.618E4,1.5115E4,4.645E4,5.2245E4,6.7463E4,3.1941E4,7.8596E4,3.1232E4,6.9637E4,1.38737E5,7.755E4,1.38556E5,1.93696E5,2.51643E5,2.0961E5,2.45535E5,2.60562E5,3.74013E5,8.84683E5,1.32159E6,3.43584E5,5.7881E4,3.89845E5,3.98364E5],"tree_param":{"num_deleted":"0","num_feature":"125","num_nodes":"63","size_leaf_vector":"1"}},{"base_weights":[4.931845E-3,-2.9436016E1,1.27488266E2,-5.3373478E1,9.564333E0,8.943341E1,2.1995049E2,-6.9602455E1,-3.6889854E1,-1.7225029E1,3.2162292E1,7.208993E1,1.411443E2,1.6982074E2,2.842163E2,-8.088641E1,-6.1074673E1,-4.973293E1,-2.193019E1,-2.5574074E1,4.603875E0,2.1120207E1,6.8743E1,5.3234947E1,9.500037E1,1.10066574E2,1.761593E2,1.4510197E2,2.0786476E2,2.6382648E2,4.1812296E2,-1.4493928E0,-1.2323382E0,-1.1151633E0,-8.013938E-1,-9.500649E-1,-6.926059E-1,-5.574637E-1,-1.5903015E-1,-6.9308054E-1,-2.8742486E-1,-1.1776392E-1,2.5055245E-1,-2.9447556E-3,5.064308E-1,7.9296863E-1,1.7815057E0,4.3225247E-1,1.0383431E0,9.326783E-1,1.7296373E0,1.6018763E0,2.8437624E0,2.6070747E0,3.6380808E0,1.3326901E0,2.437422E0,2.9343853E0,3.8551426E0,6.03931E0,4.0802083E0,8.399995E0,6.192137E0],"categories":[],"categories_nodes":[],"categories_segments":[],"categories_sizes":[],"default_left":[0,0,0,0,0,0,0,0,0,0,0,0,0,0,0,0,0,0,0,0,0,0,0,0,0,0,0,0,0,0,0,0,0,0,0,0,0,0,0,0,0,0,0,0,0,0,0,0,0,0,0,0,0,0,0,0,0,0,0,0,0,0,0],"id":22,"left_children":[1,3,5,7,9,11,13,15,17,19,21,23,25,27,29,31,33,35,37,39,41,43,45,47,49,51,53,55,57,59,61,-1,-1,-1,-1,-1,-1,-1,-1,-1,-1,-1,-1,-1,-1,-1,-1,-1,-1,-1,-1,-1,-1,-1,-1,-1,-1,-1,-1,-1,-1,-1,-1],"loss_changes":[2.1711776E10,4.387328E9,3.818756E9,7.790244E8,1.0820622E9,6.89535E8,1.0193582E9,1.4119424E8,2.775717E8,1.4905418E8,3.916224E8,2.4870605E8,2.1009562E8,1.6712294E8,3.7838848E8,2.6026752E7,7.545318E7,4.8363264E7,1.0099318E8,7.973754E7,2.921044E7,1.6111594E8,1.8345664E8,9.128602E7,1.1487258E8,7.467392E7,6.6683904E7,3.6705024E7,5.628749E7,1.5537869E8,6.545869E7,0E0,0E0,0E0,0E0,0E0,0E0,0E0,0E0,0E0,0E0,0E0,0E0,0E0,0E0,0E0,0E0,0E0,0E0,0E0,0E0,0E0,0E0,0E0,0E0,0E0,0E0,0E0,0E0,0E0,0E0,0E0,0E0],"parents":[2147483647,0,0,1,1,2,2,3,3,4,4,5,5,6,6,7,7,8,8,9,9,10,10,11,11,12,12,13,13,14,14,15,15,16,16,17,17,18,18,19,19,20,20,21,21,22,22,23,23,24,24,25,25,26,26,27,27,28,28,29,29,30,30],"right_children":[2,4,6,8,10,12,14,16,18,20,22,24,26,28,30,32,34,36,38,40,42,44,46,48,50,52,54,56,58,60,62,-1,-1,-1,-1,-1,-1,-1,-1,-1,-1,-1,-1,-1,-1,-1,-1,-1,-1,-1,-1,-1,-1,-1,-1,-1,-1,-1,-1,-1,-1,-1,-1],"split_conditions":[2.6933334E2,8.2E1,5.2798334E2,4.23E1,4.5605288E0,7.4025793E0,8.244638E0,2.7066668E1,4.456668E0,1.772E2,7.4653025E0,3.602E2,3.904E2,6.61E2,1.00493335E3,1.8366667E1,4.491012E0,3.3089783E0,6.2333332E1,3.2533708E0,1.998E2,1.1898333E2,2.03E2,4.3068743E0,4.389665E0,1.2206166E1,1.1071819E1,4.1623187E0,7.2675E2,2.8191667E0,4.509E0,-1.4493928E0,-1.2323382E0,-1.1151633E0,-8.013938E-1,-9.500649E-1,-6.926059E-1,-5.574637E-1,-1.5903015E-1,-6.9308054E-1,-2.8742486E-1,-1.1776392E-1,2.5055245E-1,-2.9447556E-3,5.064308E-1,7.9296863E-1,1.7815057E0,4.3225247E-1,1.0383431E0,9.326783E-1,1.7296373E0,1.6018763E0,2.8437624E0,2.6070747E0,3.6380808E0,1.3326901E0,2.437422E0,2.9343853E0,3.8551426E0,6.03931E0,4.0802083E0,8.399995E0,6.192137E0],"split_indices":[43,40,43,42,39,39,39,42,39,43,39,40,40,40,43,42,39,39,43,39,40,43,40,39,39,39,39,39,43,32,32,0,0,0,0,0,0,0,0,0,0,0,0,0,0,0,0,0,0,0,0,0,0,0,0,0,0,0,0,0,0,0,0],"split_type":[0,0,0,0,0,0,0,0,0,0,0,0,0,0,0,0,0,0,0,0,0,0,0,0,0,0,0,0,0,0,0,0,0,0,0,0,0,0,0,0,0,0,0,0,0,0,0,0,0,0,0,0,0,0,0,0,0,0,0,0,0,0,0],"sum_hessian":[5.78482E6,4.699517E6,1.085303E6,2.912125E6,1.787392E6,7.68864E5,3.16439E5,1.467394E6,1.444731E6,8.1785E5,9.69542E5,5.75762E5,1.93102E5,1.77775E5,1.38664E5,6.31619E5,8.35775E5,7.77356E5,6.67375E5,5.91583E5,2.26267E5,7.44741E5,2.24801E5,3.15838E5,2.59924E5,1.02307E5,9.0795E4,1.07765E5,7.001E4,1.20345E5,1.8319E4,2.25228E5,4.06391E5,4.99561E5,3.36214E5,3.40235E5,4.37121E5,3.28417E5,3.38958E5,1.84739E5,4.06844E5,1.08125E5,1.18142E5,2.4043E5,5.04311E5,1.52001E5,7.28E4,9.1896E4,2.23942E5,6.2413E4,1.97511E5,8.7453E4,1.4854E4,6.9194E4,2.1601E4,8.575E3,9.919E4,3.7213E4,3.2797E4,1.1774E4,1.08571E5,4.791E3,1.3528E4],"tree_param":{"num_deleted":"0","num_feature":"125","num_nodes":"63","size_leaf_vector":"1"}},{"base_weights":[1.064424E-2,-3.216965E1,1.1753748E2,-5.6411255E1,3.0621558E-1,7.911201E1,2.1110414E2,-6.981639E1,-4.1793766E1,-2.2860155E1,2.1046642E1,6.607799E1,1.3180717E2,3.5105307E2,1.8073006E2,-8.157541E1,-6.3018856E1,-4.4388412E1,9.695179E0,3.1583523E1,-3.0319878E1,5.2405273E1,5.229222E0,9.577285E1,4.397009E1,1.8667429E2,1.0887245E2,3.2207416E2,4.6075107E2,1.605365E2,2.2540079E2,-1.3320378E0,-3.2255998E-1,-1.0417112E0,-9.929525E-2,-3.9618698E-1,-8.4018487E-1,1.1291873E0,-3.0151612E-1,1.4988503E0,3.5783586E-1,-1.8603042E-1,-6.221309E-1,1.4117128E0,6.733218E-1,1.0782361E-2,1.6325331E0,9.3939453E-1,1.8689642E0,1.4573736E0,4.695765E-1,2.8971095E0,5.3105416E0,2.1426256E0,5.698564E-1,6.7961555E0,4.7829413E0,8.097105E0,5.769856E0,3.2557318E0,2.399302E0,4.272394E0,2.9774327E0],"categories":[],"categories_nodes":[],"categories_segments":[],"categories_sizes":[],"default_left":[0,0,0,0,0,0,0,0,0,0,0,0,0,0,0,0,0,0,0,0,0,0,0,0,0,0,0,0,0,0,0,0,0,0,0,0,0,0,0,0,0,0,0,0,0,0,0,0,0,0,0,0,0,0,0,0,0,0,0,0,0,0,0],"id":23,"left_children":[1,3,5,7,9,11,13,15,17,19,21,23,25,27,29,31,33,35,37,39,41,43,45,47,49,51,53,55,57,59,61,-1,-1,-1,-1,-1,-1,-1,-1,-1,-1,-1,-1,-1,-1,-1,-1,-1,-1,-1,-1,-1,-1,-1,-1,-1,-1,-1,-1,-1,-1,-1,-1],"loss_changes":[2.1879806E10,3.5754696E9,4.470965E9,5.0955827E8,9.326788E8,6.0544614E8,1.5387628E9,1.0841805E8,1.6619315E8,3.724043E8,5.0801315E8,4.6395366E8,2.1992806E8,2.0493568E8,2.6825933E8,2.1073408E7,6.4285696E7,1.7692672E8,1.0146873E8,6.3905744E7,1.2302906E8,1.2924557E8,2.9697696E8,2.237632E8,2.7917818E8,5.635136E7,2.1299955E8,1.32864E8,5.5002624E7,1.0258022E8,1.4775245E8,0E0,0E0,0E0,0E0,0E0,0E0,0E0,0E0,0E0,0E0,0E0,0E0,0E0,0E0,0E0,0E0,0E0,0E0,0E0,0E0,0E0,0E0,0E0,0E0,0E0,0E0,0E0,0E0,0E0,0E0,0E0,0E0],"parents":[2147483647,0,0,1,1,2,2,3,3,4,4,5,5,6,6,7,7,8,8,9,9,10,10,11,11,12,12,13,13,14,14,15,15,16,16,17,17,18,18,19,19,20,20,21,21,22,22,23,23,24,24,25,25,26,26,27,27,28,28,29,29,30,30],"right_children":[2,4,6,8,10,12,14,16,18,20,22,24,26,28,30,32,34,36,38,40,42,44,46,48,50,52,54,56,58,60,62,-1,-1,-1,-1,-1,-1,-1,-1,-1,-1,-1,-1,-1,-1,-1,-1,-1,-1,-1,-1,-1,-1,-1,-1,-1,-1,-1,-1,-1,-1,-1,-1],"split_conditions":[2.4116667E2,7.7808334E1,4.8365E2,4.3641666E1,4.5605288E0,7.826736E0,-6.6126666E0,2.6366667E1,1.4962931E1,-5.399389E2,-4.4712E2,-4.9466998E2,-3.9103334E0,9.5749164E2,6.62225E2,5.8946667E0,1.7686E1,-4.2159E2,-3.548E2,-6.3991833E2,-4.3365E2,-5.56655E2,2.0462334E1,4.3236356E0,-3.261E0,9.408667E0,-3.8539E2,3.917E0,9.587E0,-3.9103334E0,-5.2583E2,-1.3320378E0,-3.2255998E-1,-1.0417112E0,-9.929525E-2,