{"learner":{"attributes":{},"feature_names":["BX_GSM_mean_5","BX_GSM_mean_10","BX_GSM_mean_30","BX_GSM_mean_60","BX_GSM_mean_120","BY_GSM_mean_5","BY_GSM_mean_10","BY_GSM_mean_30","BY_GSM_mean_60","BY_GSM_mean_120","BZ_GSM_mean_5","BZ_GSM_mean_10","BZ_GSM_mean_30","BZ_GSM_mean_60","BZ_GSM_mean_120","Vx_mean_5","Vx_mean_10","Vx_mean_30","Vx_mean_60","Vx_mean_120","Vy_mean_5","Vy_mean_10","Vy_mean_30","Vy_mean_60","Vy_mean_120","Vz_mean_5","Vz_mean_10","Vz_mean_30","Vz_mean_60","Vz_mean_120","n_mean_5","n_mean_10","n_mean_30","n_mean_60","n_mean_120","Bmag_mean_5","Bmag_mean_10","Bmag_mean_30","Bmag_mean_60","Bmag_mean_120","AE_INDEX_mean_5","AE_INDEX_mean_10","AE_INDEX_mean_30","AE_INDEX_mean_60","AE_INDEX_mean_120"],"feature_types":[],"gradient_booster":{"model":{"cats":{"enc":[],"feature_segments":[],"sorted_idx":[]},"gbtree_model_param":{"num_parallel_tree":"1","num_trees":"1906"},"iteration_indptr":[0,1,2,3,4,5,6,7,8,9,10,11,12,13,14,15,16,17,18,19,20,21,22,23,24,25,26,27,28,29,30,31,32,33,34,35,36,37,38,39,40,41,42,43,44,45,46,47,48,49,50,51,52,53,54,55,56,57,58,59,60,61,62,63,64,65,66,67,68,69,70,71,72,73,74,75,76,77,78,79,80,81,82,83,84,85,86,87,88,89,90,91,92,93,94,95,96,97,98,99,100,101,102,103,104,105,106,107,108,109,110,111,112,113,114,115,116,117,118,119,120,121,122,123,124,125,126,127,128,129,130,131,132,133,134,135,136,137,138,139,140,141,142,143,144,145,146,147,148,149,150,151,152,153,154,155,156,157,158,159,160,161,162,163,164,165,166,167,168,169,170,171,172,173,174,175,176,177,178,179,180,181,182,183,184,185,186,187,188,189,190,191,192,193,194,195,196,197,198,199,200,201,202,203,204,205,206,207,208,209,210,211,212,213,214,215,216,217,218,219,220,221,222,223,224,225,226,227,228,229,230,231,232,233,234,235,236,237,238,239,240,241,242,243,244,245,246,247,248,249,250,251,252,253,254,255,256,257,258,259,260,261,262,263,264,265,266,267,268,269,270,271,272,273,274,275,276,277,278,279,280,281,282,283,284,285,286,287,288,289,290,291,292,293,294,295,296,297,298,299,300,301,302,303,304,305,306,307,308,309,310,311,312,313,314,315,316,317,318,319,320,321,322,323,324,325,326,327,328,329,330,331,332,333,334,335,336,337,338,339,340,341,342,343,344,345,346,347,348,349,350,351,352,353,354,355,356,357,358,359,360,361,362,363,364,365,366,367,368,369,370,371,372,373,374,375,376,377,378,379,380,381,382,383,384,385,386,387,388,389,390,391,392,393,394,395,396,397,398,399,400,401,402,403,404,405,406,407,408,409,410,411,412,413,414,415,416,417,418,419,420,421,422,423,424,425,426,427,428,429,430,431,432,433,434,435,436,437,438,439,440,441,442,443,444,445,446,447,448,449,450,451,452,453,454,455,456,457,458,459,460,461,462,463,464,465,466,467,468,469,470,471,472,473,474,475,476,477,478,479,480,481,482,483,484,485,486,487,488,489,490,491,492,493,494,495,496,497,498,499,500,501,502,503,504,505,506,507,508,509,510,511,512,513,514,515,516,517,518,519,520,521,522,523,524,525,526,527,528,529,530,531,532,533,534,535,536,537,538,539,540,541,542,543,544,545,546,547,548,549,550,551,552,553,554,555,556,557,558,559,560,561,562,563,564,565,566,567,568,569,570,571,572,573,574,575,576,577,578,579,580,581,582,583,584,585,586,587,588,589,590,591,592,593,594,595,596,597,598,599,600,601,602,603,604,605,606,607,608,609,610,611,612,613,614,615,616,617,618,619,620,621,622,623,624,625,626,627,628,629,630,631,632,633,634,635,636,637,638,639,640,641,642,643,644,645,646,647,648,649,650,651,652,653,654,655,656,657,658,659,660,661,662,663,664,665,666,667,668,669,670,671,672,673,674,675,676,677,678,679,680,681,682,683,684,685,686,687,688,689,690,691,692,693,694,695,696,697,698,699,700,701,702,703,704,705,706,707,708,709,710,711,712,713,714,715,716,717,718,719,720,721,722,723,724,725,726,727,728,729,730,731,732,733,734,735,736,737,738,739,740,741,742,743,744,745,746,747,748,749,750,751,752,753,754,755,756,757,758,759,760,761,762,763,764,765,766,767,768,769,770,771,772,773,774,775,776,777,778,779,780,781,782,783,784,785,786,787,788,789,790,791,792,793,794,795,796,797,798,799,800,801,802,803,804,805,806,807,808,809,810,811,812,813,814,815,816,817,818,819,820,821,822,823,824,825,826,827,828,829,830,831,832,833,834,835,836,837,838,839,840,841,842,843,844,845,846,847,848,849,850,851,852,853,854,855,856,857,858,859,860,861,862,863,864,865,866,867,868,869,870,871,872,873,874,875,876,877,878,879,880,881,882,883,884,885,886,887,888,889,890,891,892,893,894,895,896,897,898,899,900,901,902,903,904,905,906,907,908,909,910,911,912,913,914,915,916,917,918,919,920,921,922,923,924,925,926,927,928,929,930,931,932,933,934,935,936,937,938,939,940,941,942,943,944,945,946,947,948,949,950,951,952,953,954,955,956,957,958,959,960,961,962,963,964,965,966,967,968,969,970,971,972,973,974,975,976,977,978,979,980,981,982,983,984,985,986,987,988,989,990,991,992,993,994,995,996,997,998,999,1000,1001,1002,1003,1004,1005,1006,1007,1008,1009,1010,1011,1012,1013,1014,1015,1016,1017,1018,1019,1020,1021,1022,1023,1024,1025,1026,1027,1028,1029,1030,1031,1032,1033,1034,1035,1036,1037,1038,1039,1040,1041,1042,1043,1044,1045,1046,1047,1048,1049,1050,1051,1052,1053,1054,1055,1056,1057,1058,1059,1060,1061,1062,1063,1064,1065,1066,1067,1068,1069,1070,1071,1072,1073,1074,1075,1076,1077,1078,1079,1080,1081,1082,1083,1084,1085,1086,1087,1088,1089,1090,1091,1092,1093,1094,1095,1096,1097,1098,1099,1100,1101,1102,1103,1104,1105,1106,1107,1108,1109,1110,1111,1112,1113,1114,1115,1116,1117,1118,1119,1120,1121,1122,1123,1124,1125,1126,1127,1128,1129,1130,1131,1132,1133,1134,1135,1136,1137,1138,1139,1140,1141,1142,1143,1144,1145,1146,1147,1148,1149,1150,1151,1152,1153,1154,1155,1156,1157,1158,1159,1160,1161,1162,1163,1164,1165,1166,1167,1168,1169,1170,1171,1172,1173,1174,1175,1176,1177,1178,1179,1180,1181,1182,1183,1184,1185,1186,1187,1188,1189,1190,1191,1192,1193,1194,1195,1196,1197,1198,1199,1200,1201,1202,1203,1204,1205,1206,1207,1208,1209,1210,1211,1212,1213,1214,1215,1216,1217,1218,1219,1220,1221,1222,1223,1224,1225,1226,1227,1228,1229,1230,1231,1232,1233,1234,1235,1236,1237,1238,1239,1240,1241,1242,1243,1244,1245,1246,1247,1248,1249,1250,1251,1252,1253,1254,1255,1256,1257,1258,1259,1260,1261,1262,1263,1264,1265,1266,1267,1268,1269,1270,1271,1272,1273,1274,1275,1276,1277,1278,1279,1280,1281,1282,1283,1284,1285,1286,1287,1288,1289,1290,1291,1292,1293,1294,1295,1296,1297,1298,1299,1300,1301,1302,1303,1304,1305,1306,1307,1308,1309,1310,1311,1312,1313,1314,1315,1316,1317,1318,1319,1320,1321,1322,1323,1324,1325,1326,1327,1328,1329,1330,1331,1332,1333,1334,1335,1336,1337,1338,1339,1340,1341,1342,1343,1344,1345,1346,1347,1348,1349,1350,1351,1352,1353,1354,1355,1356,1357,1358,1359,1360,1361,1362,1363,1364,1365,1366,1367,1368,1369,1370,1371,1372,1373,1374,1375,1376,1377,1378,1379,1380,1381,1382,1383,1384,1385,1386,1387,1388,1389,1390,1391,1392,1393,1394,1395,1396,1397,1398,1399,1400,1401,1402,1403,1404,1405,1406,1407,1408,1409,1410,1411,1412,1413,1414,1415,1416,1417,1418,1419,1420,1421,1422,1423,1424,1425,1426,1427,1428,1429,1430,1431,1432,1433,1434,1435,1436,1437,1438,1439,1440,1441,1442,1443,1444,1445,1446,1447,1448,1449,1450,1451,1452,1453,1454,1455,1456,1457,1458,1459,1460,1461,1462,1463,1464,1465,1466,1467,1468,1469,1470,1471,1472,1473,1474,1475,1476,1477,1478,1479,1480,1481,1482,1483,1484,1485,1486,1487,1488,1489,1490,1491,1492,1493,1494,1495,1496,1497,1498,1499,1500,1501,1502,1503,1504,1505,1506,1507,1508,1509,1510,1511,1512,1513,1514,1515,1516,1517,1518,1519,1520,1521,1522,1523,1524,1525,1526,1527,1528,1529,1530,1531,1532,1533,1534,1535,1536,1537,1538,1539,1540,1541,1542,1543,1544,1545,1546,1547,1548,1549,1550,1551,1552,1553,1554,1555,1556,1557,1558,1559,1560,1561,1562,1563,1564,1565,1566,1567,1568,1569,1570,1571,1572,1573,1574,1575,1576,1577,1578,1579,1580,1581,1582,1583,1584,1585,1586,1587,1588,1589,1590,1591,1592,1593,1594,1595,1596,1597,1598,1599,1600,1601,1602,1603,1604,1605,1606,1607,1608,1609,1610,1611,1612,1613,1614,1615,1616,1617,1618,1619,1620,1621,1622,1623,1624,1625,1626,1627,1628,1629,1630,1631,1632,1633,1634,1635,1636,1637,1638,1639,1640,1641,1642,1643,1644,1645,1646,1647,1648,1649,1650,1651,1652,1653,1654,1655,1656,1657,1658,1659,1660,1661,1662,1663,1664,1665,1666,1667,1668,1669,1670,1671,1672,1673,1674,1675,1676,1677,1678,1679,1680,1681,1682,1683,1684,1685,1686,1687,1688,1689,1690,1691,1692,1693,1694,1695,1696,1697,1698,1699,1700,1701,1702,1703,1704,1705,1706,1707,1708,1709,1710,1711,1712,1713,1714,1715,1716,1717,1718,1719,1720,1721,1722,1723,1724,1725,1726,1727,1728,1729,1730,1731,1732,1733,1734,1735,1736,1737,1738,1739,1740,1741,1742,1743,1744,1745,1746,1747,1748,1749,1750,1751,1752,1753,1754,1755,1756,1757,1758,1759,1760,1761,1762,1763,1764,1765,1766,1767,1768,1769,1770,1771,1772,1773,1774,1775,1776,1777,1778,1779,1780,1781,1782,1783,1784,1785,1786,1787,1788,1789,1790,1791,1792,1793,1794,1795,1796,1797,1798,1799,1800,1801,1802,1803,1804,1805,1806,1807,1808,1809,1810,1811,1812,1813,1814,1815,1816,1817,1818,1819,1820,1821,1822,1823,1824,1825,1826,1827,1828,1829,1830,1831,1832,1833,1834,1835,1836,1837,1838,1839,1840,1841,1842,1843,1844,1845,1846,1847,1848,1849,1850,1851,1852,1853,1854,1855,1856,1857,1858,1859,1860,1861,1862,1863,1864,1865,1866,1867,1868,1869,1870,1871,1872,1873,1874,1875,1876,1877,1878,1879,1880,1881,1882,1883,1884,1885,1886,1887,1888,1889,1890,1891,1892,1893,1894,1895,1896,1897,1898,1899,1900,1901,1902,1903,1904,1905,1906],"tree_info":[0,0,0,0,0,0,0,0,0,0,0,0,0,0,0,0,0,0,0,0,0,0,0,0,0,0,0,0,0,0,0,0,0,0,0,0,0,0,0,0,0,0,0,0,0,0,0,0,0,0,0,0,0,0,0,0,0,0,0,0,0,0,0,0,0,0,0,0,0,0,0,0,0,0,0,0,0,0,0,0,0,0,0,0,0,0,0,0,0,0,0,0,0,0,0,0,0,0,0,0,0,0,0,0,0,0,0,0,0,0,0,0,0,0,0,0,0,0,0,0,0,0,0,0,0,0,0,0,0,0,0,0,0,0,0,0,0,0,0,0,0,0,0,0,0,0,0,0,0,0,0,0,0,0,0,0,0,0,0,0,0,0,0,0,0,0,0,0,0,0,0,0,0,0,0,0,0,0,0,0,0,0,0,0,0,0,0,0,0,0,0,0,0,0,0,0,0,0,0,0,0,0,0,0,0,0,0,0,0,0,0,0,0,0,0,0,0,0,0,0,0,0,0,0,0,0,0,0,0,0,0,0,0,0,0,0,0,0,0,0,0,0,0,0,0,0,0,0,0,0,0,0,0,0,0,0,0,0,0,0,0,0,0,0,0,0,0,0,0,0,0,0,0,0,0,0,0,0,0,0,0,0,0,0,0,0,0,0,0,0,0,0,0,0,0,0,0,0,0,0,0,0,0,0,0,0,0,0,0,0,0,0,0,0,0,0,0,0,0,0,0,0,0,0,0,0,0,0,0,0,0,0,0,0,0,0,0,0,0,0,0,0,0,0,0,0,0,0,0,0,0,0,0,0,0,0,0,0,0,0,0,0,0,0,0,0,0,0,0,0,0,0,0,0,0,0,0,0,0,0,0,0,0,0,0,0,0,0,0,0,0,0,0,0,0,0,0,0,0,0,0,0,0,0,0,0,0,0,0,0,0,0,0,0,0,0,0,0,0,0,0,0,0,0,0,0,0,0,0,0,0,0,0,0,0,0,0,0,0,0,0,0,0,0,0,0,0,0,0,0,0,0,0,0,0,0,0,0,0,0,0,0,0,0,0,0,0,0,0,0,0,0,0,0,0,0,0,0,0,0,0,0,0,0,0,0,0,0,0,0,0,0,0,0,0,0,0,0,0,0,0,0,0,0,0,0,0,0,0,0,0,0,0,0,0,0,0,0,0,0,0,0,0,0,0,0,0,0,0,0,0,0,0,0,0,0,0,0,0,0,0,0,0,0,0,0,0,0,0,0,0,0,0,0,0,0,0,0,0,0,0,0,0,0,0,0,0,0,0,0,0,0,0,0,0,0,0,0,0,0,0,0,0,0,0,0,0,0,0,0,0,0,0,0,0,0,0,0,0,0,0,0,0,0,0,0,0,0,0,0,0,0,0,0,0,0,0,0,0,0,0,0,0,0,0,0,0,0,0,0,0,0,0,0,0,0,0,0,0,0,0,0,0,0,0,0,0,0,0,0,0,0,0,0,0,0,0,0,0,0,0,0,0,0,0,0,0,0,0,0,0,0,0,0,0,0,0,0,0,0,0,0,0,0,0,0,0,0,0,0,0,0,0,0,0,0,0,0,0,0,0,0,0,0,0,0,0,0,0,0,0,0,0,0,0,0,0,0,0,0,0,0,0,0,0,0,0,0,0,0,0,0,0,0,0,0,0,0,0,0,0,0,0,0,0,0,0,0,0,0,0,0,0,0,0,0,0,0,0,0,0,0,0,0,0,0,0,0,0,0,0,0,0,0,0,0,0,0,0,0,0,0,0,0,0,0,0,0,0,0,0,0,0,0,0,0,0,0,0,0,0,0,0,0,0,0,0,0,0,0,0,0,0,0,0,0,0,0,0,0,0,0,0,0,0,0,0,0,0,0,0,0,0,0,0,0,0,0,0,0,0,0,0,0,0,0,0,0,0,0,0,0,0,0,0,0,0,0,0,0,0,0,0,0,0,0,0,0,0,0,0,0,0,0,0,0,0,0,0,0,0,0,0,0,0,0,0,0,0,0,0,0,0,0,0,0,0,0,0,0,0,0,0,0,0,0,0,0,0,0,0,0,0,0,0,0,0,0,0,0,0,0,0,0,0,0,0,0,0,0,0,0,0,0,0,0,0,0,0,0,0,0,0,0,0,0,0,0,0,0,0,0,0,0,0,0,0,0,0,0,0,0,0,0,0,0,0,0,0,0,0,0,0,0,0,0,0,0,0,0,0,0,0,0,0,0,0,0,0,0,0,0,0,0,0,0,0,0,0,0,0,0,0,0,0,0,0,0,0,0,0,0,0,0,0,0,0,0,0,0,0,0,0,0,0,0,0,0,0,0,0,0,0,0,0,0,0,0,0,0,0,0,0,0,0,0,0,0,0,0,0,0,0,0,0,0,0,0,0,0,0,0,0,0,0,0,0,0,0,0,0,0,0,0,0,0,0,0,0,0,0,0,0,0,0,0,0,0,0,0,0,0,0,0,0,0,0,0,0,0,0,0,0,0,0,0,0,0,0,0,0,0,0,0,0,0,0,0,0,0,0,0,0,0,0,0,0,0,0,0,0,0,0,0,0,0,0,0,0,0,0,0,0,0,0,0,0,0,0,0,0,0,0,0,0,0,0,0,0,0,0,0,0,0,0,0,0,0,0,0,0,0,0,0,0,0,0,0,0,0,0,0,0,0,0,0,0,0,0,0,0,0,0,0,0,0,0,0,0,0,0,0,0,0,0,0,0,0,0,0,0,0,0,0,0,0,0,0,0,0,0,0,0,0,0,0,0,0,0,0,0,0,0,0,0,0,0,0,0,0,0,0,0,0,0,0,0,0,0,0,0,0,0,0,0,0,0,0,0,0,0,0,0,0,0,0,0,0,0,0,0,0,0,0,0,0,0,0,0,0,0,0,0,0,0,0,0,0,0,0,0,0,0,0,0,0,0,0,0,0,0,0,0,0,0,0,0,0,0,0,0,0,0,0,0,0,0,0,0,0,0,0,0,0,0,0,0,0,0,0,0,0,0,0,0,0,0,0,0,0,0,0,0,0,0,0,0,0,0,0,0,0,0,0,0,0,0,0,0,0,0,0,0,0,0,0,0,0,0,0,0,0,0,0,0,0,0,0,0,0,0,0,0,0,0,0,0,0,0,0,0,0,0,0,0,0,0,0,0,0,0,0,0,0,0,0,0,0,0,0,0,0,0,0,0,0,0,0,0,0,0,0,0,0,0,0,0,0,0,0,0,0,0,0,0,0,0,0,0,0,0,0,0,0,0,0,0,0,0,0,0,0,0,0,0,0,0,0,0,0,0,0,0,0,0,0,0,0,0,0,0,0,0,0,0,0,0,0,0,0,0,0,0,0,0,0,0,0,0,0,0,0,0,0,0,0,0,0,0,0,0,0,0,0,0,0,0,0,0,0,0,0,0,0,0,0,0,0,0,0,0,0,0,0,0,0,0,0,0,0,0,0,0,0,0,0,0,0,0,0,0,0,0,0,0,0,0,0,0,0,0,0,0,0,0,0,0,0,0,0,0,0,0,0,0,0,0,0,0,0,0,0,0,0,0,0,0,0,0,0,0,0,0,0,0,0,0,0,0,0,0,0,0,0,0,0,0,0,0,0,0,0,0,0,0,0,0,0,0,0,0,0,0,0,0,0,0,0,0,0,0,0,0,0,0,0,0,0,0,0,0,0,0,0,0,0,0,0,0,0,0,0,0,0,0,0,0,0,0,0,0,0,0,0,0,0,0,0,0,0,0,0,0,0,0,0,0,0,0,0,0,0,0,0,0,0,0,0,0,0,0,0,0,0,0,0,0,0,0,0,0,0,0,0,0,0,0,0,0,0,0,0,0,0,0,0,0,0,0,0,0,0,0,0,0,0,0,0,0,0,0,0,0,0,0,0,0,0,0,0,0,0,0,0,0,0,0,0,0,0,0,0,0,0,0,0,0,0,0,0,0,0,0,0,0,0,0,0,0,0,0,0,0,0,0,0,0,0,0,0,0,0,0,0,0,0,0,0,0,0,0,0,0,0,0,0,0,0,0,0,0,0,0,0,0,0,0,0,0,0,0,0,0,0,0,0,0,0,0,0,0,0,0,0,0,0,0,0,0,0,0,0,0,0,0,0,0,0,0,0,0,0,0,0,0,0,0,0,0,0,0,0,0,0,0,0,0,0,0,0,0,0,0,0,0,0,0,0,0,0,0,0,0,0,0,0,0,0,0,0,0,0,0,0,0,0,0,0,0,0,0,0,0,0,0,0,0,0,0,0,0,0,0,0,0,0,0,0,0,0,0,0,0,0,0,0],"trees":[{"base_weights":[-1.3611616E-1,-5.2072117E1,1.985408E2,-9.034872E1,1.1631505E1,4.2146893E2,1.4552142E2,-6.2819695E-1,-2.707361E0,2.9691126E0,-2.5246215E-1,9.880818E0,1.628734E1,3.0538683E0,6.62104E0],"categories":[],"categories_nodes":[],"categories_segments":[],"categories_sizes":[],"default_left":[0,0,0,0,0,0,0,0,0,0,0,0,0,0,0],"id":0,"left_children":[1,3,5,7,9,11,13,-1,-1,-1,-1,-1,-1,-1,-1],"loss_changes":[2.7825211E10,5.212714E9,6.6052096E9,6.6398106E8,1.5895373E9,1.1589079E9,1.4894254E9,0E0,0E0,0E0,0E0,0E0,0E0,0E0,0E0],"parents":[2147483647,0,0,1,1,2,2,3,3,4,4,5,5,6,6],"right_children":[2,4,6,8,10,12,14,-1,-1,-1,-1,-1,-1,-1,-1],"split_conditions":[2.466E2,7.98E1,-4.74E0,-1.678E0,-2.5279999E0,6.931E2,4.878E2,-6.2819695E-1,-2.707361E0,2.9691126E0,-2.5246215E-1,9.880818E0,1.628734E1,3.0538683E0,6.62104E0],"split_indices":[40,40,10,10,10,43,40,0,0,0,0,0,0,0,0],"split_type":[0,0,0,0,0,0,0,0,0,0,0,0,0,0,0],"sum_hessian":[2.696637E6,2.137797E6,5.5884E5,1.33541E6,8.02387E5,1.07373E5,4.51467E5,1.30761E5,1.204649E6,1.43163E5,6.59224E5,7.7221E4,3.0152E4,3.2758E5,1.23887E5],"tree_param":{"num_deleted":"0","num_feature":"45","num_nodes":"15","size_leaf_vector":"1"}},{"base_weights":[-1.8444937E-1,-5.408851E1,1.800993E2,-9.173885E1,9.911684E-1,3.8931454E2,1.2795283E2,-6.3886654E-1,-2.7066991E0,2.484834E0,-5.0179935E-1,9.122756E0,1.5660128E1,2.4792168E0,5.803263E0],"categories":[],"categories_nodes":[],"categories_segments":[],"categories_sizes":[],"default_left":[0,0,0,0,0,0,0,0,0,0,0,0,0,0,0],"id":1,"left_children":[1,3,5,7,9,11,13,-1,-1,-1,-1,-1,-1,-1,-1],"loss_changes":[2.6217138E10,4.306852E9,6.774577E9,5.0265293E8,1.4280618E9,1.3092741E9,1.5584753E9,0E0,0E0,0E0,0E0,0E0,0E0,0E0,0E0],"parents":[2147483647,0,0,1,1,2,2,3,3,4,4,5,5,6,6],"right_children":[2,4,6,8,10,12,14,-1,-1,-1,-1,-1,-1,-1,-1],"split_conditions":[2.234E2,7.06E1,-4.466E0,-1.808E0,-2.4E0,6.931E2,4.342E2,-6.3886654E-1,-2.7066991E0,2.484834E0,-5.0179935E-1,9.122756E0,1.5660128E1,2.4792168E0,5.803263E0],"split_indices":[40,40,10,10,10,43,40,0,0,0,0,0,0,0,0],"split_type":[0,0,0,0,0,0,0,0,0,0,0,0,0,0,0],"sum_hessian":[2.697784E6,2.076823E6,6.20961E5,1.233589E6,8.43234E5,1.23893E5,4.97068E5,9.8076E4,1.135513E6,1.49431E5,6.93803E5,9.2319E4,3.1574E4,3.37564E5,1.59504E5],"tree_param":{"num_deleted":"0","num_feature":"45","num_nodes":"15","size_leaf_vector":"1"}},{"base_weights":[-1.9847704E-1,-4.806883E1,1.927019E2,-8.464256E1,1.3987807E1,4.2041168E2,1.4552432E2,-2.9024103E0,-1.6688725E0,3.3519018E0,-8.852165E-2,9.848991E0,1.5764693E1,2.9498906E0,6.2690244E0],"categories":[],"categories_nodes":[],"categories_segments":[],"categories_sizes":[],"default_left":[0,0,0,0,0,0,0,0,0,0,0,0,0,0,0],"id":2,"left_children":[1,3,5,7,9,11,13,-1,-1,-1,-1,-1,-1,-1,-1],"loss_changes":[2.4907682E10,4.904791E9,5.7612063E9,6.671288E8,1.4727964E9,8.882852E8,1.4008381E9,0E0,0E0,0E0,0E0,0E0,0E0,0E0,0E0],"parents":[2147483647,0,0,1,1,2,2,3,3,4,4,5,5,6,6],"right_children":[2,4,6,8,10,12,14,-1,-1,-1,-1,-1,-1,-1,-1],"split_conditions":[2.55E2,8.2E1,-5.07E0,4.36E1,-2.9060001E0,6.931E2,4.33275E2,-2.9024103E0,-1.6688725E0,3.3519018E0,-8.852165E-2,9.848991E0,1.5764693E1,2.9498906E0,6.2690244E0],"split_indices":[40,40,10,40,10,43,44,0,0,0,0,0,0,0,0],"split_type":[0,0,0,0,0,0,0,0,0,0,0,0,0,0,0],"sum_hessian":[2.697327E6,2.161041E6,5.36286E5,1.359692E6,8.01349E5,9.204E4,4.44246E5,7.45983E5,6.13709E5,1.10907E5,6.90442E5,6.401E4,2.803E4,2.99303E5,1.44943E5],"tree_param":{"num_deleted":"0","num_feature":"45","num_nodes":"15","size_leaf_vector":"1"}},{"base_weights":[1.1716283E-1,-5.0039654E1,1.748109E2,-8.492645E1,5.102225E0,3.7858728E2,1.2577981E2,-6.595878E-1,-2.5408235E0,2.8015068E0,-3.1995285E-1,8.580816E0,1.4294879E1,2.558652E0,5.918428E0],"categories":[],"categories_nodes":[],"categories_segments":[],"categories_sizes":[],"default_left":[0,0,0,0,0,0,0,0,0,0,0,0,0,0,0],"id":3,"left_children":[1,3,5,7,9,11,13,-1,-1,-1,-1,-1,-1,-1,-1],"loss_changes":[2.3654138E10,4.034835E9,6.016731E9,5.3076378E8,1.2988097E9,1.1051633E9,1.4253937E9,0E0,0E0,0E0,0E0,0E0,0E0,0E0,0E0],"parents":[2147483647,0,0,1,1,2,2,3,3,4,4,5,5,6,6],"right_children":[2,4,6,8,10,12,14,-1,-1,-1,-1,-1,-1,-1,-1],"split_conditions":[2.308E2,7.5E1,-4.598E0,-1.616E0,-2.708E0,6.523333E2,4.426E2,-6.595878E-1,-2.5408235E0,2.8015068E0,-3.1995285E-1,8.580816E0,1.4294879E1,2.558652E0,5.918428E0],"split_indices":[40,40,10,10,10,42,44,0,0,0,0,0,0,0,0],"split_type":[0,0,0,0,0,0,0,0,0,0,0,0,0,0,0],"sum_hessian":[2.699602E6,2.097409E6,6.02193E5,1.284647E6,8.12762E5,1.16793E5,4.854E5,1.27912E5,1.156735E6,1.20125E5,6.92637E5,7.7739E4,3.9054E4,3.51473E5,1.33927E5],"tree_param":{"num_deleted":"0","num_feature":"45","num_nodes":"15","size_leaf_vector":"1"}},{"base_weights":[-1.1519459E-1,-4.3302944E1,1.9165308E2,-7.760137E1,2.0555962E1,4.0951978E2,1.4671713E2,-2.6859925E0,-1.3910124E0,2.7772338E0,1.0296794E-2,9.74669E0,1.5426242E1,3.1451273E0,6.4328585E0],"categories":[],"categories_nodes":[],"categories_segments":[],"categories_sizes":[],"default_left":[0,0,0,0,0,0,0,0,0,0,0,0,0,0,0],"id":4,"left_children":[1,3,5,7,9,11,13,-1,-1,-1,-1,-1,-1,-1,-1],"loss_changes":[2.2348966E10,4.823984E9,4.8559944E9,7.588106E8,1.2374316E9,7.213896E8,1.1669268E9,0E0,0E0,0E0,0E0,0E0,0E0,0E0,0E0],"parents":[2147483647,0,0,1,1,2,2,3,3,4,4,5,5,6,6],"right_children":[2,4,6,8,10,12,14,-1,-1,-1,-1,-1,-1,-1,-1],"split_conditions":[2.732E2,9E1,-5.169E0,4.76E1,-2.427E0,6.9481665E2,5.134E2,-2.6859925E0,-1.3910124E0,2.7772338E0,1.0296794E-2,9.74669E0,1.5426242E1,3.1451273E0,6.4328585E0],"split_indices":[40,40,11,40,11,44,40,0,0,0,0,0,0,0,0],"split_type":[0,0,0,0,0,0,0,0,0,0,0,0,0,0,0],"sum_hessian":[2.698485E6,2.202471E6,4.96014E5,1.432877E6,7.69594E5,8.4812E4,4.11202E5,8.40378E5,5.92499E5,1.55579E5,6.14015E5,6.0889E4,2.3923E4,2.96043E5,1.15159E5],"tree_param":{"num_deleted":"0","num_feature":"45","num_nodes":"15","size_leaf_vector":"1"}},{"base_weights":[-7.0422396E-2,-5.021189E1,1.5668575E2,-8.445734E1,-4.5610795E0,3.3481723E2,1.0701314E2,-2.8405743E0,-1.8871981E0,1.9511285E0,-5.8517414E-1,1.4325594E1,7.9464703E0,4.5166063E0,1.6928135E0],"categories":[],"categories_nodes":[],"categories_segments":[],"categories_sizes":[],"default_left":[0,0,0,0,0,0,0,0,0,0,0,0,0,0,0],"id":5,"left_children":[1,3,5,7,9,11,13,-1,-1,-1,-1,-1,-1,-1,-1],"loss_changes":[2.1203354E10,3.195238E9,5.784713E9,3.4470656E8,1.0872512E9,1.2479529E9,1.314091E9,0E0,0E0,0E0,0E0,0E0,0E0,0E0,0E0],"parents":[2147483647,0,0,1,1,2,2,3,3,4,4,5,5,6,6],"right_children":[2,4,6,8,10,12,14,-1,-1,-1,-1,-1,-1,-1,-1],"split_conditions":[2.13E2,6.58E1,-4.145E0,3.62E1,-2.225E0,-7.942E0,-4.8694E2,-2.8405743E0,-1.8871981E0,1.9511285E0,-5.8517414E-1,1.4325594E1,7.9464703E0,4.5166063E0,1.6928135E0],"split_indices":[40,40,11,40,11,11,15,0,0,0,0,0,0,0,0],"split_type":[0,0,0,0,0,0,0,0,0,0,0,0,0,0,0],"sum_hessian":[2.697633E6,2.043864E6,6.53769E5,1.167815E6,8.76049E5,1.42554E5,5.11215E5,5.55272E5,6.12543E5,1.58463E5,7.17586E5,2.9768E4,1.12786E5,2.3042E5,2.80795E5],"tree_param":{"num_deleted":"0","num_feature":"45","num_nodes":"15","size_leaf_vector":"1"}},{"base_weights":[-6.490647E-2,-3.9396976E1,1.8934792E2,-7.245444E1,2.3529669E1,3.9136865E2,1.4535458E2,-2.5304813E0,-1.2776587E0,3.2033138E0,1.8003953E-1,9.460537E0,1.51362505E1,3.0593932E0,6.1117373E0],"categories":[],"categories_nodes":[],"categories_segments":[],"categories_sizes":[],"default_left":[0,0,0,0,0,0,0,0,0,0,0,0,0,0,0],"id":6,"left_children":[1,3,5,7,9,11,13,-1,-1,-1,-1,-1,-1,-1,-1],"loss_changes":[2.0118518E10,4.651595E9,4.1268367E9,7.284705E8,1.2076413E9,6.4257434E8,1.0021719E9,0E0,0E0,0E0,0E0,0E0,0E0,0E0,0E0],"parents":[2147483647,0,0,1,1,2,2,3,3,4,4,5,5,6,6],"right_children":[2,4,6,8,10,12,14,-1,-1,-1,-1,-1,-1,-1,-1],"split_conditions":[2.88E2,9.38E1,-5.169E0,4.82E1,-2.842E0,7.349583E2,4.6184167E2,-2.5304813E0,-1.2776587E0,3.2033138E0,1.8003953E-1,9.460537E0,1.51362505E1,3.0593932E0,6.1117373E0],"split_indices":[40,40,11,40,11,44,44,0,0,0,0,0,0,0,0],"split_type":[0,0,0,0,0,0,0,0,0,0,0,0,0,0,0],"sum_hessian":[2.700473E6,2.236134E6,4.64339E5,1.465997E6,7.70137E5,8.3035E4,3.81304E5,8.54473E5,6.11524E5,1.20241E5,6.49896E5,6.277E4,2.0265E4,2.6029E5,1.21014E5],"tree_param":{"num_deleted":"0","num_feature":"45","num_nodes":"15","size_leaf_vector":"1"}},{"base_weights":[1.0511008E-2,-4.5594246E1,1.5196529E2,-7.887636E1,-8.909946E-1,3.16859E2,1.0260681E2,-8.2702076E-1,-2.3836052E0,1.8613393E0,-5.773352E-1,1.3721541E1,7.525656E0,1.7885232E0,4.6701026E0],"categories":[],"categories_nodes":[],"categories_segments":[],"categories_sizes":[],"default_left":[0,0,0,0,0,0,0,0,0,0,0,0,0,0,0],"id":7,"left_children":[1,3,5,7,9,11,13,-1,-1,-1,-1,-1,-1,-1,-1],"loss_changes":[1.8694998E10,3.0872177E9,5.068491E9,4.1619302E8,1.201886E9,1.1585341E9,1.2026194E9,0E0,0E0,0E0,0E0,0E0,0E0,0E0,0E0],"parents":[2147483647,0,0,1,1,2,2,3,3,4,4,5,5,6,6],"right_children":[2,4,6,8,10,12,14,-1,-1,-1,-1,-1,-1,-1,-1],"split_conditions":[2.237E2,6.76E1,-4.118E0,-1.292E0,-2.014E0,-8.054E0,3.8393332E2,-8.2702076E-1,-2.3836052E0,1.8613393E0,-5.773352E-1,1.3721541E1,7.525656E0,1.7885232E0,4.6701026E0],"split_indices":[41,41,10,10,10,10,44,0,0,0,0,0,0,0,0],"split_type":[0,0,0,0,0,0,0,0,0,0,0,0,0,0,0],"sum_hessian":[2.697745E6,2.074996E6,6.22749E5,1.189442E6,8.85554E5,1.43466E5,4.79283E5,1.51114E5,1.038328E6,2.00681E5,6.84873E5,2.9065E4,1.14401E5,3.03817E5,1.75466E5],"tree_param":{"num_deleted":"0","num_feature":"45","num_nodes":"15","size_leaf_vector":"1"}},{"base_weights":[-4.370947E-2,-3.7851856E1,1.7721823E2,-6.869464E1,2.1622084E1,3.7415146E2,1.3591208E2,4.7952004E-2,-2.090983E0,3.534554E0,1.9782874E-1,8.714219E0,1.3743754E1,2.9617937E0,6.148083E0],"categories":[],"categories_nodes":[],"categories_segments":[],"categories_sizes":[],"default_left":[0,0,0,0,0,0,0,0,0,0,0,0,0,0,0],"id":8,"left_children":[1,3,5,7,9,11,13,-1,-1,-1,-1,-1,-1,-1,-1],"loss_changes":[1.8081788E10,4.0790244E9,3.8581484E9,6.969697E8,1.1649859E9,5.97887E8,9.7833165E8,0E0,0E0,0E0,0E0,0E0,0E0,0E0,0E0],"parents":[2147483647,0,0,1,1,2,2,3,3,4,4,5,5,6,6],"right_children":[2,4,6,8,10,12,14,-1,-1,-1,-1,-1,-1,-1,-1],"split_conditions":[2.828E2,9.38E1,-5.262E0,-1.908E0,-3.246E0,6.931E2,5.424E2,4.7952004E-2,-2.090983E0,3.534554E0,1.9782874E-1,8.714219E0,1.3743754E1,2.9617937E0,6.148083E0],"split_indices":[40,40,10,10,10,43,40,0,0,0,0,0,0,0,0],"split_type":[0,0,0,0,0,0,0,0,0,0,0,0,0,0,0],"sum_hessian":[2.697991E6,2.223699E6,4.74292E5,1.464315E6,7.59384E5,8.2233E4,3.92059E5,1.28222E5,1.336093E6,9.1345E4,6.68039E5,5.5184E4,2.7049E4,2.93051E5,9.9008E4],"tree_param":{"num_deleted":"0","num_feature":"45","num_nodes":"15","size_leaf_vector":"1"}},{"base_weights":[-2.6339874E-2,-3.8213448E1,1.6551138E2,-6.865019E1,1.5671555E1,3.0719495E2,1.11836754E2,-4.738266E-1,-2.123923E0,3.592891E0,9.854504E-2,1.3089603E1,7.3244524E0,4.8253436E0,2.0701413E0],"categories":[],"categories_nodes":[],"categories_segments":[],"categories_sizes":[],"default_left":[0,0,0,0,0,0,0,0,0,0,0,0,0,0,0],"id":9,"left_children":[1,3,5,7,9,11,13,-1,-1,-1,-1,-1,-1,-1,-1],"loss_changes":[1.7062058E10,3.5969705E9,3.8474998E9,5.7740595E8,1.0931853E9,9.8459546E8,8.487086E8,0E0,0E0,0E0,0E0,0E0,0E0,0E0,0E0],"parents":[2147483647,0,0,1,1,2,2,3,3,4,4,5,5,6,6],"right_children":[2,4,6,8,10,12,14,-1,-1,-1,-1,-1,-1,-1,-1],"split_conditions":[2.684E2,8.64E1,-4.018E0,-1.378E0,-3.444E0,-8.054E0,-5.2586E2,-4.738266E-1,-2.123923E0,3.592891E0,9.854504E-2,1.3089603E1,7.3244524E0,4.8253436E0,2.0701413E0],"split_indices":[40,40,10,10,10,10,15,0,0,0,0,0,0,0,0],"split_type":[0,0,0,0,0,0,0,0,0,0,0,0,0,0,0],"sum_hessian":[2.699092E6,2.193162E6,5.0593E5,1.401519E6,7.91643E5,1.39004E5,3.66926E5,1.88104E5,1.213415E6,7.6064E4,7.15579E5,2.8659E4,1.10345E5,1.37053E5,2.29873E5],"tree_param":{"num_deleted":"0","num_feature":"45","num_nodes":"15","size_leaf_vector":"1"}},{"base_weights":[-1.3309853E-1,-3.49579E1,1.7254207E2,-6.2957207E1,2.5973883E1,2.9942987E2,1.1450091E2,-2.2847803E0,-1.0565166E0,3.1363068E0,2.6100424E-1,1.2865811E1,7.158888E0,4.8935027E0,2.2099514E0],"categories":[],"categories_nodes":[],"categories_segments":[],"categories_sizes":[],"default_left":[0,0,0,0,0,0,0,0,0,0,0,0,0,0,0],"id":10,"left_children":[1,3,5,7,9,11,13,-1,-1,-1,-1,-1,-1,-1,-1],"loss_changes":[1.6225912E10,3.830836E9,3.3351608E9,7.4457856E8,1.0205986E9,9.6290816E8,6.704251E8,0E0,0E0,0E0,0E0,0E0,0E0,0E0,0E0],"parents":[2147483647,0,0,1,1,2,2,3,3,4,4,5,5,6,6],"right_children":[2,4,6,8,10,12,14,-1,-1,-1,-1,-1,-1,-1,-1],"split_conditions":[2.932E2,1.034E2,-3.832E0,4.86E1,-2.96E0,-8.054E0,-5.37455E2,-2.2847803E0,-1.0565166E0,3.1363068E0,2.6100424E-1,1.2865811E1,7.158888E0,4.8935027E0,2.2099514E0],"split_indices":[40,40,10,40,10,10,16,0,0,0,0,0,0,0,0],"split_type":[0,0,0,0,0,0,0,0,0,0,0,0,0,0,0],"sum_hessian":[2.698302E6,2.245445E6,4.52857E5,1.538483E6,7.06962E5,1.42132E5,3.10725E5,8.61984E5,6.76499E5,1.12805E5,5.94157E5,2.8367E4,1.13765E5,1.1152E5,1.99205E5],"tree_param":{"num_deleted":"0","num_feature":"45","num_nodes":"15","size_leaf_vector":"1"}},{"base_weights":[-9.055754E-3,-4.4080933E1,1.2917006E2,-7.3850174E1,-7.7620163E0,2.733005E2,8.413786E1,-3.8308322E-2,-2.1418152E0,1.4631974E0,-6.8206906E-1,5.887597E0,1.094697E1,3.8188913E0,1.1707158E0],"categories":[],"categories_nodes":[],"categories_segments":[],"categories_sizes":[],"default_left":[0,0,0,0,0,0,0,0,0,0,0,0,0,0,0],"id":11,"left_children":[1,3,5,7,9,11,13,-1,-1,-1,-1,-1,-1,-1,-1],"loss_changes":[1.5350189E10,2.1735867E9,4.4516844E9,2.751995E8,9.241223E8,1.2092918E9,1.1749233E9,0E0,0E0,0E0,0E0,0E0,0E0,0E0,0E0],"parents":[2147483647,0,0,1,1,2,2,3,3,4,4,5,5,6,6],"right_children":[2,4,6,8,10,12,14,-1,-1,-1,-1,-1,-1,-1,-1],"split_conditions":[2.03E2,6.16E1,-3.922E0,-2.2779999E0,-1.944E0,6.129E2,-4.888E2,-3.8308322E-2,-2.1418152E0,1.4631974E0,-6.8206906E-1,5.887597E0,1.094697E1,3.8188913E0,1.1707158E0],"split_indices":[40,40,10,10,10,41,15,0,0,0,0,0,0,0,0],"split_type":[0,0,0,0,0,0,0,0,0,0,0,0,0,0,0],"sum_hessian":[2.696248E6,2.010372E6,6.85876E5,1.104805E6,9.05567E5,1.6328E5,5.22596E5,5.003E4,1.054775E6,1.97117E5,7.0845E5,1.08862E5,5.4418E4,2.29102E5,2.93494E5],"tree_param":{"num_deleted":"0","num_feature":"45","num_nodes":"15","size_leaf_vector":"1"}},{"base_weights":[4.4505842E-2,-3.208044E1,1.6801303E2,-5.928985E1,2.6740223E1,3.6142346E2,1.3279337E2,-3.2426107E-1,-1.9122766E0,3.0624437E0,2.8661162E-1,8.332053E0,1.2917092E1,5.311849E0,2.5193622E0],"categories":[],"categories_nodes":[],"categories_segments":[],"categories_sizes":[],"default_left":[0,0,0,0,0,0,0,0,0,0,0,0,0,0,0],"id":12,"left_children":[1,3,5,7,9,11,13,-1,-1,-1,-1,-1,-1,-1,-1],"loss_changes":[1.4567934E10,3.6272008E9,2.952578E9,7.163694E8,9.84593E8,4.247214E8,9.0430566E8,0E0,0E0,0E0,0E0,0E0,0E0,0E0,0E0],"parents":[2147483647,0,0,1,1,2,2,3,3,4,4,5,5,6,6],"right_children":[2,4,6,8,10,12,14,-1,-1,-1,-1,-1,-1,-1,-1],"split_conditions":[3.038E2,1.05E2,-5.733E0,-1.208E0,-2.96E0,6.931E2,-2.442E0,-3.2426107E-1,-1.9122766E0,3.0624437E0,2.8661162E-1,8.332053E0,1.2917092E1,5.311849E0,2.5193622E0],"split_indices":[40,40,10,10,10,43,10,0,0,0,0,0,0,0,0],"split_type":[0,0,0,0,0,0,0,0,0,0,0,0,0,0,0],"sum_hessian":[2.699775E6,2.266327E6,4.33448E5,1.549538E6,7.16789E5,6.6771E4,3.66677E5,2.62694E5,1.286844E6,1.17343E5,5.99446E5,4.225E4,2.4521E4,1.52403E5,2.14274E5],"tree_param":{"num_deleted":"0","num_feature":"45","num_nodes":"15","size_leaf_vector":"1"}},{"base_weights":[1.831949E-2,-4.172697E1,1.22419106E2,-7.088547E1,-8.4394E0,2.5606802E2,7.828981E1,1.206425E-1,-2.0440543E0,1.5307971E0,-6.314792E-1,5.34337E0,9.997209E0,3.8991895E0,1.2363653E0],"categories":[],"categories_nodes":[],"categories_segments":[],"categories_sizes":[],"default_left":[0,0,0,0,0,0,0,0,0,0,0,0,0,0,0],"id":13,"left_children":[1,3,5,7,9,11,13,-1,-1,-1,-1,-1,-1,-1,-1],"loss_changes":[1.3778527E10,1.9516954E9,4.0446433E9,2.3180032E8,8.578152E8,1.1271455E9,1.0835809E9,0E0,0E0,0E0,0E0,0E0,0E0,0E0,0E0],"parents":[2147483647,0,0,1,1,2,2,3,3,4,4,5,5,6,6],"right_children":[2,4,6,8,10,12,14,-1,-1,-1,-1,-1,-1,-1,-1],"split_conditions":[2.03E2,5.96E1,-3.832E0,-2.442E0,-2.162E0,5.0885E2,-5.1784E2,1.206425E-1,-2.0440543E0,1.5307971E0,-6.314792E-1,5.34337E0,9.997209E0,3.8991895E0,1.2363653E0],"split_indices":[40,40,10,10,10,44,16,0,0,0,0,0,0,0,0],"split_type":[0,0,0,0,0,0,0,0,0,0,0,0,0,0,0],"sum_hessian":[2.696566E6,2.010781E6,6.85785E5,1.071869E6,9.38912E5,1.7023E5,5.15555E5,3.9441E4,1.032428E6,1.72649E5,7.66263E5,1.06113E5,6.4117E4,1.80684E5,3.34871E5],"tree_param":{"num_deleted":"0","num_feature":"45","num_nodes":"15","size_leaf_vector":"1"}},{"base_weights":[7.486492E-2,-3.038376E1,1.5974884E2,-5.6905396E1,2.3470898E1,3.436101E2,1.2637781E2,-2.1674635E0,-1.0504396E0,2.4143252E0,1.1242446E-1,8.191471E0,1.2960322E1,2.75145E0,5.8108807E0],"categories":[],"categories_nodes":[],"categories_segments":[],"categories_sizes":[],"default_left":[0,0,0,0,0,0,0,0,0,0,0,0,0,0,0],"id":14,"left_children":[1,3,5,7,9,11,13,-1,-1,-1,-1,-1,-1,-1,-1],"loss_changes":[1.3126788E10,3.23754E9,2.6529362E9,6.148654E8,9.242284E8,3.9570176E8,8.2595174E8,0E0,0E0,0E0,0E0,0E0,0E0,0E0,0E0],"parents":[2147483647,0,0,1,1,2,2,3,3,4,4,5,5,6,6],"right_children":[2,4,6,8,10,12,14,-1,-1,-1,-1,-1,-1,-1,-1],"split_conditions":[3.038E2,1.006E2,-5.733E0,4.24E1,-2.4E0,7.349583E2,5.229583E2,-2.1674635E0,-1.0504396E0,2.4143252E0,1.1242446E-1,8.191471E0,1.2960322E1,2.75145E0,5.8108807E0],"split_indices":[40,40,10,40,10,44,44,0,0,0,0,0,0,0,0],"split_type":[0,0,0,0,0,0,0,0,0,0,0,0,0,0,0],"sum_hessian":[2.699069E6,2.266687E6,4.32382E5,1.518752E6,7.47935E5,6.6422E4,3.6596E5,7.15907E5,8.02845E5,1.7481E5,5.73125E5,4.7887E4,1.8535E4,2.76155E5,8.9805E4],"tree_param":{"num_deleted":"0","num_feature":"45","num_nodes":"15","size_leaf_vector":"1"}},{"base_weights":[2.07997E-2,-2.9659834E1,1.5550478E2,-5.49551E1,2.381374E1,3.318416E2,1.2284176E2,-2.057629E0,-9.594776E-1,2.0545897E0,7.484772E-2,7.751229E0,1.2171242E1,4.858243E0,2.2561789E0],"categories":[],"categories_nodes":[],"categories_segments":[],"categories_sizes":[],"default_left":[0,0,0,0,0,0,0,0,0,0,0,0,0,0,0],"id":15,"left_children":[1,3,5,7,9,11,13,-1,-1,-1,-1,-1,-1,-1,-1],"loss_changes":[1.2455046E10,3.0654382E9,2.4917258E9,6.035584E8,7.7328595E8,3.78432E8,7.9338086E8,0E0,0E0,0E0,0E0,0E0,0E0,0E0,0E0],"parents":[2147483647,0,0,1,1,2,2,3,3,4,4,5,5,6,6],"right_children":[2,4,6,8,10,12,14,-1,-1,-1,-1,-1,-1,-1,-1],"split_conditions":[3.038E2,1.034E2,-5.633E0,4.54E1,-4.7644E2,7.2675E2,-2.304E0,-2.057629E0,-9.594776E-1,2.0545897E0,7.484772E-2,7.751229E0,1.2171242E1,4.858243E0,2.2561789E0],"split_indices":[40,40,11,40,15,43,11,0,0,0,0,0,0,0,0],"split_type":[0,0,0,0,0,0,0,0,0,0,0,0,0,0,0],"sum_hessian":[2.698898E6,2.266283E6,4.32615E5,1.538505E6,7.27778E5,6.761E4,3.65005E5,7.89399E5,7.49106E5,2.15085E5,5.12693E5,4.5509E4,2.2101E4,1.61043E5,2.03962E5],"tree_param":{"num_deleted":"0","num_feature":"45","num_nodes":"15","size_leaf_vector":"1"}},{"base_weights":[1.9139994E-2,-2.7565582E1,1.5776848E2,-5.2893555E1,2.591125E1,3.169527E2,1.23329445E2,-5.1830146E-2,-1.6885226E0,2.1825194E0,7.895883E-2,7.5236034E0,1.2160698E1,2.7127616E0,5.655452E0],"categories":[],"categories_nodes":[],"categories_segments":[],"categories_sizes":[],"default_left":[0,0,0,0,0,0,0,0,0,0,0,0,0,0,0],"id":16,"left_children":[1,3,5,7,9,11,13,-1,-1,-1,-1,-1,-1,-1,-1],"loss_changes":[1.173985E10,3.110318E9,2.2013542E9,6.390057E8,8.994724E8,3.9569715E8,6.781368E8,0E0,0E0,0E0,0E0,0E0,0E0,0E0,0E0],"parents":[2147483647,0,0,1,1,2,2,3,3,4,4,5,5,6,6],"right_children":[2,4,6,8,10,12,14,-1,-1,-1,-1,-1,-1,-1,-1],"split_conditions":[3.21E2,1.064E2,-5.482E0,-1.4959999E0,-2.014E0,7.349583E2,5.38425E2,-5.1830146E-2,-1.6885226E0,2.1825194E0,7.895883E-2,7.5236034E0,1.2160698E1,2.7127616E0,5.655452E0],"split_indices":[40,40,10,10,10,44,44,0,0,0,0,0,0,0,0],"split_type":[0,0,0,0,0,0,0,0,0,0,0,0,0,0,0],"sum_hessian":[2.697903E6,2.296353E6,4.0155E5,1.558302E6,7.38051E5,7.1422E4,3.30128E5,2.12052E5,1.34625E6,2.24234E5,5.13817E5,5.2017E4,1.9405E4,2.51039E5,7.9089E4],"tree_param":{"num_deleted":"0","num_feature":"45","num_nodes":"15","size_leaf_vector":"1"}},{"base_weights":[-3.3870306E-2,-3.907713E1,1.055126E2,-6.46234E1,-1.0309352E1,2.2586244E2,6.600737E1,-2.2869048E0,-1.4953973E0,1.1021727E0,-7.022946E-1,4.7942886E0,9.100606E0,3.165316E0,6.865679E-1],"categories":[],"categories_nodes":[],"categories_segments":[],"categories_sizes":[],"default_left":[0,0,0,0,0,0,0,0,0,0,0,0,0,0,0],"id":17,"left_children":[1,3,5,7,9,11,13,-1,-1,-1,-1,-1,-1,-1,-1],"loss_changes":[1.1116037E10,1.4471055E9,3.46313E9,1.9904E8,6.972719E8,9.756375E8,1.0901686E9,0E0,0E0,0E0,0E0,0E0,0E0,0E0,0E0],"parents":[2147483647,0,0,1,1,2,2,3,3,4,4,5,5,6,6],"right_children":[2,4,6,8,10,12,14,-1,-1,-1,-1,-1,-1,-1,-1],"split_conditions":[1.906E2,5.78E1,-3.75E0,3.01E1,-1.774E0,5.94E2,-4.798E2,-2.2869048E0,-1.4953973E0,1.1021727E0,-7.022946E-1,4.7942886E0,9.100606E0,3.165316E0,6.865679E-1],"split_indices":[40,40,10,41,10,40,15,0,0,0,0,0,0,0,0],"split_type":[0,0,0,0,0,0,0,0,0,0,0,0,0,0,0],"sum_hessian":[2.697492E6,1.969094E6,7.28398E5,1.042943E6,9.26151E5,1.8001E5,5.48388E5,3.89327E5,6.53616E5,2.13821E5,7.1233E5,1.18776E5,6.1234E4,2.52795E5,2.95593E5],"tree_param":{"num_deleted":"0","num_feature":"45","num_nodes":"15","size_leaf_vector":"1"}},{"base_weights":[4.6123456E-2,-2.5351814E1,1.5482649E2,-4.890588E1,2.842332E1,3.2363068E2,1.24619026E2,-2.882904E-1,-1.6481979E0,3.1512263E0,4.0747654E-1,7.5718117E0,1.1498218E1,4.8214116E0,2.279891E0],"categories":[],"categories_nodes":[],"categories_segments":[],"categories_sizes":[],"default_left":[0,0,0,0,0,0,0,0,0,0,0,0,0,0,0],"id":18,"left_children":[1,3,5,7,9,11,13,-1,-1,-1,-1,-1,-1,-1,-1],"loss_changes":[1.0608846E10,2.9363963E9,1.939753E9,6.560671E8,8.262666E8,2.6564198E8,6.7451034E8,0E0,0E0,0E0,0E0,0E0,0E0,0E0,0E0],"parents":[2147483647,0,0,1,1,2,2,3,3,4,4,5,5,6,6],"right_children":[2,4,6,8,10,12,14,-1,-1,-1,-1,-1,-1,-1,-1],"split_conditions":[3.334E2,1.144E2,-6.036E0,-9.42E-1,-3.31E0,7.2675E2,-2.318E0,-2.882904E-1,-1.6481979E0,3.1512263E0,4.0747654E-1,7.5718117E0,1.1498218E1,4.8214116E0,2.279891E0],"split_indices":[40,40,10,10,10,43,10,0,0,0,0,0,0,0,0],"split_type":[0,0,0,0,0,0,0,0,0,0,0,0,0,0,0],"sum_hessian":[2.698695E6,2.318287E6,3.80408E5,1.612149E6,7.06138E5,5.7741E4,3.22667E5,3.47231E5,1.264918E6,9.7849E4,6.08289E5,3.7201E4,2.054E4,1.48997E5,1.7367E5],"tree_param":{"num_deleted":"0","num_feature":"45","num_nodes":"15","size_leaf_vector":"1"}},{"base_weights":[5.3701267E-2,-2.7776268E1,1.3407979E2,5.1254276E1,-4.3129654E1,2.3923697E2,8.7526146E1,5.954402E-1,3.3081686E0,6.2475815E-2,-1.5843282E0,1.0634228E1,5.7307377E0,4.144225E0,1.6336353E0],"categories":[],"categories_nodes":[],"categories_segments":[],"categories_sizes":[],"default_left":[0,0,0,0,0,0,0,0,0,0,0,0,0,0,0],"id":19,"left_children":[1,3,5,7,9,11,13,-1,-1,-1,-1,-1,-1,-1,-1],"loss_changes":[1.006511E10,2.711291E9,2.2713938E9,7.370742E8,1.1922614E9,6.674514E8,5.6996634E8,0E0,0E0,0E0,0E0,0E0,0E0,0E0,0E0],"parents":[2147483647,0,0,1,1,2,2,3,3,4,4,5,5,6,6],"right_children":[2,4,6,8,10,12,14,-1,-1,-1,-1,-1,-1,-1,-1],"split_conditions":[2.8611667E2,-2.014E0,-3.516E0,6.1148987E0,-4.471E2,-8.054E0,-5.6004224E2,5.954402E-1,3.3081686E0,6.2475815E-2,-1.5843282E0,1.0634228E1,5.7307377E0,4.144225E0,1.6336353E0],"split_indices":[44,10,10,35,15,10,18,0,0,0,0,0,0,0,0],"split_type":[0,0,0,0,0,0,0,0,0,0,0,0,0,0,0],"sum_hessian":[2.698463E6,2.234482E6,4.63981E5,3.63482E5,1.871E6,1.42376E5,3.21605E5,2.52948E5,1.10534E5,4.42078E5,1.428922E6,2.6105E4,1.16271E5,1.01444E5,2.20161E5],"tree_param":{"num_deleted":"0","num_feature":"45","num_nodes":"15","size_leaf_vector":"1"}},{"base_weights":[3.0249763E-2,-2.3719433E1,1.4987035E2,-4.695099E1,2.6338583E1,2.994669E2,1.1909951E2,-1.8330796E0,-7.783804E-1,3.1312122E0,3.8585216E-1,7.1048903E0,1.1178716E1,2.4784575E0,5.002122E0],"categories":[],"categories_nodes":[],"categories_segments":[],"categories_sizes":[],"default_left":[0,0,0,0,0,0,0,0,0,0,0,0,0,0,0],"id":20,"left_children":[1,3,5,7,9,11,13,-1,-1,-1,-1,-1,-1,-1,-1],"loss_changes":[9.597565E9,2.7072666E9,1.6985124E9,5.757427E8,7.938533E8,2.8184064E8,5.5742925E8,0E0,0E0,0E0,0E0,0E0,0E0,0E0,0E0],"parents":[2147483647,0,0,1,1,2,2,3,3,4,4,5,5,6,6],"right_children":[2,4,6,8,10,12,14,-1,-1,-1,-1,-1,-1,-1,-1],"split_conditions":[3.398E2,1.112E2,-5.733E0,4.56E1,-3.444E0,7.349583E2,4.956E2,-1.8330796E0,-7.783804E-1,3.1312122E0,3.8585216E-1,7.1048903E0,1.1178716E1,2.4784575E0,5.002122E0],"split_indices":[40,40,10,41,10,44,44,0,0,0,0,0,0,0,0],"split_type":[0,0,0,0,0,0,0,0,0,0,0,0,0,0,0],"sum_hessian":[2.696964E6,2.327979E6,3.68985E5,1.590049E6,7.3793E5,6.2949E4,3.06036E5,7.88076E5,8.01973E5,9.2478E4,6.45452E5,4.4499E4,1.845E4,2.06347E5,9.9689E4],"tree_param":{"num_deleted":"0","num_feature":"45","num_nodes":"15","size_leaf_vector":"1"}},{"base_weights":[6.666507E-2,-2.6409304E1,1.27414375E2,4.352828E1,-4.2360115E1,2.1624477E2,7.756549E1,3.1492543E0,4.5044908E-1,4.3984836E-1,-1.4532818E0,4.7610893E0,8.579871E0,3.743331E0,1.3167233E0],"categories":[],"categories_nodes":[],"categories_segments":[],"categories_sizes":[],"default_left":[0,0,0,0,0,0,0,0,0,0,0,0,0,0,0],"id":21,"left_children":[1,3,5,7,9,11,13,-1,-1,-1,-1,-1,-1,-1,-1],"loss_changes":[9.09704E9,2.4918303E9,2.0563758E9,7.9326E8,1.06780646E9,6.925768E8,5.141211E8,0E0,0E0,0E0,0E0,0E0,0E0,0E0,0E0],"parents":[2147483647,0,0,1,1,2,2,3,3,4,4,5,5,6,6],"right_children":[2,4,6,8,10,12,14,-1,-1,-1,-1,-1,-1,-1,-1],"split_conditions":[2.8611667E2,-1.808E0,-3.068E0,-4.2802E2,-4.8328E2,5.901E2,-5.52959E2,3.1492543E0,4.5044908E-1,4.3984836E-1,-1.4532818E0,4.7610893E0,8.579871E0,3.743331E0,1.3167233E0],"split_indices":[44,10,10,15,15,44,17,0,0,0,0,0,0,0,0],"split_type":[0,0,0,0,0,0,0,0,0,0,0,0,0,0,0],"sum_hessian":[2.698094E6,2.233701E6,4.64393E5,4.14833E5,1.818868E6,1.66928E5,2.97465E5,1.16177E5,2.98656E5,2.68425E5,1.550443E6,1.13094E5,5.3834E4,1.02088E5,1.95377E5],"tree_param":{"num_deleted":"0","num_feature":"45","num_nodes":"15","size_leaf_vector":"1"}},{"base_weights":[1.1905217E-1,-2.4827671E1,1.27350525E2,5.6171074E1,-3.823536E1,2.1304375E2,7.821293E1,3.55819E0,8.016601E-1,4.6677E-1,-1.3676711E0,9.373854E0,4.9983416E0,3.7817948E0,1.3811733E0],"categories":[],"categories_nodes":[],"categories_segments":[],"categories_sizes":[],"default_left":[0,0,0,0,0,0,0,0,0,0,0,0,0,0,0],"id":22,"left_children":[1,3,5,7,9,11,13,-1,-1,-1,-1,-1,-1,-1,-1],"loss_changes":[8.565707E9,2.4503575E9,1.8628424E9,6.305247E8,1.1853578E9,6.596956E8,4.6473165E8,0E0,0E0,0E0,0E0,0E0,0E0,0E0,0E0],"parents":[2147483647,0,0,1,1,2,2,3,3,4,4,5,5,6,6],"right_children":[2,4,6,8,10,12,14,-1,-1,-1,-1,-1,-1,-1,-1],"split_conditions":[2.9555832E2,-2.238E0,-3.068E0,-4.3024667E2,-4.7476E2,-7.3320003E0,-5.6004224E2,3.55819E0,8.016601E-1,4.6677E-1,-1.3676711E0,9.373854E0,4.9983416E0,3.7817948E0,1.3811733E0],"split_indices":[44,10,10,15,15,10,18,0,0,0,0,0,0,0,0],"split_type":[0,0,0,0,0,0,0,0,0,0,0,0,0,0,0],"sum_hessian":[2.698703E6,2.256302E6,4.42401E5,3.20442E5,1.93586E6,1.61228E5,2.81173E5,8.7764E4,2.32678E5,3.25113E5,1.610747E6,3.3369E4,1.27859E5,9.2094E4,1.89079E5],"tree_param":{"num_deleted":"0","num_feature":"45","num_nodes":"15","size_leaf_vector":"1"}},{"base_weights":[1.6785783E-1,-3.488352E1,8.792415E1,-5.6869286E1,-1.0109967E1,2.0481859E2,5.780558E1,-2.0497093E0,-1.3106247E0,1.0827255E0,-6.040901E-1,4.435924E0,8.376358E0,2.7635257E0,5.04269E-1],"categories":[],"categories_nodes":[],"categories_segments":[],"categories_sizes":[],"default_left":[0,0,0,0,0,0,0,0,0,0,0,0,0,0,0],"id":23,"left_children":[1,3,5,7,9,11,13,-1,-1,-1,-1,-1,-1,-1,-1],"loss_changes":[8.30183E9,1.05044454E9,2.7120532E9,1.67253E8,5.212796E8,6.88127E8,1.01691674E9,0E0,0E0,0E0,0E0,0E0,0E0,0E0,0E0],"parents":[2147483647,0,0,1,1,2,2,3,3,4,4,5,5,6,6],"right_children":[2,4,6,8,10,12,14,-1,-1,-1,-1,-1,-1,-1,-1],"split_conditions":[1.792E2,5.66E1,-4.038E0,2.92E1,-4.8328E2,6.364E2,-4.6844E2,-2.0497093E0,-1.3106247E0,1.0827255E0,-6.040901E-1,4.435924E0,8.376358E0,2.7635257E0,5.04269E-1],"split_indices":[40,40,11,41,15,40,15,0,0,0,0,0,0,0,0],"split_type":[0,0,0,0,0,0,0,0,0,0,0,0,0,0,0],"sum_hessian":[2.698923E6,1.928605E6,7.70318E5,1.021794E6,9.06811E5,1.57815E5,6.12503E5,3.66857E5,6.54937E5,1.74135E5,7.32676E5,1.0815E5,4.9665E4,2.97584E5,3.14919E5],"tree_param":{"num_deleted":"0","num_feature":"45","num_nodes":"15","size_leaf_vector":"1"}},{"base_weights":[-2.8116735E-2,-2.303086E1,1.2432972E2,4.0013973E1,-3.932036E1,2.1132507E2,8.026009E1,3.7337872E-1,2.8835042E0,1.0610066E-2,-1.4560233E0,9.458351E0,5.0578804E0,3.7324145E0,1.4856145E0],"categories":[],"categories_nodes":[],"categories_segments":[],"categories_sizes":[],"default_left":[0,0,0,0,0,0,0,0,0,0,0,0,0,0,0],"id":24,"left_children":[1,3,5,7,9,11,13,-1,-1,-1,-1,-1,-1,-1,-1],"loss_changes":[7.7194296E9,2.3387377E9,1.614975E9,7.947212E8,9.4990285E8,5.304156E8,4.055607E8,0E0,0E0,0E0,0E0,0E0,0E0,0E0,0E0],"parents":[2147483647,0,0,1,1,2,2,3,3,4,4,5,5,6,6],"right_children":[2,4,6,8,10,12,14,-1,-1,-1,-1,-1,-1,-1,-1],"split_conditions":[3.05275E2,-1.678E0,-3.376E0,5.979903E0,-4.445E2,-8.054E0,-5.6004224E2,3.7337872E-1,2.8835042E0,1.0610066E-2,-1.4560233E0,9.458351E0,5.0578804E0,3.7324145E0,1.4856145E0],"split_indices":[44,10,10,36,15,10,18,0,0,0,0,0,0,0,0],"split_type":[0,0,0,0,0,0,0,0,0,0,0,0,0,0,0],"sum_hessian":[2.698562E6,2.277321E6,4.21241E5,4.67596E5,1.809725E6,1.41639E5,2.79602E5,3.30584E5,1.37012E5,4.52069E5,1.357656E6,2.5699E4,1.1594E5,9.1912E4,1.8769E5],"tree_param":{"num_deleted":"0","num_feature":"45","num_nodes":"15","size_leaf_vector":"1"}},{"base_weights":[1.9060962E-2,-2.2316193E1,1.2411087E2,-4.657612E1,1.3191102E1,2.7092535E2,9.971737E1,-1.7841443E0,-9.275202E-1,1.4307911E0,-2.133152E-1,9.934209E0,6.3298106E0,2.0942614E0,4.6988E0],"categories":[],"categories_nodes":[],"categories_segments":[],"categories_sizes":[],"default_left":[0,0,0,0,0,0,0,0,0,0,0,0,0,0,0],"id":25,"left_children":[1,3,5,7,9,11,13,-1,-1,-1,-1,-1,-1,-1,-1],"loss_changes":[7.483008E9,1.9709292E9,1.4748708E9,3.1720704E8,7.4571354E8,2.1839104E8,5.955208E8,0E0,0E0,0E0,0E0,0E0,0E0,0E0,0E0],"parents":[2147483647,0,0,1,1,2,2,3,3,4,4,5,5,6,6],"right_children":[2,4,6,8,10,12,14,-1,-1,-1,-1,-1,-1,-1,-1],"split_conditions":[3.152E2,8.2E1,-6.036E0,3.7E1,-1.556E0,-9.116E0,5.754E2,-1.7841443E0,-9.275202E-1,1.4307911E0,-2.133152E-1,9.934209E0,6.3298106E0,2.0942614E0,4.6988E0],"split_indices":[40,40,10,40,10,10,40,0,0,0,0,0,0,0,0],"split_type":[0,0,0,0,0,0,0,0,0,0,0,0,0,0,0],"sum_hessian":[2.699866E6,2.288042E6,4.11824E5,1.35931E6,9.28732E5,5.8676E4,3.53148E5,5.76353E5,7.82957E5,3.26996E5,6.01736E5,1.9179E4,3.9497E4,2.6242E5,9.0728E4],"tree_param":{"num_deleted":"0","num_feature":"45","num_nodes":"15","size_leaf_vector":"1"}},{"base_weights":[1.0125018E-1,-3.2757084E1,8.064931E1,5.072457E0,-4.4921593E1,5.495847E1,2.0102324E2,1.5112517E0,-4.255688E-1,7.3615305E-2,-1.4419037E0,3.0379508E0,7.888785E-1,8.658678E0,4.555454E0],"categories":[],"categories_nodes":[],"categories_segments":[],"categories_sizes":[],"default_left":[0,0,0,0,0,0,0,0,0,0,0,0,0,0,0],"id":26,"left_children":[1,3,5,7,9,11,13,-1,-1,-1,-1,-1,-1,-1,-1],"loss_changes":[7.14065E9,8.818208E8,2.4174397E9,4.711341E8,4.904732E8,9.329555E8,5.6131686E8,0E0,0E0,0E0,0E0,0E0,0E0,0E0,0E0],"parents":[2147483647,0,0,1,1,2,2,3,3,4,4,5,5,6,6],"right_children":[2,4,6,8,10,12,14,-1,-1,-1,-1,-1,-1,-1,-1],"split_conditions":[1.764E2,-9.94E-1,5.582E2,-4.1054E2,-4.851E2,-2.616E0,-6.39E0,1.5112517E0,-4.255688E-1,7.3615305E-2,-1.4419037E0,3.0379508E0,7.888785E-1,8.658678E0,4.555454E0],"split_indices":[40,10,40,15,15,10,10,0,0,0,0,0,0,0,0],"split_type":[0,0,0,0,0,0,0,0,0,0,0,0,0,0,0],"sum_hessian":[2.69797E6,1.916261E6,7.81709E5,4.66263E5,1.449998E6,6.44217E5,1.37492E5,1.3629E5,3.29973E5,1.88504E5,1.261494E6,2.10287E5,4.3393E5,3.4023E4,1.03469E5],"tree_param":{"num_deleted":"0","num_feature":"45","num_nodes":"15","size_leaf_vector":"1"}},{"base_weights":[-2.5224809E-2,-1.8928324E1,1.32335E2,-3.8144047E1,2.7087168E1,2.7128903E2,1.0831341E2,-1.5055014E0,-5.39276E-1,2.0982827E-1,1.913802E0,6.2183867E0,9.4926E0,4.073658E0,1.8811258E0],"categories":[],"categories_nodes":[],"categories_segments":[],"categories_sizes":[],"default_left":[0,0,0,0,0,0,0,0,0,0,0,0,0,0,0],"id":27,"left_children":[1,3,5,7,9,11,13,-1,-1,-1,-1,-1,-1,-1,-1],"loss_changes":[6.750486E9,2.0875131E9,1.1254231E9,5.0353E8,5.696572E8,1.6605491E8,4.4964045E8,0E0,0E0,0E0,0E0,0E0,0E0,0E0,0E0],"parents":[2147483647,0,0,1,1,2,2,3,3,4,4,5,5,6,6],"right_children":[2,4,6,8,10,12,14,-1,-1,-1,-1,-1,-1,-1,-1],"split_conditions":[3.602E2,1.232E2,-6.286E0,5E1,6.012007E0,7.556E2,-2.187E0,-1.5055014E0,-5.39276E-1,2.0982827E-1,1.913802E0,6.2183867E0,9.4926E0,4.073658E0,1.8811258E0],"split_indices":[40,40,11,40,36,41,11,0,0,0,0,0,0,0,0],"split_type":[0,0,0,0,0,0,0,0,0,0,0,0,0,0,0],"sum_hessian":[2.698016E6,2.36085E6,3.37166E5,1.665394E6,6.95456E5,4.9696E4,2.8747E5,8.92457E5,7.72937E5,4.74727E5,2.20729E5,2.997E4,1.9726E4,1.46911E5,1.40559E5],"tree_param":{"num_deleted":"0","num_feature":"45","num_nodes":"15","size_leaf_vector":"1"}},{"base_weights":[2.3229362E-2,-2.1602089E1,1.10089226E2,5.6718918E1,-3.2274754E1,1.7560826E2,6.165561E1,3.0636437E0,6.597245E-1,5.187139E-2,-1.2950691E0,3.973977E0,7.572014E0,3.208802E0,9.56527E-1],"categories":[],"categories_nodes":[],"categories_segments":[],"categories_sizes":[],"default_left":[0,0,0,0,0,0,0,0,0,0,0,0,0,0,0],"id":28,"left_children":[1,3,5,7,9,11,13,-1,-1,-1,-1,-1,-1,-1,-1],"loss_changes":[6.42801E9,1.8867228E9,1.4072801E9,4.7960205E8,9.80678E8,5.926702E8,3.746094E8,0E0,0E0,0E0,0E0,0E0,0E0,0E0,0E0],"parents":[2147483647,0,0,1,1,2,2,3,3,4,4,5,5,6,6],"right_children":[2,4,6,8,10,12,14,-1,-1,-1,-1,-1,-1,-1,-1],"split_conditions":[2.9555832E2,-2.484E0,-2.572E0,-4.0324E2,-4.2912E2,6.3485E2,-5.6004224E2,3.0636437E0,6.597245E-1,5.187139E-2,-1.2950691E0,3.973977E0,7.572014E0,3.208802E0,9.56527E-1],"split_indices":[44,10,10,15,15,44,18,0,0,0,0,0,0,0,0],"split_type":[0,0,0,0,0,0,0,0,0,0,0,0,0,0,0],"sum_hessian":[2.700604E6,2.257132E6,4.43472E5,2.70689E5,1.986443E6,1.8849E5,2.54982E5,1.02704E5,1.67985E5,5.90887E5,1.395556E6,1.41733E5,4.6757E4,8.5145E4,1.69837E5],"tree_param":{"num_deleted":"0","num_feature":"45","num_nodes":"15","size_leaf_vector":"1"}},{"base_weights":[2.1501197E-2,-3.1180782E1,7.242589E1,1.8179017E0,-4.3287838E1,2.0772234E2,5.2794388E1,-3.8508195E-1,1.6245215E0,7.8456536E-2,-1.3659687E0,9.070366E0,4.935457E0,2.5711272E0,5.0750136E-1],"categories":[],"categories_nodes":[],"categories_segments":[],"categories_sizes":[],"default_left":[0,0,0,0,0,0,0,0,0,0,0,0,0,0,0],"id":29,"left_children":[1,3,5,7,9,11,13,-1,-1,-1,-1,-1,-1,-1,-1],"loss_changes":[6.0997816E9,7.538332E8,2.159739E9,4.5205766E8,3.8217805E8,3.6502272E8,9.790291E8,0E0,0E0,0E0,0E0,0E0,0E0,0E0,0E0],"parents":[2147483647,0,0,1,1,2,2,3,3,4,4,5,5,6,6],"right_children":[2,4,6,8,10,12,14,-1,-1,-1,-1,-1,-1,-1,-1],"split_conditions":[1.684E2,-8.1200004E-1,-5.07E0,5.630367E0,-4.9258002E2,-9.116E0,-4.6843E2,-3.8508195E-1,1.6245215E0,7.8456536E-2,-1.3659687E0,9.070366E0,4.935457E0,2.5711272E0,5.0750136E-1],"split_indices":[40,10,10,35,16,10,17,0,0,0,0,0,0,0,0],"split_type":[0,0,0,0,0,0,0,0,0,0,0,0,0,0,0],"sum_hessian":[2.699995E6,1.886862E6,8.13133E5,5.06462E5,1.3804E6,1.03035E5,7.10098E5,3.96717E5,1.09745E5,1.58988E5,1.221412E6,2.0458E4,8.2577E4,3.28808E5,3.8129E5],"tree_param":{"num_deleted":"0","num_feature":"45","num_nodes":"15","size_leaf_vector":"1"}},{"base_weights":[-7.821865E-2,-1.6727175E1,1.2991183E2,-3.5903255E1,2.4565725E1,2.5197011E2,1.07068405E2,-1.5208173E0,-6.0471165E-1,9.549099E-3,1.5364032E0,5.9205613E0,9.001532E0,2.259219E0,4.5481076E0],"categories":[],"categories_nodes":[],"categories_segments":[],"categories_sizes":[],"default_left":[0,0,0,0,0,0,0,0,0,0,0,0,0,0,0],"id":30,"left_children":[1,3,5,7,9,11,13,-1,-1,-1,-1,-1,-1,-1,-1],"loss_changes":[5.8361155E9,1.8928774E9,8.5367296E8,4.36208E8,5.6692045E8,1.3475866E8,3.7584563E8,0E0,0E0,0E0,0E0,0E0,0E0,0E0,0E0],"parents":[2147483647,0,0,1,1,2,2,3,3,4,4,5,5,6,6],"right_children":[2,4,6,8,10,12,14,-1,-1,-1,-1,-1,-1,-1,-1],"split_conditions":[3.826E2,1.178E2,-6.286E0,4.18E1,5.2936077E0,7.349583E2,5.38425E2,-1.5208173E0,-6.0471165E-1,9.549099E-3,1.5364032E0,5.9205613E0,9.001532E0,2.259219E0,4.5481076E0],"split_indices":[40,40,11,41,36,44,44,0,0,0,0,0,0,0,0],"split_type":[0,0,0,0,0,0,0,0,0,0,0,0,0,0,0],"sum_hessian":[2.696663E6,2.390492E6,3.06171E5,1.632413E6,7.58079E5,4.8267E4,2.57904E5,6.9539E5,9.37023E5,4.24818E5,3.33261E5,3.1628E4,1.6639E4,1.78141E5,7.9763E4],"tree_param":{"num_deleted":"0","num_feature":"45","num_nodes":"15","size_leaf_vector":"1"}},{"base_weights":[9.816158E-2,1.1206139E2,-1.8265589E1,7.9000656E1,2.1093777E2,5.121027E1,-3.26554E1,3.546705E0,1.1402171E0,5.101288E0,8.295505E0,2.7294114E0,6.960788E-1,-1.3595663E0,-3.832224E-1],"categories":[],"categories_nodes":[],"categories_segments":[],"categories_sizes":[],"default_left":[0,0,0,0,0,0,0,0,0,0,0,0,0,0,0],"id":31,"left_children":[1,3,5,7,9,11,13,-1,-1,-1,-1,-1,-1,-1,-1],"loss_changes":[5.5493765E9,1.2431939E9,2.318129E9,5.2848474E8,2.2626483E8,4.908105E8,5.932535E8,0E0,0E0,0E0,0E0,0E0,0E0,0E0,0E0],"parents":[2147483647,0,0,1,1,2,2,3,3,4,4,5,5,6,6],"right_children":[2,4,6,8,10,12,14,-1,-1,-1,-1,-1,-1,-1,-1],"split_conditions":[-2.856E0,4.6184167E2,-4.9683334E2,-4.0138666E2,7.892E2,-5.14E-1,6.22E1,3.546705E0,1.1402171E0,5.101288E0,8.295505E0,2.7294114E0,6.960788E-1,-1.3595663E0,-3.832224E-1],"split_indices":[10,44,15,17,44,10,40,0,0,0,0,0,0,0,0],"split_type":[0,0,0,0,0,0,0,0,0,0,0,0,0,0,0],"sum_hessian":[2.699028E6,3.80307E5,2.318721E6,2.8501E5,9.5297E4,3.9785E5,1.920871E6,1.24246E5,1.60764E5,7.3092E4,2.2205E4,1.4148E5,2.5637E5,1.026467E6,8.94404E5],"tree_param":{"num_deleted":"0","num_feature":"45","num_nodes":"15","size_leaf_vector":"1"}},{"base_weights":[-5.3497747E-2,-1.858754E1,1.0620566E2,3.1824226E1,-3.3421303E1,7.535903E1,1.9157486E2,2.4821815E0,2.1332319E-1,-7.151993E-2,-1.265828E0,3.140841E0,1.0261557E0,7.697012E0,4.3819113E0],"categories":[],"categories_nodes":[],"categories_segments":[],"categories_sizes":[],"default_left":[0,0,0,0,0,0,0,0,0,0,0,0,0,0,0],"id":32,"left_children":[1,3,5,7,9,11,13,-1,-1,-1,-1,-1,-1,-1,-1],"loss_changes":[5.313213E9,1.7178272E9,1.0551352E9,7.276247E8,6.7089165E8,4.2846182E8,3.065792E8,0E0,0E0,0E0,0E0,0E0,0E0,0E0,0E0],"parents":[2147483647,0,0,1,1,2,2,3,3,4,4,5,5,6,6],"right_children":[2,4,6,8,10,12,14,-1,-1,-1,-1,-1,-1,-1,-1],"split_conditions":[3.1559167E2,-1.526E0,5.94E2,-4.2802E2,-4.348E2,-1.466E0,-6.39E0,2.4821815E0,2.1332319E-1,-7.151993E-2,-1.265828E0,3.140841E0,1.0261557E0,7.697012E0,4.3819113E0],"split_indices":[44,10,40,15,15,10,10,0,0,0,0,0,0,0,0],"split_type":[0,0,0,0,0,0,0,0,0,0,0,0,0,0,0],"sum_hessian":[2.697868E6,2.297186E6,4.00682E5,5.22272E5,1.774914E6,2.94331E5,1.06351E5,1.53906E5,3.68366E5,5.04763E5,1.270151E6,1.47844E5,1.46487E5,2.9741E4,7.661E4],"tree_param":{"num_deleted":"0","num_feature":"45","num_nodes":"15","size_leaf_vector":"1"}},{"base_weights":[-1.4176895E-2,-2.055597E1,9.134053E1,2.4839382E1,-3.47757E1,6.937529E1,2.0244467E2,1.3103643E-1,2.4523158E0,-2.5120157E-1,-1.289352E0,2.9765728E0,8.644358E-1,8.93292E0,5.0057077E0],"categories":[],"categories_nodes":[],"categories_segments":[],"categories_sizes":[],"default_left":[0,0,0,0,0,0,0,0,0,0,0,0,0,0,0],"id":33,"left_children":[1,3,5,7,9,11,13,-1,-1,-1,-1,-1,-1,-1,-1],"loss_changes":[5.06253E9,1.4217247E9,1.208609E9,6.725051E8,5.0669747E8,6.004941E8,2.1380122E8,0E0,0E0,0E0,0E0,0E0,0E0,0E0,0E0],"parents":[2147483647,0,0,1,1,2,2,3,3,4,4,5,5,6,6],"right_children":[2,4,6,8,10,12,14,-1,-1,-1,-1,-1,-1,-1,-1],"split_conditions":[2.7274167E2,-1.378E0,6.61E2,6.1148987E0,-4.2368E2,-1.466E0,-8.99E0,1.3103643E-1,2.4523158E0,-2.5120157E-1,-1.289352E0,2.9765728E0,8.644358E-1,8.93292E0,5.0057077E0],"split_indices":[44,10,40,35,15,10,11,0,0,0,0,0,0,0,0],"split_type":[0,0,0,0,0,0,0,0,0,0,0,0,0,0,0],"sum_hessian":[2.697729E6,2.202484E6,4.95245E5,5.25349E5,1.677135E6,4.13497E5,8.1748E4,3.99217E5,1.26132E5,5.26067E5,1.151068E6,2.07149E5,2.06348E5,1.2583E4,6.9165E4],"tree_param":{"num_deleted":"0","num_feature":"45","num_nodes":"15","size_leaf_vector":"1"}},{"base_weights":[7.0513256E-2,1.1247608E2,-1.6017475E1,2.2438716E2,8.66617E1,5.0747227E1,-2.956885E1,8.228116E0,5.212833E0,3.956202E0,1.2308387E0,2.6586003E0,7.099011E-1,-1.5078011E-1,-1.1608287E0],"categories":[],"categories_nodes":[],"categories_segments":[],"categories_sizes":[],"default_left":[0,0,0,0,0,0,0,0,0,0,0,0,0,0,0],"id":34,"left_children":[1,3,5,7,9,11,13,-1,-1,-1,-1,-1,-1,-1,-1],"loss_changes":[4.874516E9,9.749814E8,2.1334316E9,1.6644429E8,6.4992384E8,4.518107E8,5.826569E8,0E0,0E0,0E0,0E0,0E0,0E0,0E0,0E0],"parents":[2147483647,0,0,1,1,2,2,3,3,4,4,5,5,6,6],"right_children":[2,4,6,8,10,12,14,-1,-1,-1,-1,-1,-1,-1,-1],"split_conditions":[-3.068E0,-6.39E0,-4.9902E2,-9.116E0,-4.1738956E2,-5.88E-1,-5.14E-1,8.228116E0,5.212833E0,3.956202E0,1.2308387E0,2.6586003E0,7.099011E-1,-1.5078011E-1,-1.1608287E0],"split_indices":[10,10,15,10,18,10,10,0,0,0,0,0,0,0,0],"split_type":[0,0,0,0,0,0,0,0,0,0,0,0,0,0,0],"sum_hessian":[2.695516E6,3.37491E5,2.358025E6,6.3257E4,2.74234E5,3.97859E5,1.960166E6,2.1093E4,4.2164E4,1.17805E5,1.56429E5,1.42186E5,2.55673E5,6.62557E5,1.297609E6],"tree_param":{"num_deleted":"0","num_feature":"45","num_nodes":"15","size_leaf_vector":"1"}},{"base_weights":[-2.1555617E-2,-1.6418112E1,1.0361647E2,4.71636E1,-2.6857325E1,1.6606267E2,6.663032E1,2.3132734E0,2.3102343E-1,2.2340499E-1,-1.0635539E0,3.846327E0,6.9713254E0,3.1894836E0,1.1261601E0],"categories":[],"categories_nodes":[],"categories_segments":[],"categories_sizes":[],"default_left":[0,0,0,0,0,0,0,0,0,0,0,0,0,0,0],"id":35,"left_children":[1,3,5,7,9,11,13,-1,-1,-1,-1,-1,-1,-1,-1],"loss_changes":[4.5858376E9,1.5465349E9,8.514081E8,4.632821E8,8.0517414E8,3.1967206E8,2.916272E8,0E0,0E0,0E0,0E0,0E0,0E0,0E0,0E0],"parents":[2147483647,0,0,1,1,2,2,3,3,4,4,5,5,6,6],"right_children":[2,4,6,8,10,12,14,-1,-1,-1,-1,-1,-1,-1,-1],"split_conditions":[3.321E2,-2.318E0,-3.175E0,-3.7902E2,-4.4712E2,6.9481665E2,-5.6004224E2,2.3132734E0,2.3102343E-1,2.2340499E-1,-1.0635539E0,3.846327E0,6.9713254E0,3.1894836E0,1.1261601E0],"split_indices":[44,10,11,16,16,44,18,0,0,0,0,0,0,0,0],"split_type":[0,0,0,0,0,0,0,0,0,0,0,0,0,0,0],"sum_hessian":[2.698652E6,2.33002E6,3.68632E5,3.28604E5,2.001416E6,1.37121E5,2.31511E5,1.69804E5,1.588E5,4.96521E5,1.504895E6,1.03964E5,3.3157E4,8.0822E4,1.50689E5],"tree_param":{"num_deleted":"0","num_feature":"45","num_nodes":"15","size_leaf_vector":"1"}},{"base_weights":[-5.2204642E-2,-1.4773534E1,1.10843575E2,-3.5838284E1,1.3707393E1,2.2170763E2,9.104424E1,-1.4660562E0,-7.0760894E-1,1.3847514E0,-9.0213224E-2,5.441817E0,8.809414E0,1.8965783E0,3.9541054E0],"categories":[],"categories_nodes":[],"categories_segments":[],"categories_sizes":[],"default_left":[0,0,0,0,0,0,0,0,0,0,0,0,0,0,0],"id":36,"left_children":[1,3,5,7,9,11,13,-1,-1,-1,-1,-1,-1,-1,-1],"loss_changes":[4.406691E9,1.4296417E9,6.9436646E8,2.4086272E8,6.23172E8,1.1681613E8,3.133253E8,0E0,0E0,0E0,0E0,0E0,0E0,0E0,0E0],"parents":[2147483647,0,0,1,1,2,2,3,3,4,4,5,5,6,6],"right_children":[2,4,6,8,10,12,14,-1,-1,-1,-1,-1,-1,-1,-1],"split_conditions":[3.75E2,8.3E1,-6.39E0,3.49E1,-4.6844E2,9.34E2,5.38425E2,-1.4660562E0,-7.0760894E-1,1.3847514E0,-9.0213224E-2,5.441817E0,8.809414E0,1.8965783E0,3.9541054E0],"split_indices":[40,40,10,41,15,41,44,0,0,0,0,0,0,0,0],"split_type":[0,0,0,0,0,0,0,0,0,0,0,0,0,0,0],"sum_hessian":[2.699296E6,2.38296E6,3.16336E5,1.369825E6,1.013135E6,4.7934E4,2.68402E5,5.15735E5,8.5409E5,3.2289E5,6.90245E5,3.7939E4,9.995E3,1.8668E5,8.1722E4],"tree_param":{"num_deleted":"0","num_feature":"45","num_nodes":"15","size_leaf_vector":"1"}},{"base_weights":[-1.3061222E-1,1.1070345E2,-1.4302204E1,2.0845638E2,8.5156746E1,5.50253E1,-2.5777983E1,7.681608E0,4.8314795E0,4.408843E0,1.5308703E0,2.6688714E0,7.507157E-1,-1.7105673E-2,-1.0439783E0],"categories":[],"categories_nodes":[],"categories_segments":[],"categories_sizes":[],"default_left":[0,0,0,0,0,0,0,0,0,0,0,0,0,0,0],"id":37,"left_children":[1,3,5,7,9,11,13,-1,-1,-1,-1,-1,-1,-1,-1],"loss_changes":[4.236479E9,7.635996E8,1.9025874E9,1.4854093E8,5.3619264E8,3.916693E8,6.1402266E8,0E0,0E0,0E0,0E0,0E0,0E0,0E0,0E0],"parents":[2147483647,0,0,1,1,2,2,3,3,4,4,5,5,6,6],"right_children":[2,4,6,8,10,12,14,-1,-1,-1,-1,-1,-1,-1,-1],"split_conditions":[-3.246E0,-6.39E0,-5.1532E2,-9.116E0,-4.6378E2,-3.94E-1,-6.62E-1,7.681608E0,4.8314795E0,4.408843E0,1.5308703E0,2.6688714E0,7.507157E-1,-1.7105673E-2,-1.0439783E0],"split_indices":[10,10,15,10,15,10,10,0,0,0,0,0,0,0,0],"split_type":[0,0,0,0,0,0,0,0,0,0,0,0,0,0,0],"sum_hessian":[2.6972E6,3.05775E5,2.391425E6,6.3354E4,2.42421E5,3.39633E5,2.051792E6,2.1013E4,4.2341E4,6.9831E4,1.7259E5,1.37075E5,2.02558E5,6.58594E5,1.393198E6],"tree_param":{"num_deleted":"0","num_feature":"45","num_nodes":"15","size_leaf_vector":"1"}},{"base_weights":[1.0367108E-3,-2.5092293E1,5.9355682E1,-4.1146076E1,-7.6054015E0,3.830752E1,1.45048E2,-1.5610836E0,-9.328091E-1,3.016788E0,-3.003957E-1,4.7107416E-1,2.0891428E0,6.5541134E0,3.3758657E0],"categories":[],"categories_nodes":[],"categories_segments":[],"categories_sizes":[],"default_left":[0,0,0,0,0,0,0,0,0,0,0,0,0,0,0],"id":38,"left_children":[1,3,5,7,9,11,13,-1,-1,-1,-1,-1,-1,-1,-1],"loss_changes":[4.0204052E9,5.3261363E8,1.4467108E9,1.1244096E8,3.420741E8,5.0877843E8,3.360238E8,0E0,0E0,0E0,0E0,0E0,0E0,0E0,0E0],"parents":[2147483647,0,0,1,1,2,2,3,3,4,4,5,5,6,6],"right_children":[2,4,6,8,10,12,14,-1,-1,-1,-1,-1,-1,-1,-1],"split_conditions":[1.71E2,5.48E1,5.274E2,2.76E1,-4.226E0,6.111375E0,-6.814E0,-1.5610836E0,-9.328091E-1,3.016788E0,-3.003957E-1,4.7107416E-1,2.0891428E0,6.5541134E0,3.3758657E0],"split_indices":[40,40,40,41,10,36,10,0,0,0,0,0,0,0,0],"split_type":[0,0,0,0,0,0,0,0,0,0,0,0,0,0,0],"sum_hessian":[2.699335E6,1.89724E6,8.02095E5,9.89152E5,9.08088E5,6.4393E5,1.58165E5,3.26599E5,6.62553E5,2.4537E4,8.83551E5,4.08927E5,2.35003E5,3.2036E4,1.26129E5],"tree_param":{"num_deleted":"0","num_feature":"45","num_nodes":"15","size_leaf_vector":"1"}},{"base_weights":[-1.586325E-3,1.037254E2,-1.3784939E1,7.2208954E1,1.7883151E2,4.043617E1,-2.7338518E1,3.9449222E0,1.2677444E0,7.346385E0,4.2636776E0,2.3235946E0,4.646163E-1,-1.7637597E-1,-1.0739739E0],"categories":[],"categories_nodes":[],"categories_segments":[],"categories_sizes":[],"default_left":[0,0,0,0,0,0,0,0,0,0,0,0,0,0,0],"id":39,"left_children":[1,3,5,7,9,11,13,-1,-1,-1,-1,-1,-1,-1,-1],"loss_changes":[3.8584883E9,7.4930944E8,1.7506877E9,4.138971E8,2.0159744E8,4.8952794E8,4.5632755E8,0E0,0E0,0E0,0E0,0E0,0E0,0E0,0E0],"parents":[2147483647,0,0,1,1,2,2,3,3,4,4,5,5,6,6],"right_children":[2,4,6,8,10,12,14,-1,-1,-1,-1,-1,-1,-1,-1],"split_conditions":[-3.184E0,8.3249655E0,-4.8328E2,-4.6687E2,-9.116E0,-6.36E-1,-4.6400002E-1,3.9449222E0,1.2677444E0,7.346385E0,4.2636776E0,2.3235946E0,4.646163E-1,-1.7637597E-1,-1.0739739E0],"split_indices":[10,35,15,16,10,10,10,0,0,0,0,0,0,0,0],"split_type":[0,0,0,0,0,0,0,0,0,0,0,0,0,0,0],"sum_hessian":[2.698799E6,3.16555E5,2.382244E6,2.22985E5,9.357E4,4.76401E5,1.905843E6,6.108E4,1.61905E5,2.1009E4,7.2561E4,1.68104E5,3.08297E5,6.71718E5,1.234125E6],"tree_param":{"num_deleted":"0","num_feature":"45","num_nodes":"15","size_leaf_vector":"1"}},{"base_weights":[-2.5895718E-2,-1.9290497E1,7.029644E1,6.806239E1,-2.4314774E1,4.8415104E1,1.515324E2,4.235343E0,1.320358E0,-1.3951118E-2,-9.87904E-1,2.221983E0,5.36649E-1,3.850529E0,8.20627E0],"categories":[],"categories_nodes":[],"categories_segments":[],"categories_sizes":[],"default_left":[0,0,0,0,0,0,0,0,0,0,0,0,0,0,0],"id":40,"left_children":[1,3,5,7,9,11,13,-1,-1,-1,-1,-1,-1,-1,-1],"loss_changes":[3.656562E9,9.298634E8,1.03170816E9,1.9944131E8,5.406788E8,4.219404E8,2.2412774E8,0E0,0E0,0E0,0E0,0E0,0E0,0E0,0E0],"parents":[2147483647,0,0,1,1,2,2,3,3,4,4,5,5,6,6],"right_children":[2,4,6,8,10,12,14,-1,-1,-1,-1,-1,-1,-1,-1],"split_conditions":[2.4116667E2,-3.376E0,5.754E2,-5.482E0,-4.1746E2,-1.408E0,9.5749164E2,4.235343E0,1.320358E0,-1.3951118E-2,-9.87904E-1,2.221983E0,5.36649E-1,3.850529E0,8.20627E0],"split_indices":[44,10,40,10,15,10,44,0,0,0,0,0,0,0,0],"split_type":[0,0,0,0,0,0,0,0,0,0,0,0,0,0,0],"sum_hessian":[2.699104E6,2.118694E6,5.8041E5,1.15233E5,2.003461E6,4.57248E5,1.23162E5,2.2367E4,9.2866E4,6.46086E5,1.357375E6,2.18417E5,2.38831E5,1.133E5,9.862E3],"tree_param":{"num_deleted":"0","num_feature":"45","num_nodes":"15","size_leaf_vector":"1"}},{"base_weights":[-1.0211646E-1,-1.3473294E1,9.6815994E1,2.3638391E1,-2.81416E1,1.3676848E2,5.101031E1,1.4878143E0,-2.7542692E-1,8.347134E-1,-9.098279E-1,3.187897E0,5.9261003E0,2.6982293E0,7.209762E-1],"categories":[],"categories_nodes":[],"categories_segments":[],"categories_sizes":[],"default_left":[0,0,0,0,0,0,0,0,0,0,0,0,0,0,0],"id":41,"left_children":[1,3,5,7,9,11,13,-1,-1,-1,-1,-1,-1,-1,-1],"loss_changes":[3.496992E9,1.2908692E9,5.9871334E8,6.7778214E8,4.6436608E8,2.927063E8,1.7658669E8,0E0,0E0,0E0,0E0,0E0,0E0,0E0,0E0],"parents":[2147483647,0,0,1,1,2,2,3,3,4,4,5,5,6,6],"right_children":[2,4,6,8,10,12,14,-1,-1,-1,-1,-1,-1,-1,-1],"split_conditions":[3.5646667E2,-1.1800001E0,-1.978E0,-3.789E2,-5.43335E2,7.584E2,-5.6749915E2,1.4878143E0,-2.7542692E-1,8.347134E-1,-9.098279E-1,3.187897E0,5.9261003E0,2.6982293E0,7.209762E-1],"split_indices":[44,10,10,15,16,40,18,0,0,0,0,0,0,0,0],"split_type":[0,0,0,0,0,0,0,0,0,0,0,0,0,0,0],"sum_hessian":[2.698485E6,2.371328E6,3.27157E5,6.71753E5,1.699575E6,1.74743E5,1.52414E5,3.54499E5,3.17254E5,1.26609E5,1.572966E6,1.36308E5,3.8435E4,5.3391E4,9.9023E4],"tree_param":{"num_deleted":"0","num_feature":"45","num_nodes":"15","size_leaf_vector":"1"}},{"base_weights":[6.1638534E-2,-1.2547731E1,9.870438E1,-3.424716E1,9.335894E0,7.625026E1,1.7558116E2,-1.404129E0,-7.3884064E-1,-3.15493E-1,9.556629E-1,2.8323262E0,9.631071E-1,6.913713E0,4.13647E0],"categories":[],"categories_nodes":[],"categories_segments":[],"categories_sizes":[],"default_left":[0,0,0,0,0,0,0,0,0,0,0,0,0,0,0],"id":42,"left_children":[1,3,5,7,9,11,13,-1,-1,-1,-1,-1,-1,-1,-1],"loss_changes":[3.3551363E9,1.1357327E9,5.2774835E8,1.4959693E8,6.205309E8,2.5484032E8,1.3440307E8,0E0,0E0,0E0,0E0,0E0,0E0,0E0,0E0],"parents":[2147483647,0,0,1,1,2,2,3,3,4,4,5,5,6,6],"right_children":[2,4,6,8,10,12,14,-1,-1,-1,-1,-1,-1,-1,-1],"split_conditions":[3.826E2,6.82E1,9.324106E0,3.05E1,5.042146E0,-1.798E0,-8.99E0,-1.404129E0,-7.3884064E-1,-3.15493E-1,9.556629E-1,2.8323262E0,9.631071E-1,6.913713E0,4.13647E0],"split_indices":[40,40,37,42,36,11,11,0,0,0,0,0,0,0,0],"split_type":[0,0,0,0,0,0,0,0,0,0,0,0,0,0,0],"sum_hessian":[2.697439E6,2.39171E6,3.05729E5,1.200909E6,1.190801E6,2.36618E5,6.9111E4,3.79481E5,8.21428E5,6.52887E5,5.37914E5,1.4557E5,9.1048E4,1.8148E4,5.0963E4],"tree_param":{"num_deleted":"0","num_feature":"45","num_nodes":"15","size_leaf_vector":"1"}},{"base_weights":[1.3270146E-1,8.66089E1,-1.3557847E1,5.1683964E1,1.4541058E2,6.2175602E1,-2.1914345E1,3.2243311E0,7.4331534E-1,6.6568933E0,3.5517905E0,9.8842794E-1,2.788189E0,-9.772566E-2,-9.9188066E-1],"categories":[],"categories_nodes":[],"categories_segments":[],"categories_sizes":[],"default_left":[0,0,0,0,0,0,0,0,0,0,0,0,0,0,0],"id":43,"left_children":[1,3,5,7,9,11,13,-1,-1,-1,-1,-1,-1,-1,-1],"loss_changes":[3.1948124E9,7.574433E8,1.4743923E9,3.7200986E8,2.2467584E8,2.3588544E8,5.3541978E8,0E0,0E0,0E0,0E0,0E0,0E0,0E0,0E0],"parents":[2147483647,0,0,1,1,2,2,3,3,4,4,5,5,6,6],"right_children":[2,4,6,8,10,12,14,-1,-1,-1,-1,-1,-1,-1,-1],"split_conditions":[-2.842E0,7.2746077E0,-5.46505E2,-4.6382E2,-8.99E0,3.0512223E0,-3.9534E2,3.2243311E0,7.4331534E-1,6.6568933E0,3.5517905E0,9.8842794E-1,2.788189E0,-9.772566E-2,-9.9188066E-1],"split_indices":[11,36,16,16,11,33,15,0,0,0,0,0,0,0,0],"split_type":[0,0,0,0,0,0,0,0,0,0,0,0,0,0,0],"sum_hessian":[2.698534E6,3.68829E5,2.329705E6,2.31394E5,1.37435E5,2.31516E5,2.098189E6,6.4257E4,1.67137E5,2.1151E4,1.16284E5,1.37019E5,9.4497E4,9.02448E5,1.195741E6],"tree_param":{"num_deleted":"0","num_feature":"45","num_nodes":"15","size_leaf_vector":"1"}},{"base_weights":[-5.1022645E-2,8.710124E1,-1.2944259E1,6.2308815E1,1.65251E2,5.3018383E1,-2.1771282E1,3.5405512E0,1.0521814E0,6.587879E0,3.9073596E0,2.4321764E0,7.729429E-1,-1.7605457E-1,-1.0105875E0],"categories":[],"categories_nodes":[],"categories_segments":[],"categories_sizes":[],"default_left":[0,0,0,0,0,0,0,0,0,0,0,0,0,0,0],"id":44,"left_children":[1,3,5,7,9,11,13,-1,-1,-1,-1,-1,-1,-1,-1],"loss_changes":[3.032231E9,6.738015E8,1.3687217E9,4.2060896E8,1.4721638E8,2.4222848E8,4.697751E8,0E0,0E0,0E0,0E0,0E0,0E0,0E0,0E0],"parents":[2147483647,0,0,1,1,2,2,3,3,4,4,5,5,6,6],"right_children":[2,4,6,8,10,12,14,-1,-1,-1,-1,-1,-1,-1,-1],"split_conditions":[-3.014E0,8.73172E0,-5.3162E2,-4.6688998E2,-9.116E0,-2.43E-1,-3.8216E2,3.5405512E0,1.0521814E0,6.587879E0,3.9073596E0,2.4321764E0,7.729429E-1,-1.7605457E-1,-1.0105875E0],"split_indices":[10,35,15,17,10,11,15,0,0,0,0,0,0,0,0],"split_type":[0,0,0,0,0,0,0,0,0,0,0,0,0,0,0],"sum_hessian":[2.698495E6,3.47765E5,2.35073E6,2.6401E5,8.3755E4,2.77444E5,2.073286E6,7.1567E4,1.92443E5,2.1001E4,6.2754E4,1.16433E5,1.61011E5,1.01177E6,1.061516E6],"tree_param":{"num_deleted":"0","num_feature":"45","num_nodes":"15","size_leaf_vector":"1"}},{"base_weights":[2.0564854E-2,-2.2271194E1,4.8980606E1,-3.602898E1,-7.600956E0,2.6626814E1,1.0908535E2,-1.3921385E0,-8.145895E-1,-5.331088E-1,3.7605545E-1,2.216319E0,3.2788748E-1,2.5119972E0,5.448011E0],"categories":[],"categories_nodes":[],"categories_segments":[],"categories_sizes":[],"default_left":[0,0,0,0,0,0,0,0,0,0,0,0,0,0,0],"id":45,"left_children":[1,3,5,7,9,11,13,-1,-1,-1,-1,-1,-1,-1,-1],"loss_changes":[2.9483927E9,3.7465453E8,1.1355535E9,9.028698E7,2.2131019E8,4.862534E8,3.69707E8,0E0,0E0,0E0,0E0,0E0,0E0,0E0,0E0],"parents":[2147483647,0,0,1,1,2,2,3,3,4,4,5,5,6,6],"right_children":[2,4,6,8,10,12,14,-1,-1,-1,-1,-1,-1,-1,-1],"split_conditions":[1.61E2,5.32E1,7.2746077E0,2.75E1,5.199079E0,-5.60105E2,7.204E2,-1.3921385E0,-8.145895E-1,-5.331088E-1,3.7605545E-1,2.216319E0,3.2788748E-1,2.5119972E0,5.448011E0],"split_indices":[40,40,36,42,36,17,40,0,0,0,0,0,0,0,0],"split_type":[0,0,0,0,0,0,0,0,0,0,0,0,0,0,0],"sum_hessian":[2.701464E6,1.856287E6,8.45177E5,9.57934E5,8.98353E5,6.16057E5,2.2912E5,3.04949E5,6.52985E5,5.79719E5,3.18634E5,1.33754E5,4.82303E5,1.89242E5,3.9878E4],"tree_param":{"num_deleted":"0","num_feature":"45","num_nodes":"15","size_leaf_vector":"1"}},{"base_weights":[9.973695E-2,-1.2109362E1,8.5634705E1,2.2028824E1,-2.553296E1,6.468653E1,1.5615862E2,1.0585061E-1,1.9467473E0,7.616803E-1,-8.1947815E-1,2.4829385E0,7.4143094E-1,3.898868E0,7.439472E0],"categories":[],"categories_nodes":[],"categories_segments":[],"categories_sizes":[],"default_left":[0,0,0,0,0,0,0,0,0,0,0,0,0,0,0],"id":46,"left_children":[1,3,5,7,9,11,13,-1,-1,-1,-1,-1,-1,-1,-1],"loss_changes":[2.8174008E9,1.0818924E9,4.978473E8,5.850596E8,3.627781E8,2.4549798E8,1.3404429E8,0E0,0E0,0E0,0E0,0E0,0E0,0E0,0E0],"parents":[2147483647,0,0,1,1,2,2,3,3,4,4,5,5,6,6],"right_children":[2,4,6,8,10,12,14,-1,-1,-1,-1,-1,-1,-1,-1],"split_conditions":[3.5020834E2,-1.1800001E0,6.61E2,5.920233E0,-5.4638165E2,-8.38E-1,9.5749164E2,1.0585061E-1,1.9467473E0,7.616803E-1,-8.1947815E-1,2.4829385E0,7.4143094E-1,3.898868E0,7.439472E0],"split_indices":[44,10,40,35,17,10,44,0,0,0,0,0,0,0,0],"split_type":[0,0,0,0,0,0,0,0,0,0,0,0,0,0,0],"sum_hessian":[2.697872E6,2.360884E6,3.36988E5,6.66324E5,1.69456E6,2.59814E5,7.7174E4,4.83674E5,1.8265E5,1.19926E5,1.574634E6,1.56825E5,1.02989E5,6.7831E4,9.343E3],"tree_param":{"num_deleted":"0","num_feature":"45","num_nodes":"15","size_leaf_vector":"1"}},{"base_weights":[4.2151276E-2,7.5596115E1,-1.30901375E1,4.5318363E1,1.3260548E2,4.8847115E1,-2.1367577E1,2.3311043E0,2.5391757E-1,7.2603164E0,3.3537972E0,5.437892E-1,2.114363E0,-1.3178453E-1,-9.163455E-1],"categories":[],"categories_nodes":[],"categories_segments":[],"categories_sizes":[],"default_left":[0,0,0,0,0,0,0,0,0,0,0,0,0,0,0],"id":47,"left_children":[1,3,5,7,9,11,13,-1,-1,-1,-1,-1,-1,-1,-1],"loss_changes":[2.677593E9,6.8976435E8,1.1786798E9,3.6612704E8,2.077394E8,2.1742048E8,3.9412826E8,0E0,0E0,0E0,0E0,0E0,0E0,0E0,0E0],"parents":[2147483647,0,0,1,1,2,2,3,3,4,4,5,5,6,6],"right_children":[2,4,6,8,10,12,14,-1,-1,-1,-1,-1,-1,-1,-1],"split_conditions":[-2.756E0,7.3416214E0,-5.3162E2,-4.0050482E2,-5.6368665E2,4.762006E0,-3.961E2,2.3311043E0,2.5391757E-1,7.2603164E0,3.3537972E0,5.437892E-1,2.114363E0,-1.3178453E-1,-9.163455E-1],"split_indices":[10,35,15,19,18,39,15,0,0,0,0,0,0,0,0],"split_type":[0,0,0,0,0,0,0,0,0,0,0,0,0,0,0],"sum_hessian":[2.698652E6,3.99605E5,2.299047E6,2.60992E5,1.38613E5,2.71029E5,2.028018E6,1.25893E5,1.35099E5,1.139E4,1.27223E5,1.31271E5,1.39758E5,8.38028E5,1.18999E6],"tree_param":{"num_deleted":"0","num_feature":"45","num_nodes":"15","size_leaf_vector":"1"}},{"base_weights":[4.8331823E-4,-1.2686816E1,7.4925735E1,2.0510168E1,-2.4342703E1,5.4940086E1,1.4324274E2,1.3690163E0,-2.333055E-1,6.9721735E-1,-7.779007E-1,2.2969365E0,7.898623E-1,3.5973608E0,7.070274E0],"categories":[],"categories_nodes":[],"categories_segments":[],"categories_sizes":[],"default_left":[0,0,0,0,0,0,0,0,0,0,0,0,0,0,0],"id":48,"left_children":[1,3,5,7,9,11,13,-1,-1,-1,-1,-1,-1,-1,-1],"loss_changes":[2.5653916E9,8.930219E8,5.335872E8,5.0126413E8,3.152158E8,2.233799E8,1.3292659E8,0E0,0E0,0E0,0E0,0E0,0E0,0E0,0E0],"parents":[2147483647,0,0,1,1,2,2,3,3,4,4,5,5,6,6],"right_children":[2,4,6,8,10,12,14,-1,-1,-1,-1,-1,-1,-1,-1],"split_conditions":[3.2094168E2,-1.263E0,6.364E2,-3.8136E2,-5.4343E2,-1.6719999E0,9.5749164E2,1.3690163E0,-2.333055E-1,6.9721735E-1,-7.779007E-1,2.2969365E0,7.898623E-1,3.5973608E0,7.070274E0],"split_indices":[44,11,40,15,15,11,44,0,0,0,0,0,0,0,0],"split_type":[0,0,0,0,0,0,0,0,0,0,0,0,0,0,0],"sum_hessian":[2.69871E6,2.307906E6,3.90804E5,5.99754E5,1.708152E6,3.02353E5,8.8451E4,3.00075E5,2.99679E5,1.19628E5,1.588524E6,1.46987E5,1.55366E5,7.8971E4,9.48E3],"tree_param":{"num_deleted":"0","num_feature":"45","num_nodes":"15","size_leaf_vector":"1"}},{"base_weights":[-9.007226E-2,8.903096E1,-1.017686E1,1.6234303E2,6.723217E1,2.7421867E1,-2.3586355E1,6.967869E0,4.000069E0,3.111814E0,9.4051766E-1,1.7302868E0,1.285149E-1,-2.2634593E-1,-9.3990546E-1],"categories":[],"categories_nodes":[],"categories_segments":[],"categories_sizes":[],"default_left":[0,0,0,0,0,0,0,0,0,0,0,0,0,0,0],"id":49,"left_children":[1,3,5,7,9,11,13,-1,-1,-1,-1,-1,-1,-1,-1],"loss_changes":[2.423466E9,4.380439E8,1.2210225E9,1.0074419E8,3.1694618E8,5.0793645E8,2.843314E8,0E0,0E0,0E0,0E0,0E0,0E0,0E0,0E0],"parents":[2147483647,0,0,1,1,2,2,3,3,4,4,5,5,6,6],"right_children":[2,4,6,8,10,12,14,-1,-1,-1,-1,-1,-1,-1,-1],"split_conditions":[-3.444E0,-6.39E0,-4.58E2,-1.1268E1,-4.1629044E2,-4.4E-1,-2.5E-1,6.967869E0,4.000069E0,3.111814E0,9.4051766E-1,1.7302868E0,1.285149E-1,-2.2634593E-1,-9.3990546E-1],"split_indices":[10,10,15,10,19,10,10,0,0,0,0,0,0,0,0],"split_type":[0,0,0,0,0,0,0,0,0,0,0,0,0,0,0],"sum_hessian":[2.6959E6,2.74101E5,2.421799E6,6.2822E4,2.11279E5,6.36664E5,1.785135E6,1.0559E4,5.2263E4,8.9778E4,1.21501E5,2.50969E5,3.85695E5,7.16178E5,1.068957E6],"tree_param":{"num_deleted":"0","num_feature":"45","num_nodes":"15","size_leaf_vector":"1"}},{"base_weights":[-2.1329203E-1,-1.0965923E1,8.072772E1,1.9076357E1,-2.337974E1,6.24249E1,1.484539E2,-1.3578926E-1,1.4093119E0,7.419798E-1,-7.4508584E-1,2.397938E0,7.992451E-1,3.7048662E0,6.7471013E0],"categories":[],"categories_nodes":[],"categories_segments":[],"categories_sizes":[],"default_left":[0,0,0,0,0,0,0,0,0,0,0,0,0,0,0],"id":50,"left_children":[1,3,5,7,9,11,13,-1,-1,-1,-1,-1,-1,-1,-1],"loss_changes":[2.3468037E9,8.8768934E8,3.9196045E8,5.3028186E8,2.9622464E8,2.0151949E8,9.436557E7,0E0,0E0,0E0,0E0,0E0,0E0,0E0,0E0],"parents":[2147483647,0,0,1,1,2,2,3,3,4,4,5,5,6,6],"right_children":[2,4,6,8,10,12,14,-1,-1,-1,-1,-1,-1,-1,-1],"split_conditions":[3.631E2,-1.126E0,6.886E2,5.0016875E0,-5.5314E2,-1.126E0,9.5749164E2,-1.3578926E-1,1.4093119E0,7.419798E-1,-7.4508584E-1,2.397938E0,7.992451E-1,3.7048662E0,6.7471013E0],"split_indices":[44,10,40,35,15,10,44,0,0,0,0,0,0,0,0],"split_type":[0,0,0,0,0,0,0,0,0,0,0,0,0,0,0],"sum_hessian":[2.696456E6,2.380251E6,3.16205E5,6.95966E5,1.684285E6,2.48932E5,6.7273E4,3.9668E5,2.99286E5,1.10067E5,1.574218E6,1.44918E5,1.04014E5,5.8226E4,9.047E3],"tree_param":{"num_deleted":"0","num_feature":"45","num_nodes":"15","size_leaf_vector":"1"}},{"base_weights":[-1.2221231E-2,-2.018647E1,4.122417E1,-3.6514637E1,-1.0496139E1,2.2235964E1,9.856825E1,-1.3079745E0,-8.388356E-1,-5.762101E-1,1.4921339E-1,1.9744947E0,2.5641203E-1,5.6505213E0,2.3946116E0],"categories":[],"categories_nodes":[],"categories_segments":[],"categories_sizes":[],"default_left":[0,0,0,0,0,0,0,0,0,0,0,0,0,0,0],"id":51,"left_children":[1,3,5,7,9,11,13,-1,-1,-1,-1,-1,-1,-1,-1],"loss_changes":[2.246304E9,2.8688218E8,9.658656E8,4.505587E7,1.8605162E8,4.2406102E8,2.8259034E8,0E0,0E0,0E0,0E0,0E0,0E0,0E0,0E0],"parents":[2147483647,0,0,1,1,2,2,3,3,4,4,5,5,6,6],"right_children":[2,4,6,8,10,12,14,-1,-1,-1,-1,-1,-1,-1,-1],"split_conditions":[1.514E2,4.1866665E1,7.440651E0,2.44E1,4.9162116E0,-5.60105E2,-5.7181665E2,-1.3079745E0,-8.388356E-1,-5.762101E-1,1.4921339E-1,1.9744947E0,2.5641203E-1,5.6505213E0,2.3946116E0],"split_indices":[40,42,37,40,36,17,17,0,0,0,0,0,0,0,0],"split_type":[0,0,0,0,0,0,0,0,0,0,0,0,0,0,0],"sum_hessian":[2.700166E6,1.813124E6,8.87042E5,6.7528E5,1.137844E6,6.66384E5,2.20658E5,2.49117E5,4.26163E5,6.90285E5,4.47559E5,1.39553E5,5.26831E5,2.2835E4,1.97823E5],"tree_param":{"num_deleted":"0","num_feature":"45","num_nodes":"15","size_leaf_vector":"1"}},{"base_weights":[-5.2816004E-2,8.962747E1,-8.921002E0,1.5939563E2,7.014588E1,2.3001472E1,-2.3247864E1,6.4583583E0,3.901971E0,3.6201317E0,1.3043627E0,1.5779729E0,5.392136E-2,-2.468981E-1,-9.0462464E-1],"categories":[],"categories_nodes":[],"categories_segments":[],"categories_sizes":[],"default_left":[0,0,0,0,0,0,0,0,0,0,0,0,0,0,0],"id":52,"left_children":[1,3,5,7,9,11,13,-1,-1,-1,-1,-1,-1,-1,-1],"loss_changes":[2.1472641E9,3.3023155E8,1.1236948E9,7.262387E7,2.6512115E8,5.439071E8,2.2846438E8,0E0,0E0,0E0,0E0,0E0,0E0,0E0,0E0],"parents":[2147483647,0,0,1,1,2,2,3,3,4,4,5,5,6,6],"right_children":[2,4,6,8,10,12,14,-1,-1,-1,-1,-1,-1,-1,-1],"split_conditions":[-3.668E0,-6.814E0,-4.4196E2,-1.1268E1,-4.6531168E2,-5.28E-1,-3.2E-1,6.4583583E0,3.901971E0,3.6201317E0,1.3043627E0,1.5779729E0,5.392136E-2,-2.468981E-1,-9.0462464E-1],"split_indices":[10,10,15,10,17,11,10,0,0,0,0,0,0,0,0],"split_type":[0,0,0,0,0,0,0,0,0,0,0,0,0,0,0],"sum_hessian":[2.699937E6,2.42962E5,2.456975E6,5.3034E4,1.89928E5,7.61108E5,1.695867E6,1.0689E4,4.2345E4,5.2452E4,1.37476E5,2.914E5,4.69708E5,6.71338E5,1.024529E6],"tree_param":{"num_deleted":"0","num_feature":"45","num_nodes":"15","size_leaf_vector":"1"}},{"base_weights":[-5.508716E-2,6.3943554E1,-1.1891022E1,3.649935E1,1.1381017E2,5.1139824E1,-1.8180092E1,2.5553305E0,4.3541896E-1,5.6544056E0,2.7605927E0,7.3214436E-1,2.461643E0,-6.637858E-2,-8.07829E-1],"categories":[],"categories_nodes":[],"categories_segments":[],"categories_sizes":[],"default_left":[0,0,0,0,0,0,0,0,0,0,0,0,0,0,0],"id":53,"left_children":[1,3,5,7,9,11,13,-1,-1,-1,-1,-1,-1,-1,-1],"loss_changes":[2.0447388E9,5.7658074E8,9.0304166E8,3.1470112E8,1.9154022E8,1.9255789E8,3.586962E8,0E0,0E0,0E0,0E0,0E0,0E0,0E0,0E0],"parents":[2147483647,0,0,1,1,2,2,3,3,4,4,5,5,6,6],"right_children":[2,4,6,8,10,12,14,-1,-1,-1,-1,-1,-1,-1,-1],"split_conditions":[-2.602E0,7.168185E0,-5.5314E2,-4.6531168E2,-5.2586E2,3.0512223E0,-4.0046E2,2.5553305E0,4.3541896E-1,5.6544056E0,2.7605927E0,7.3214436E-1,2.461643E0,-6.637858E-2,-8.07829E-1],"split_indices":[11,35,15,17,15,33,15,0,0,0,0,0,0,0,0],"split_type":[0,0,0,0,0,0,0,0,0,0,0,0,0,0,0],"sum_hessian":[2.699383E6,4.21308E5,2.278075E6,2.7175E5,1.49558E5,2.06679E5,2.071396E6,7.3845E4,1.97905E5,2.0329E4,1.29229E5,1.24813E5,8.1866E4,8.49333E5,1.222063E6],"tree_param":{"num_deleted":"0","num_feature":"45","num_nodes":"15","size_leaf_vector":"1"}},{"base_weights":[9.4051845E-4,-9.29665E0,7.869016E1,1.5206959E1,-2.1667969E1,5.684838E1,1.3095734E2,1.1023445E0,-3.2676718E-1,8.3951616E-1,-7.014322E-1,5.737307E-1,2.1354818E0,3.1528432E0,5.5830145E0],"categories":[],"categories_nodes":[],"categories_segments":[],"categories_sizes":[],"default_left":[0,0,0,0,0,0,0,0,0,0,0,0,0,0,0],"id":54,"left_children":[1,3,5,7,9,11,13,-1,-1,-1,-1,-1,-1,-1,-1],"loss_changes":[1.9739231E9,7.314562E8,3.254716E8,5.3701997E8,3.0353818E8,1.4688762E8,1.0181837E8,0E0,0E0,0E0,0E0,0E0,0E0,0E0,0E0],"parents":[2147483647,0,0,1,1,2,2,3,3,4,4,5,5,6,6],"right_children":[2,4,6,8,10,12,14,-1,-1,-1,-1,-1,-1,-1,-1],"split_conditions":[3.986E2,-8.1200004E-1,5.901E2,-3.7978E2,-5.603E2,5.3669996E0,9.386E2,1.1023445E0,-3.2676718E-1,8.3951616E-1,-7.014322E-1,5.737307E-1,2.1354818E0,3.1528432E0,5.5830145E0],"split_indices":[40,10,44,15,15,36,40,0,0,0,0,0,0,0,0],"split_type":[0,0,0,0,0,0,0,0,0,0,0,0,0,0,0],"sum_hessian":[2.698016E6,2.412916E6,2.851E5,8.09519E5,1.603397E6,2.01074E5,8.4026E4,4.2381E5,3.85709E5,1.05054E5,1.498343E6,7.211E4,1.28964E5,6.7558E4,1.6468E4],"tree_param":{"num_deleted":"0","num_feature":"45","num_nodes":"15","size_leaf_vector":"1"}},{"base_weights":[5.327055E-2,7.862823E1,-8.83764E0,6.009623E1,1.430186E2,3.1753305E1,-1.8550505E1,3.1655216E0,1.1141692E0,6.221464E0,3.4922938E0,1.6877376E0,2.0482682E-1,-7.283624E-1,3.806301E-2],"categories":[],"categories_nodes":[],"categories_segments":[],"categories_sizes":[],"default_left":[0,0,0,0,0,0,0,0,0,0,0,0,0,0,0],"id":55,"left_children":[1,3,5,7,9,11,13,-1,-1,-1,-1,-1,-1,-1,-1],"loss_changes":[1.8853135E9,3.2734285E8,9.558182E8,2.2936467E8,8.491558E7,3.3241475E8,3.0138528E8,0E0,0E0,0E0,0E0,0E0,0E0,0E0,0E0],"parents":[2147483647,0,0,1,1,2,2,3,3,4,4,5,5,6,6],"right_children":[2,4,6,8,10,12,14,-1,-1,-1,-1,-1,-1,-1,-1],"split_conditions":[-3.444E0,9.498465E0,-4.8694E2,-4.6687E2,-1.1268E1,-1.26E-1,5.567228E0,3.1655216E0,1.1141692E0,6.221464E0,3.4922938E0,1.6877376E0,2.0482682E-1,-7.283624E-1,3.806301E-2],"split_indices":[10,35,15,16,10,10,37,0,0,0,0,0,0,0,0],"split_type":[0,0,0,0,0,0,0,0,0,0,0,0,0,0,0],"sum_hessian":[2.698691E6,2.74322E5,2.424369E6,2.13015E5,6.1307E4,4.68107E5,1.956262E6,5.7241E4,1.55774E5,1.0582E4,5.0725E4,2.13117E5,2.5499E5,1.409311E6,5.46951E5],"tree_param":{"num_deleted":"0","num_feature":"45","num_nodes":"15","size_leaf_vector":"1"}},{"base_weights":[-4.1260824E-2,-1.3670588E1,4.9797577E1,7.731357E1,-1.6240036E1,3.6084427E1,1.1981932E2,1.2535033E0,3.3221252E0,-2.9679189E-2,-7.36287E-1,1.4751092E0,1.1272356E-1,2.7660313E0,4.990289E0],"categories":[],"categories_nodes":[],"categories_segments":[],"categories_sizes":[],"default_left":[0,0,0,0,0,0,0,0,0,0,0,0,0,0,0],"id":56,"left_children":[1,3,5,7,9,11,13,-1,-1,-1,-1,-1,-1,-1,-1],"loss_changes":[1.8326422E9,4.952826E8,5.563186E8,7.945594E7,3.2282368E8,2.659463E8,1.1438131E8,0E0,0E0,0E0,0E0,0E0,0E0,0E0,0E0],"parents":[2147483647,0,0,1,1,2,2,3,3,4,4,5,5,6,6],"right_children":[2,4,6,8,10,12,14,-1,-1,-1,-1,-1,-1,-1,-1],"split_conditions":[2.4116667E2,-4.226E0,5.901E2,-1.41725E0,-2.0199999E-1,-2.5E-1,8.602E2,1.2535033E0,3.3221252E0,-2.9679189E-2,-7.36287E-1,1.4751092E0,1.1272356E-1,2.7660313E0,4.990289E0],"split_indices":[44,10,44,14,10,10,40,0,0,0,0,0,0,0,0],"split_type":[0,0,0,0,0,0,0,0,0,0,0,0,0,0,0],"sum_hessian":[2.697959E6,2.118592E6,5.79367E5,5.8187E4,2.060405E6,4.84485E5,9.4882E4,3.318E4,2.5007E4,8.34644E5,1.225761E6,3.15523E5,1.68962E5,7.1231E4,2.3651E4],"tree_param":{"num_deleted":"0","num_feature":"45","num_nodes":"15","size_leaf_vector":"1"}},{"base_weights":[3.6788046E-2,-8.712534E0,7.4116585E1,1.7613258E1,-1.9754938E1,5.8223797E1,1.3765987E2,1.089928E0,-3.545426E-1,-9.69844E-2,-7.8598E-1,2.1818547E0,6.851525E-1,3.3866274E0,6.120725E0],"categories":[],"categories_nodes":[],"categories_segments":[],"categories_sizes":[],"default_left":[0,0,0,0,0,0,0,0,0,0,0,0,0,0,0],"id":57,"left_children":[1,3,5,7,9,11,13,-1,-1,-1,-1,-1,-1,-1,-1],"loss_changes":[1.7470079E9,7.007813E8,2.8752832E8,4.7040077E8,2.3761338E8,1.5647418E8,7.324109E7,0E0,0E0,0E0,0E0,0E0,0E0,0E0,0E0],"parents":[2147483647,0,0,1,1,2,2,3,3,4,4,5,5,6,6],"right_children":[2,4,6,8,10,12,14,-1,-1,-1,-1,-1,-1,-1,-1],"split_conditions":[3.8393332E2,-1.126E0,7.204E2,-3.699E2,-4.216E2,-8.9E-1,9.5749164E2,1.089928E0,-3.545426E-1,-9.69844E-2,-7.8598E-1,2.1818547E0,6.851525E-1,3.3866274E0,6.120725E0],"split_indices":[44,10,40,15,15,10,44,0,0,0,0,0,0,0,0],"split_type":[0,0,0,0,0,0,0,0,0,0,0,0,0,0,0],"sum_hessian":[2.695384E6,2.410668E6,2.84716E5,7.12359E5,1.698309E6,2.27753E5,5.6963E4,4.15562E5,2.96797E5,5.87941E5,1.110368E6,1.41269E5,8.6484E4,4.8041E4,8.922E3],"tree_param":{"num_deleted":"0","num_feature":"45","num_nodes":"15","size_leaf_vector":"1"}},{"base_weights":[-6.796657E-2,-1.4585222E1,4.1636765E1,8.488332E1,-1.6609243E1,2.8134129E1,1.02580696E2,4.2663593E0,1.7524993E0,-8.980808E-1,-2.2945009E-1,1.387105E0,2.4595943E-1,2.3903782E0,4.633335E0],"categories":[],"categories_nodes":[],"categories_segments":[],"categories_sizes":[],"default_left":[0,0,0,0,0,0,0,0,0,0,0,0,0,0,0],"id":58,"left_children":[1,3,5,7,9,11,13,-1,-1,-1,-1,-1,-1,-1,-1],"loss_changes":[1.6324596E9,4.026731E8,5.729276E8,5.962771E7,2.579447E8,2.406E8,1.3318758E8,0E0,0E0,0E0,0E0,0E0,0E0,0E0,0E0],"parents":[2147483647,0,0,1,1,2,2,3,3,4,4,5,5,6,6],"right_children":[2,4,6,8,10,12,14,-1,-1,-1,-1,-1,-1,-1,-1],"split_conditions":[2.05225E2,-4.466E0,5.38425E2,-6.39E0,4.1E1,-1.4959999E0,8.602E2,4.2663593E0,1.7524993E0,-8.980808E-1,-2.2945009E-1,1.387105E0,2.4595943E-1,2.3903782E0,4.633335E0],"split_indices":[44,10,44,10,40,10,40,0,0,0,0,0,0,0,0],"split_type":[0,0,0,0,0,0,0,0,0,0,0,0,0,0,0],"sum_hessian":[2.696327E6,2.0001E6,6.96227E5,3.9887E4,1.960213E6,5.6995E5,1.26277E5,9.517E3,3.037E4,6.76722E5,1.283491E6,2.6656E5,3.0339E5,1.00809E5,2.5468E4],"tree_param":{"num_deleted":"0","num_feature":"45","num_nodes":"15","size_leaf_vector":"1"}},{"base_weights":[2.4822535E-2,-1.6951088E1,3.4111652E1,-3.2011192E1,-8.672964E0,1.7161467E1,8.444724E1,-1.1786277E0,-7.3407626E-1,-4.8957893E-1,1.9797577E-1,1.7090957E0,1.6617672E-1,5.0564938E0,2.028884E0],"categories":[],"categories_nodes":[],"categories_segments":[],"categories_sizes":[],"default_left":[0,0,0,0,0,0,0,0,0,0,0,0,0,0,0],"id":59,"left_children":[1,3,5,7,9,11,13,-1,-1,-1,-1,-1,-1,-1,-1],"loss_changes":[1.5600024E9,2.2436128E8,7.6468794E8,3.7080896E7,1.6519592E8,3.332073E8,2.4862874E8,0E0,0E0,0E0,0E0,0E0,0E0,0E0,0E0],"parents":[2147483647,0,0,1,1,2,2,3,3,4,4,5,5,6,6],"right_children":[2,4,6,8,10,12,14,-1,-1,-1,-1,-1,-1,-1,-1],"split_conditions":[1.492E2,3.94E1,7.3933983E0,2.33E1,5.0643163E0,-5.6398E2,-5.7181665E2,-1.1786277E0,-7.3407626E-1,-4.8957893E-1,1.9797577E-1,1.7090957E0,1.6617672E-1,5.0564938E0,2.028884E0],"split_indices":[40,40,36,41,36,15,17,0,0,0,0,0,0,0,0],"split_type":[0,0,0,0,0,0,0,0,0,0,0,0,0,0,0],"sum_hessian":[2.695911E6,1.79965E6,8.96261E5,6.3834E5,1.16131E6,6.70481E5,2.2578E5,2.19736E5,4.18604E5,7.40348E5,4.20962E5,1.34454E5,5.36027E5,2.3218E4,2.02562E5],"tree_param":{"num_deleted":"0","num_feature":"45","num_nodes":"15","size_leaf_vector":"1"}},{"base_weights":[-3.9045256E-2,5.1432964E1,-1.1010485E1,2.8493172E1,9.748364E1,4.5243584E1,-1.636134E1,2.1261554E0,2.7496925E-1,3.2998264E0,1.3654386E0,6.096319E-1,2.2683768E0,-6.3797945E-1,1.2846915E-1],"categories":[],"categories_nodes":[],"categories_segments":[],"categories_sizes":[],"default_left":[0,0,0,0,0,0,0,0,0,0,0,0,0,0,0],"id":60,"left_children":[1,3,5,7,9,11,13,-1,-1,-1,-1,-1,-1,-1,-1],"loss_changes":[1.523633E9,5.0078093E8,6.694328E8,2.8340822E8,1.6407386E8,1.6439037E8,2.8399712E8,0E0,0E0,0E0,0E0,0E0,0E0,0E0,0E0],"parents":[2147483647,0,0,1,1,2,2,3,3,4,4,5,5,6,6],"right_children":[2,4,6,8,10,12,14,-1,-1,-1,-1,-1,-1,-1,-1],"split_conditions":[-2.385E0,7.114506E0,-5.5642303E2,-4.6382E2,-3.6868832E2,3.0512223E0,5.91003E0,2.1261554E0,2.7496925E-1,3.2998264E0,1.3654386E0,6.096319E-1,2.2683768E0,-6.3797945E-1,1.2846915E-1],"split_indices":[11,35,17,16,19,33,37,0,0,0,0,0,0,0,0],"split_type":[0,0,0,0,0,0,0,0,0,0,0,0,0,0,0],"sum_hessian":[2.698023E6,4.74048E5,2.223975E6,3.16424E5,1.57624E5,1.93169E5,2.030806E6,8.7968E4,2.28456E5,1.08869E5,4.8755E4,1.18152E5,7.5017E4,1.541767E6,4.89039E5],"tree_param":{"num_deleted":"0","num_feature":"45","num_nodes":"15","size_leaf_vector":"1"}},{"base_weights":[5.008693E-2,7.347018E1,-7.195472E0,1.3466576E2,5.649359E1,1.8764149E1,-2.0182673E1,5.596548E0,3.264241E0,2.6282003E0,7.8389055E-1,1.2779133E0,-2.0021709E-2,-2.5973722E-1,-7.9824996E-1],"categories":[],"categories_nodes":[],"categories_segments":[],"categories_sizes":[],"default_left":[0,0,0,0,0,0,0,0,0,0,0,0,0,0,0],"id":61,"left_children":[1,3,5,7,9,11,13,-1,-1,-1,-1,-1,-1,-1,-1],"loss_changes":[1.4354556E9,2.5179968E8,8.2802445E8,5.9764864E7,2.0521952E8,4.3647283E8,1.5258131E8,0E0,0E0,0E0,0E0,0E0,0E0,0E0,0E0],"parents":[2147483647,0,0,1,1,2,2,3,3,4,4,5,5,6,6],"right_children":[2,4,6,8,10,12,14,-1,-1,-1,-1,-1,-1,-1,-1],"split_conditions":[-3.668E0,-6.814E0,-4.348E2,-1.1268E1,-4.1738956E2,-3.38E-1,-5.4E-2,5.596548E0,3.264241E0,2.6282003E0,7.8389055E-1,1.2779133E0,-2.0021709E-2,-2.5973722E-1,-7.9824996E-1],"split_indices":[10,10,15,10,18,11,10,0,0,0,0,0,0,0,0],"split_type":[0,0,0,0,0,0,0,0,0,0,0,0,0,0,0],"sum_hessian":[2.698379E6,2.42374E5,2.456005E6,5.2636E4,1.89738E5,8.18979E5,1.637026E6,1.0554E4,4.2082E4,8.0417E4,1.09321E5,3.40745E5,4.78234E5,7.26358E5,9.10668E5],"tree_param":{"num_deleted":"0","num_feature":"45","num_nodes":"15","size_leaf_vector":"1"}},{"base_weights":[2.2657229E-2,5.242169E1,-9.666197E0,3.4521507E1,1.0947679E2,4.6444107E1,-1.4721633E1,2.261715E0,4.488529E-1,5.667569E0,2.7018695E0,6.516437E-1,2.3032143E0,-6.4386904E-1,5.327456E-2],"categories":[],"categories_nodes":[],"categories_segments":[],"categories_sizes":[],"default_left":[0,0,0,0,0,0,0,0,0,0,0,0,0,0,0],"id":62,"left_children":[1,3,5,7,9,11,13,-1,-1,-1,-1,-1,-1,-1,-1],"loss_changes":[1.3693659E9,4.2987366E8,6.457159E8,2.7648346E8,1.1444032E8,1.5818509E8,2.9585955E8,0E0,0E0,0E0,0E0,0E0,0E0,0E0,0E0],"parents":[2147483647,0,0,1,1,2,2,3,3,4,4,5,5,6,6],"right_children":[2,4,6,8,10,12,14,-1,-1,-1,-1,-1,-1,-1,-1],"split_conditions":[-2.662E0,8.3249655E0,-5.603E2,-4.6382E2,-5.4032E2,3.0512223E0,5.1963496E0,2.261715E0,4.488529E-1,5.667569E0,2.7018695E0,6.516437E-1,2.3032143E0,-6.4386904E-1,5.327456E-2],"split_indices":[10,35,15,17,16,33,37,0,0,0,0,0,0,0,0],"split_type":[0,0,0,0,0,0,0,0,0,0,0,0,0,0,0],"sum_hessian":[2.697266E6,4.2091E5,2.276356E6,3.20392E5,1.00518E5,1.88144E5,2.088212E6,8.9748E4,2.30644E5,1.1252E4,8.9266E4,1.15757E5,7.2387E4,1.381606E6,7.06606E5],"tree_param":{"num_deleted":"0","num_feature":"45","num_nodes":"15","size_leaf_vector":"1"}},{"base_weights":[-2.8572187E-2,-7.4535885E0,6.55642E1,1.3647224E1,-1.8800167E1,5.1243195E1,1.20556145E2,-1.916674E-1,1.0938296E0,-1.531008E-1,-7.344117E-1,1.8704202E0,4.203336E-1,2.9447148E0,5.502458E0],"categories":[],"categories_nodes":[],"categories_segments":[],"categories_sizes":[],"default_left":[0,0,0,0,0,0,0,0,0,0,0,0,0,0,0],"id":63,"left_children":[1,3,5,7,9,11,13,-1,-1,-1,-1,-1,-1,-1,-1],"loss_changes":[1.3150657E9,5.80745E8,2.1623898E8,4.504247E8,1.6126682E8,1.2771398E8,6.325811E7,0E0,0E0,0E0,0E0,0E0,0E0,0E0,0E0],"parents":[2147483647,0,0,1,1,2,2,3,3,4,4,5,5,6,6],"right_children":[2,4,6,8,10,12,14,-1,-1,-1,-1,-1,-1,-1,-1],"split_conditions":[3.91475E2,-7.88E-1,7.204E2,4.837505E0,-4.1644E2,-2.0199999E-1,9.5749164E2,-1.916674E-1,1.0938296E0,-1.531008E-1,-7.344117E-1,1.8704202E0,4.203336E-1,2.9447148E0,5.502458E0],"split_indices":[44,10,40,35,15,10,44,0,0,0,0,0,0,0,0],"split_type":[0,0,0,0,0,0,0,0,0,0,0,0,0,0,0],"sum_hessian":[2.700188E6,2.425612E6,2.74576E5,8.48216E5,1.577396E6,2.17845E5,5.6731E4,4.722E5,3.76016E5,5.79106E5,9.9829E5,1.50189E5,6.7656E4,4.7944E4,8.787E3],"tree_param":{"num_deleted":"0","num_feature":"45","num_nodes":"15","size_leaf_vector":"1"}},{"base_weights":[-4.8145566E-2,-7.934501E0,5.929768E1,9.757469E0,-2.009347E1,4.414599E1,1.09272484E2,-2.9897562E-1,9.3361986E-1,1.0553918E0,-5.9890306E-1,1.7299031E0,4.3476856E-1,2.664394E0,5.2199926E0],"categories":[],"categories_nodes":[],"categories_segments":[],"categories_sizes":[],"default_left":[0,0,0,0,0,0,0,0,0,0,0,0,0,0,0],"id":64,"left_children":[1,3,5,7,9,11,13,-1,-1,-1,-1,-1,-1,-1,-1],"loss_changes":[1.2642836E9,5.1293696E8,2.3993203E8,4.7757376E8,1.2480288E8,1.2646912E8,7.653971E7,0E0,0E0,0E0,0E0,0E0,0E0,0E0,0E0],"parents":[2147483647,0,0,1,1,2,2,3,3,4,4,5,5,6,6],"right_children":[2,4,6,8,10,12,14,-1,-1,-1,-1,-1,-1,-1,-1],"split_conditions":[3.631E2,-4.16E-1,6.3485E2,4.5929637E0,-6.082131E2,-1.02E0,9.5749164E2,-2.9897562E-1,9.3361986E-1,1.0553918E0,-5.9890306E-1,1.7299031E0,4.3476856E-1,2.664394E0,5.2199926E0],"split_indices":[44,10,44,35,17,10,44,0,0,0,0,0,0,0,0],"split_type":[0,0,0,0,0,0,0,0,0,0,0,0,0,0,0],"sum_hessian":[2.701332E6,2.384465E6,3.16867E5,9.71247E5,1.413218E6,2.43148E5,7.3719E4,5.22595E5,4.48652E5,3.5936E4,1.377282E6,1.48055E5,9.5093E4,6.3225E4,1.0494E4],"tree_param":{"num_deleted":"0","num_feature":"45","num_nodes":"15","size_leaf_vector":"1"}},{"base_weights":[-1.4877155E-2,-1.2488831E1,3.5823708E1,8.060114E1,-1.4200236E1,2.39563E1,8.911211E1,2.8673263E0,5.623793E-1,-1.0585923E-1,-6.8643105E-1,1.0271387E0,-1.7219141E-2,2.885879E0,9.4399154E-1],"categories":[],"categories_nodes":[],"categories_segments":[],"categories_sizes":[],"default_left":[0,0,0,0,0,0,0,0,0,0,0,0,0,0,0],"id":65,"left_children":[1,3,5,7,9,11,13,-1,-1,-1,-1,-1,-1,-1,-1],"loss_changes":[1.206132E9,3.1885027E8,4.4052685E8,4.9823904E7,2.1562022E8,1.8354458E8,1.0493958E8,0E0,0E0,0E0,0E0,0E0,0E0,0E0,0E0],"parents":[2147483647,0,0,1,1,2,2,3,3,4,4,5,5,6,6],"right_children":[2,4,6,8,10,12,14,-1,-1,-1,-1,-1,-1,-1,-1],"split_conditions":[2.05225E2,-4.598E0,5.38425E2,-3.4603177E2,-3.7596E2,-1.26E-1,-8.2E-2,2.8673263E0,5.623793E-1,-1.0585923E-1,-6.8643105E-1,1.0271387E0,-1.7219141E-2,2.885879E0,9.4399154E-1],"split_indices":[44,10,44,18,15,10,11,0,0,0,0,0,0,0,0],"split_type":[0,0,0,0,0,0,0,0,0,0,0,0,0,0,0],"sum_hessian":[2.697987E6,2.001386E6,6.96601E5,3.613E4,1.965256E6,5.69723E5,1.26878E5,2.6197E4,9.933E3,9.91509E5,9.73747E5,3.71559E5,1.98164E5,9.9673E4,2.7205E4],"tree_param":{"num_deleted":"0","num_feature":"45","num_nodes":"15","size_leaf_vector":"1"}},{"base_weights":[2.7890872E-2,-1.1981015E1,3.5263523E1,6.876856E1,-1.3823505E1,2.5571957E1,9.567088E1,3.763747E0,1.38725E0,-1.2386981E-1,-6.9325185E-1,1.5522297E-1,1.1990621E0,2.1911135E0,4.0578923E0],"categories":[],"categories_nodes":[],"categories_segments":[],"categories_sizes":[],"default_left":[0,0,0,0,0,0,0,0,0,0,0,0,0,0,0],"id":66,"left_children":[1,3,5,7,9,11,13,-1,-1,-1,-1,-1,-1,-1,-1],"loss_changes":[1.142759E9,2.9967123E8,4.0188755E8,5.636384E7,2.0616294E8,2.090616E8,7.998861E7,0E0,0E0,0E0,0E0,0E0,0E0,0E0,0E0],"parents":[2147483647,0,0,1,1,2,2,3,3,4,4,5,5,6,6],"right_children":[2,4,6,8,10,12,14,-1,-1,-1,-1,-1,-1,-1,-1],"split_conditions":[2.0821666E2,-4.342E0,5.901E2,-6.39E0,-3.6916E2,5.436682E0,8.602E2,3.763747E0,1.38725E0,-1.2386981E-1,-6.9325185E-1,1.5522297E-1,1.1990621E0,2.1911135E0,4.0578923E0],"split_indices":[44,10,44,10,15,37,40,0,0,0,0,0,0,0,0],"split_type":[0,0,0,0,0,0,0,0,0,0,0,0,0,0,0],"sum_hessian":[2.700655E6,2.014186E6,6.86469E5,4.4933E4,1.969253E6,5.91561E5,9.4908E4,9.803E3,3.513E4,1.072749E6,8.96504E5,2.7792E5,3.13641E5,7.1514E4,2.3394E4],"tree_param":{"num_deleted":"0","num_feature":"45","num_nodes":"15","size_leaf_vector":"1"}},{"base_weights":[-8.2819074E-2,3.7770844E1,-1.0909074E1,1.7921646E1,7.901083E1,3.6053738E1,-1.55169115E1,1.7139039E0,4.766454E-2,2.754229E0,1.0313247E0,3.7317553E-1,1.8412659E0,-5.8902377E-1,8.5642345E-2],"categories":[],"categories_nodes":[],"categories_segments":[],"categories_sizes":[],"default_left":[0,0,0,0,0,0,0,0,0,0,0,0,0,0,0],"id":67,"left_children":[1,3,5,7,9,11,13,-1,-1,-1,-1,-1,-1,-1,-1],"loss_changes":[1.1058897E9,4.912647E8,4.540828E8,2.88321E8,1.660622E8,1.2869378E8,2.0402429E8,0E0,0E0,0E0,0E0,0E0,0E0,0E0,0E0],"parents":[2147483647,0,0,1,1,2,2,3,3,4,4,5,5,6,6],"right_children":[2,4,6,8,10,12,14,-1,-1,-1,-1,-1,-1,-1,-1],"split_conditions":[-1.932E0,6.772297E0,-5.52959E2,-4.653881E2,-3.7172083E2,2.934E0,5.9720483E0,1.7139039E0,4.766454E-2,2.754229E0,1.0313247E0,3.7317553E-1,1.8412659E0,-5.8902377E-1,8.5642345E-2],"split_indices":[11,35,17,18,19,31,37,0,0,0,0,0,0,0,0],"split_type":[0,0,0,0,0,0,0,0,0,0,0,0,0,0,0],"sum_hessian":[2.69852E6,6.00142E5,2.098378E6,4.05143E5,1.94999E5,1.8749E5,1.910888E6,1.0917E5,2.95973E5,1.31091E5,6.3908E4,1.07549E5,7.9941E4,1.460505E6,4.50383E5],"tree_param":{"num_deleted":"0","num_feature":"45","num_nodes":"15","size_leaf_vector":"1"}},{"base_weights":[-1.191765E-1,-1.4110685E1,2.7540905E1,-2.8280024E1,-7.1310835E0,1.3525144E1,7.214245E1,-1.0430773E0,-6.4361596E-1,-4.8573026E-1,6.939573E-2,1.4761846E0,1.02160595E-1,4.478143E0,1.722624E0],"categories":[],"categories_nodes":[],"categories_segments":[],"categories_sizes":[],"default_left":[0,0,0,0,0,0,0,0,0,0,0,0,0,0,0],"id":68,"left_children":[1,3,5,7,9,11,13,-1,-1,-1,-1,-1,-1,-1,-1],"loss_changes":[1.04388134E9,1.7714755E8,5.6641235E8,2.7969056E7,1.202169E8,2.6958003E8,1.9343642E8,0E0,0E0,0E0,0E0,0E0,0E0,0E0,0E0],"parents":[2147483647,0,0,1,1,2,2,3,3,4,4,5,5,6,6],"right_children":[2,4,6,8,10,12,14,-1,-1,-1,-1,-1,-1,-1,-1],"split_conditions":[1.47E2,3.8633335E1,7.5209723E0,2.28E1,4.3181396E0,-5.6398E2,-5.7181665E2,-1.0430773E0,-6.4361596E-1,-4.8573026E-1,6.939573E-2,1.4761846E0,1.02160595E-1,4.478143E0,1.722624E0],"split_indices":[40,42,36,41,37,15,17,0,0,0,0,0,0,0,0],"split_type":[0,0,0,0,0,0,0,0,0,0,0,0,0,0,0],"sum_hessian":[2.697324E6,1.791245E6,9.06079E5,5.91149E5,1.200096E6,6.8943E5,2.16649E5,2.07313E5,3.83836E5,5.77244E5,6.22852E5,1.36806E5,5.52624E5,2.1748E4,1.94901E5],"tree_param":{"num_deleted":"0","num_feature":"45","num_nodes":"15","size_leaf_vector":"1"}},{"base_weights":[-4.4850904E-2,3.801372E1,-9.965793E0,5.7899754E1,-1.0690393E0,2.9385212E1,-1.51625E1,1.2544761E0,3.2571247E0,1.803135E0,-3.1090343E-1,5.298366E-1,2.221271E0,-5.6702226E-1,7.1476385E-2],"categories":[],"categories_nodes":[],"categories_segments":[],"categories_sizes":[],"default_left":[0,0,0,0,0,0,0,0,0,0,0,0,0,0,0],"id":69,"left_children":[1,3,5,7,9,11,13,-1,-1,-1,-1,-1,-1,-1,-1],"loss_changes":[1.0186428E9,4.335579E8,4.3762022E8,2.7850803E8,1.26280264E8,1.3011304E8,1.7770253E8,0E0,0E0,0E0,0E0,0E0,0E0,0E0,0E0],"parents":[2147483647,0,0,1,1,2,2,3,3,4,4,5,5,6,6],"right_children":[2,4,6,8,10,12,14,-1,-1,-1,-1,-1,-1,-1,-1],"split_conditions":[-2.074E0,-3.6630624E2,-5.3162E2,8.963436E0,-5.733E0,4.446E0,6.003949E0,1.2544761E0,3.2571247E0,1.803135E0,-3.1090343E-1,5.298366E-1,2.221271E0,-5.6702226E-1,7.1476385E-2],"split_indices":[11,17,15,35,10,31,37,0,0,0,0,0,0,0,0],"split_type":[0,0,0,0,0,0,0,0,0,0,0,0,0,0,0],"sum_hessian":[2.697842E6,5.57845E5,2.139997E6,3.69723E5,1.88122E5,2.49641E5,1.890356E6,3.05096E5,6.4627E4,2.503E4,1.63092E5,2.07652E5,4.1989E4,1.455635E6,4.34721E5],"tree_param":{"num_deleted":"0","num_feature":"45","num_nodes":"15","size_leaf_vector":"1"}},{"base_weights":[-3.9789144E-2,6.0143238E1,-5.984328E0,1.0667036E2,4.3875423E1,1.5394916E1,-1.7261528E1,4.8655343E0,2.573476E0,2.1487658E0,5.2200425E-1,1.0460497E0,-8.449423E-2,-3.0267236E-1,-7.746509E-1],"categories":[],"categories_nodes":[],"categories_segments":[],"categories_sizes":[],"default_left":[0,0,0,0,0,0,0,0,0,0,0,0,0,0,0],"id":70,"left_children":[1,3,5,7,9,11,13,-1,-1,-1,-1,-1,-1,-1,-1],"loss_changes":[9.6531437E8,1.8358886E8,5.920545E8,5.977491E7,1.514815E8,3.4959552E8,1.0896877E8,0E0,0E0,0E0,0E0,0E0,0E0,0E0,0E0],"parents":[2147483647,0,0,1,1,2,2,3,3,4,4,5,5,6,6],"right_children":[2,4,6,8,10,12,14,-1,-1,-1,-1,-1,-1,-1,-1],"split_conditions":[-3.668E0,-6.39E0,-4.314E2,-1.1268E1,-4.1738956E2,-1.26E-1,-3.438E2,4.8655343E0,2.573476E0,2.1487658E0,5.2200425E-1,1.0460497E0,-8.449423E-2,-3.0267236E-1,-7.746509E-1],"split_indices":[10,10,16,10,18,10,16,0,0,0,0,0,0,0,0],"split_type":[0,0,0,0,0,0,0,0,0,0,0,0,0,0,0],"sum_hessian":[2.698215E6,2.42556E5,2.455659E6,6.2837E4,1.79719E5,8.48009E5,1.60765E6,1.0489E4,5.2348E4,7.6658E4,1.03061E5,3.83388E5,4.64621E5,1.009234E6,5.98416E5],"tree_param":{"num_deleted":"0","num_feature":"45","num_nodes":"15","size_leaf_vector":"1"}},{"base_weights":[2.9521266E-3,-5.986609E0,5.787675E1,8.650183E0,-1.858063E1,4.370997E1,9.980776E1,-3.238617E-1,7.965849E-1,1.1135732E0,-5.512019E-1,1.5425881E0,1.8822643E-1,2.455748E0,4.6342945E0],"categories":[],"categories_nodes":[],"categories_segments":[],"categories_sizes":[],"default_left":[0,0,0,0,0,0,0,0,0,0,0,0,0,0,0],"id":71,"left_children":[1,3,5,7,9,11,13,-1,-1,-1,-1,-1,-1,-1,-1],"loss_changes":[9.3509594E8,4.506296E8,1.5028909E8,4.620341E8,1.011145E8,8.345926E7,4.820979E7,0E0,0E0,0E0,0E0,0E0,0E0,0E0,0E0],"parents":[2147483647,0,0,1,1,2,2,3,3,4,4,5,5,6,6],"right_children":[2,4,6,8,10,12,14,-1,-1,-1,-1,-1,-1,-1,-1],"split_conditions":[4.0713333E2,-1.26E-1,6.886E2,4.384488E0,-6.1946497E2,6.3E-1,9.5749164E2,-3.238617E-1,7.965849E-1,1.1135732E0,-5.512019E-1,1.5425881E0,1.8822643E-1,2.455748E0,4.6342945E0],"split_indices":[44,10,40,36,17,10,44,0,0,0,0,0,0,0,0],"split_type":[0,0,0,0,0,0,0,0,0,0,0,0,0,0,0],"sum_hessian":[2.69761E6,2.444609E6,2.53001E5,1.130611E6,1.313998E6,1.89109E5,6.3892E4,5.6192E5,5.68691E5,2.8643E4,1.285355E6,1.42852E5,4.6257E4,5.4796E4,9.096E3],"tree_param":{"num_deleted":"0","num_feature":"45","num_nodes":"15","size_leaf_vector":"1"}},{"base_weights":[1.1566262E-2,6.2223507E1,-5.251516E0,7.39188E1,-1.4398817E0,3.146245E1,-1.1608206E1,3.2041671E0,1.6331626E0,-1.823207E-1,2.3813818E0,1.4124137E-1,1.436265E0,-4.523993E-3,-5.75079E-1],"categories":[],"categories_nodes":[],"categories_segments":[],"categories_sizes":[],"default_left":[0,0,0,0,0,0,0,0,0,0,0,0,0,0,0],"id":72,"left_children":[1,3,5,7,9,11,13,-1,-1,-1,-1,-1,-1,-1,-1],"loss_changes":[8.8280026E8,1.5658368E8,5.801519E8,1.1103539E8,1.4655222E7,1.9699629E8,2.2174685E8,0E0,0E0,0E0,0E0,0E0,0E0,0E0,0E0],"parents":[2147483647,0,0,1,1,2,2,3,3,4,4,5,5,6,6],"right_children":[2,4,6,8,10,12,14,-1,-1,-1,-1,-1,-1,-1,-1],"split_conditions":[-3.922E0,-3.3891962E2,-5.129E2,-6.814E0,6.886E2,4.632095E0,-1.02E-1,3.2041671E0,1.6331626E0,-1.823207E-1,2.3813818E0,1.4124137E-1,1.436265E0,-4.523993E-3,-5.75079E-1],"split_indices":[10,18,15,10,40,39,10,0,0,0,0,0,0,0,0],"split_type":[0,0,0,0,0,0,0,0,0,0,0,0,0,0,0],"sum_hessian":[2.696178E6,2.10303E5,2.485875E6,1.77665E5,3.2638E4,3.66884E5,2.118991E6,4.6966E4,1.30699E5,3.0825E4,1.813E3,1.59887E5,2.06997E5,9.41063E5,1.177928E6],"tree_param":{"num_deleted":"0","num_feature":"45","num_nodes":"15","size_leaf_vector":"1"}},{"base_weights":[5.8943696E-2,4.180451E1,-7.445745E0,6.2602528E1,5.836536E0,4.06931E1,-1.166245E1,1.0603487E0,2.4202118E0,1.7071036E0,-1.871851E-1,5.677622E-1,2.0265076E0,-5.2000797E-1,8.46584E-2],"categories":[],"categories_nodes":[],"categories_segments":[],"categories_sizes":[],"default_left":[0,0,0,0,0,0,0,0,0,0,0,0,0,0,0],"id":73,"left_children":[1,3,5,7,9,11,13,-1,-1,-1,-1,-1,-1,-1,-1],"loss_changes":[8.4472205E8,3.0734976E8,4.6391846E8,1.5670342E8,